// This file is generated. Do not edit.
// Generated on: 01.09.2020 23:27:38

#include "tensorflow/lite/c/builtin_op_data.h"
#include "tensorflow/lite/c/common.h"
#include "tensorflow/lite/micro/kernels/micro_ops.h"
#include "cifar10_compiled.cc.h" // prevent MISRA warning of missing declaration in header file

#if defined __GNUC__
#define ALIGN(X) __attribute__((aligned(X)))
#elif defined _MSC_VER
#define ALIGN(X) __declspec(align(X))
#elif defined __TASKING__
#define ALIGN(X) __align(X)
#endif

namespace {

constexpr int kTensorArenaSize = 144000;
uint8_t tensor_arena[kTensorArenaSize] ALIGN(16);
template <int SIZE, class T> struct TfArray {
  int sz; T elem[SIZE];
};
enum used_operators_e {
  OP_CONV_2D, OP_MAX_POOL_2D, OP_RESHAPE, OP_FULLY_CONNECTED,  OP_LAST
};
struct TensorInfo_t { // subset of TfLiteTensor used for initialization from constant memory
  TfLiteType type;
  uint8_t const* data;
  TfLiteIntArray const* dims;
  size_t bytes;
};
struct NodeInfo_t { // subset of TfLiteNode used for initialization from constant memory
  struct TfLiteIntArray const* inputs;
  struct TfLiteIntArray const* outputs;
  uint8_t const* builtin_data;
  used_operators_e used_op_index;
};

TfLiteContext ctx{};
TfLiteRegistration *registrations[OP_LAST];
TfLiteNode tflNodes[8];

const TfArray<4, int> tensor_dimension0 = { 4, { 1,32,32,3 } };
const ALIGN(8) float tensor_data1[32] = { -9.41465725190937519e-04F, 3.40590369887650013e-04F, -3.54462955147027969e-03F, -1.56640051864087582e-03F, 2.88616660982370377e-02F, 7.31456931680440903e-03F, -1.42265984322875738e-03F, 1.49211799725890160e-02F, 8.07388722896575928e-02F, -2.87277132272720337e-01F, 4.35346225276589394e-03F, 1.21596055105328560e-02F, 3.94845493137836456e-02F, -9.43349115550518036e-03F, -6.68310672044754028e-02F, -4.44380100816488266e-03F, 1.66084647178649902e-01F, -3.34247201681137085e-03F, 7.22646936774253845e-02F, -6.65873065590858459e-02F, 2.11629495024681091e-02F, 7.41545204073190689e-03F, -4.74026501178741455e-02F, 1.78817082196474075e-02F, 2.30534691363573074e-02F, 4.89989779889583588e-02F, 2.45797671377658844e-02F, 5.91352656483650208e-02F, -9.89662483334541321e-02F, 2.01010284945368767e-03F, -1.17647439241409302e-01F, -7.66526861116290092e-03F, };
const TfArray<1, int> tensor_dimension1 = { 1, { 32 } };
const ALIGN(8) float tensor_data2[64] = { -8.22860747575759888e-02F, -1.25155970454216003e-03F, 6.66879415512084961e-02F, 1.57443862408399582e-02F, 8.13978165388107300e-03F, 1.05077341198921204e-01F, 8.30635279417037964e-02F, 7.82397016882896423e-02F, 1.58626765012741089e-01F, -1.25383779406547546e-01F, -1.75635982304811478e-02F, -4.74357940256595612e-02F, 7.19903707504272461e-02F, -1.41616472974419594e-02F, -4.41286005079746246e-02F, -5.59975951910018921e-02F, 7.76950418949127197e-02F, -2.39269398152828217e-02F, 8.17959159612655640e-02F, -1.35390385985374451e-01F, 8.00744257867336273e-03F, 6.61950279027223587e-03F, 3.44334691762924194e-02F, -6.68608173727989197e-02F, -1.04148760437965393e-01F, -7.05391243100166321e-02F, -8.31184163689613342e-02F, -5.99299110472202301e-02F, 1.17046840488910675e-01F, 1.67792085558176041e-02F, -3.28445918858051300e-02F, -5.27792163193225861e-02F, 1.31212085485458374e-01F, 1.58466175198554993e-01F, 2.58237440139055252e-02F, -2.07451581954956055e-02F, 7.88491964340209961e-02F, 5.53132817149162292e-02F, 5.99978752434253693e-02F, 3.96995723247528076e-01F, -1.45930806174874306e-02F, 8.91953632235527039e-02F, -1.33623778820037842e-01F, 6.19083382189273834e-02F, -9.10005420446395874e-02F, -1.84101164340972900e-02F, 3.66222076117992401e-02F, 1.51145488023757935e-01F, 6.13003186881542206e-02F, 9.36103463172912598e-02F, 2.16329395771026611e-02F, 5.24438405409455299e-03F, 3.15979197621345520e-02F, -9.07396227121353149e-02F, 8.79014357924461365e-02F, 7.78556168079376221e-02F, 5.08622489869594574e-02F, 5.01467250287532806e-02F, -5.61806783080101013e-02F, -1.90421417355537415e-01F, -4.44673374295234680e-02F, 6.01553022861480713e-02F, -3.54136340320110321e-02F, -8.00023823976516724e-02F, };
const TfArray<1, int> tensor_dimension2 = { 1, { 64 } };
const ALIGN(8) float tensor_data3[64] = { 6.75568729639053345e-02F, -3.41082848608493805e-02F, -4.71056625247001648e-02F, 1.76313258707523346e-02F, 1.14857393782585859e-03F, -8.01340341567993164e-02F, 1.87814712524414062e-01F, -4.22504581511020660e-02F, -3.82069945335388184e-02F, -3.79592552781105042e-02F, -1.09476715326309204e-01F, -1.25104501843452454e-01F, 1.25630348920822144e-01F, 2.88421630859375000e-01F, 9.92986410856246948e-02F, 2.68020480871200562e-01F, 1.02435294538736343e-02F, 7.01844245195388794e-02F, -4.95367273688316345e-02F, -9.65983793139457703e-03F, 3.22522312402725220e-01F, 5.70288859307765961e-02F, -9.51525848358869553e-03F, -1.23459473252296448e-03F, 3.52291353046894073e-02F, -7.92317911982536316e-02F, 2.51700252294540405e-01F, 2.57283687591552734e-01F, 3.11078906059265137e-01F, -4.08328324556350708e-02F, 1.94637820124626160e-01F, 8.25913250446319580e-02F, 1.64057105779647827e-01F, 1.97325512766838074e-01F, -5.05578182637691498e-02F, 4.24517318606376648e-02F, -5.65343685448169708e-02F, 1.25670164823532104e-01F, -1.88998803496360779e-02F, -5.43445572257041931e-02F, 1.43838152289390564e-01F, 9.33742970228195190e-02F, -3.33897024393081665e-02F, 1.60422958433628082e-02F, 1.81560814380645752e-01F, 1.90560426563024521e-02F, -4.08174507319927216e-02F, -4.42903302609920502e-02F, 2.31684386730194092e-01F, -9.72083136439323425e-02F, -2.37995777279138565e-02F, 4.88285757601261139e-02F, 1.98235094547271729e-01F, -1.54444836080074310e-02F, -6.87879547476768494e-02F, -3.42000834643840790e-02F, -6.10251277685165405e-02F, -4.29340116679668427e-02F, -5.13963438570499420e-02F, 2.35745146870613098e-01F, -6.01786263287067413e-02F, -4.90159280598163605e-02F, -3.06589473038911819e-02F, -3.18676163442432880e-03F, };
const TfArray<1, int> tensor_dimension3 = { 1, { 64 } };
const ALIGN(8) float tensor_data4[64] = { -7.23829790949821472e-02F, -1.22019983828067780e-02F, -1.03691872209310532e-02F, -5.21755367517471313e-02F, 4.03326526284217834e-02F, -1.42228240147233009e-02F, 5.64974173903465271e-03F, -8.84723011404275894e-03F, -1.09599605202674866e-01F, -4.03088554739952087e-02F, 8.32185447216033936e-02F, 3.90775799751281738e-02F, -3.31045575439929962e-02F, -4.89321313798427582e-02F, -3.81978303194046021e-02F, 8.95172059535980225e-02F, 2.74579459801316261e-03F, 7.54254609346389771e-02F, -2.55226790904998779e-02F, 6.24297410249710083e-02F, 1.57578781247138977e-01F, -2.33974531292915344e-01F, -1.87271144241094589e-02F, -2.67652217298746109e-02F, -4.31697703897953033e-02F, 9.48163568973541260e-02F, 1.02715030312538147e-01F, 6.34877607226371765e-02F, -1.02309705689549446e-02F, -4.66652661561965942e-02F, -1.28772072494029999e-02F, -7.68160820007324219e-02F, -7.81532973051071167e-02F, -2.19338349997997284e-02F, -1.39140216633677483e-02F, 1.06736794114112854e-01F, -3.69487553834915161e-02F, 1.77847117185592651e-01F, 1.75353944301605225e-01F, -1.89951844513416290e-02F, -8.81503988057374954e-03F, -2.92256157845258713e-02F, -2.03749276697635651e-02F, 3.35023224353790283e-01F, -9.98905003070831299e-02F, 1.90918296575546265e-02F, -2.67868246883153915e-02F, -2.28545647114515305e-02F, -5.72722703218460083e-02F, -8.48229136317968369e-03F, -1.58359661698341370e-01F, 3.32515197806060314e-03F, -1.12260216847062111e-02F, -2.81843654811382294e-02F, 7.71300867199897766e-02F, -9.57570783793926239e-03F, -4.59764003753662109e-02F, 3.35270017385482788e-02F, 2.97865699976682663e-02F, 1.92553684115409851e-01F, 1.12272799015045166e-01F, 2.34170243144035339e-01F, -4.61620576679706573e-02F, 2.15469971299171448e-01F, };
const TfArray<1, int> tensor_dimension4 = { 1, { 64 } };
const ALIGN(8) float tensor_data5[10] = { -1.60537376999855042e-01F, -1.95852369070053101e-01F, -8.17604362964630127e-02F, 1.77376747131347656e-01F, 2.32834175229072571e-01F, -1.31049631163477898e-02F, 9.06298309564590454e-02F, -1.10433563590049744e-01F, 2.34765633940696716e-02F, -1.27098159864544868e-02F, };
const TfArray<1, int> tensor_dimension5 = { 1, { 10 } };
const ALIGN(8) int32_t tensor_data6[2] = { -1, 1024, };
const TfArray<1, int> tensor_dimension6 = { 1, { 2 } };
const ALIGN(8) float tensor_data7[64*1024] = { 
  4.14964295923709869e-02F, -1.15209594368934631e-02F, 1.90189592540264130e-02F, -3.63344401121139526e-01F, 1.13971889019012451e-01F, -3.08800451457500458e-02F, -1.25087276101112366e-02F, 4.08568605780601501e-02F, 4.91432435810565948e-02F, 7.19802360981702805e-03F, 2.23891153931617737e-01F, -1.26393631100654602e-01F, 2.08849683403968811e-01F, 6.70263469219207764e-02F, 3.71181517839431763e-01F, 6.72805160284042358e-02F, 1.49383898824453354e-02F, 1.35383784770965576e-01F, -4.66268695890903473e-02F, -1.48824378848075867e-01F, -2.41177193820476532e-02F, 1.81145235896110535e-01F, -1.29847392439842224e-01F, 3.56141567230224609e-01F, -4.60518635809421539e-02F, 1.08446560800075531e-01F, -2.25129023194313049e-01F, -4.52050827443599701e-02F, -3.19273799657821655e-01F, 4.91789318621158600e-02F, -4.26922380924224854e-01F, -2.36334688961505890e-02F, -1.27310499548912048e-01F, -8.62094014883041382e-02F, 1.74192860722541809e-02F, 6.97381123900413513e-02F, -3.28383855521678925e-02F, 9.46632474660873413e-02F, 4.13573414087295532e-01F, -8.98534730076789856e-02F, 5.22981621325016022e-02F, -8.42073038220405579e-02F, 2.11581401526927948e-02F, -1.56902074813842773e-01F, 1.97645112872123718e-01F, -8.71342048048973083e-02F, -3.62319895066320896e-03F, -5.86891658604145050e-02F, 2.51405805349349976e-01F, 6.61902921274304390e-03F, 2.92887147516012192e-02F, -1.68354082852602005e-02F, 2.62126415967941284e-01F, -2.75696814060211182e-02F, 4.39184345304965973e-02F, -2.17057213187217712e-01F, 5.43450564146041870e-02F, 2.35141701996326447e-02F, 9.25319716334342957e-02F, 7.13078081607818604e-02F, 2.49388977885246277e-01F, 6.74177706241607666e-02F, 1.38511046767234802e-01F, 5.08897453546524048e-02F, 1.49038881063461304e-01F, 4.17289137840270996e-03F, 2.43773739784955978e-02F, -2.95785292983055115e-02F, 1.70453399419784546e-01F, -1.66237145662307739e-01F, 1.16634696722030640e-01F, 3.92296910285949707e-02F, 1.18807777762413025e-02F, -3.79759706556797028e-02F, -5.07293418049812317e-02F, -1.26794800162315369e-01F, 1.24335981905460358e-01F, 9.13411527872085571e-02F, 1.05781620368361473e-02F, 8.40711817145347595e-02F, 7.94113278388977051e-02F, 8.99405702948570251e-02F, -3.39064337313175201e-02F, 3.91828194260597229e-02F, -3.29124368727207184e-03F, 2.66338754445314407e-02F, -6.59255236387252808e-02F, 2.18651756644248962e-01F, -1.45252749323844910e-01F, 8.30360513646155596e-04F, -1.21605873107910156e-01F, -1.69436275959014893e-01F, 8.53616651147603989e-03F, -3.49208638072013855e-02F, -2.41786856204271317e-02F, -2.60735340416431427e-02F, 1.47781401872634888e-01F, 7.84796923398971558e-02F, -1.37609377503395081e-01F, -5.02677808981388807e-04F, 4.39046975225210190e-03F, 1.31755918264389038e-01F, -9.77227389812469482e-02F, 4.26727309823036194e-02F, 2.44826078414916992e-02F, 1.81383807212114334e-02F, 5.62898069620132446e-02F, -3.05755063891410828e-02F, 2.06517130136489868e-01F, 8.52029174566268921e-02F, 1.90899427980184555e-02F, -6.36905729770660400e-02F, 1.18537783622741699e-01F, 1.18132896721363068e-01F, -5.90752288699150085e-02F, 1.32114782929420471e-01F, 1.42622247338294983e-01F, -2.10256036370992661e-02F, 1.24967493116855621e-01F, 1.72612875699996948e-01F, -1.37924998998641968e-02F, -5.98487220704555511e-02F, 5.59183843433856964e-02F, 5.27590699493885040e-02F, -5.66283129155635834e-02F, 1.74016784876585007e-02F, 4.11877483129501343e-02F, 3.80740985274314880e-02F, 2.53751814365386963e-01F, -6.71361312270164490e-02F, 2.28116810321807861e-02F, 4.86427284777164459e-02F, 1.25691294670104980e-01F, -2.55939364433288574e-02F, -5.20146824419498444e-03F, 4.20357624534517527e-04F, -6.06458596885204315e-02F, -3.05761788040399551e-02F, -4.51064594089984894e-02F, -1.05514548718929291e-01F, 5.80560527741909027e-02F, -9.38717052340507507e-02F, 2.20459446310997009e-01F, 1.73561275005340576e-01F, 1.32916584610939026e-01F, -3.03390063345432281e-02F, -6.90549388527870178e-02F, -7.39316865801811218e-02F, -4.79062311351299286e-02F, -1.97432879358530045e-02F, -5.32082952558994293e-02F, 1.31310239434242249e-01F, 1.24140612781047821e-01F, 5.10708242654800415e-02F, -1.62512421607971191e-01F, -1.53589993715286255e-01F, -1.16658173501491547e-01F, 9.72882099449634552e-03F, 4.77006025612354279e-02F, -6.22176267206668854e-02F, 1.48936873301863670e-02F, 1.24084902927279472e-02F, 3.86960133910179138e-02F, -1.86022385954856873e-01F, 3.15313488245010376e-02F, -1.47593304514884949e-01F, -4.11656200885772705e-02F, -1.04633485898375511e-02F, -3.98692302405834198e-02F, -7.25888228043913841e-03F, 5.79251274466514587e-02F, -3.53946797549724579e-02F, 1.96446552872657776e-01F, -1.14295957610011101e-02F, 4.15256246924400330e-02F, -2.97563932836055756e-02F, 2.10520893335342407e-01F, 1.88488051295280457e-01F, -1.50523427873849869e-02F, -8.65921452641487122e-02F, -1.36029615998268127e-01F, -7.29413926601409912e-02F, -6.56880065798759460e-02F, -1.41663298010826111e-01F, 3.07724885642528534e-02F, -5.76437041163444519e-02F, 6.57883286476135254e-02F, -9.00919511914253235e-02F, 1.83648243546485901e-01F, -2.44566574692726135e-02F, 9.27415490150451660e-02F, 1.41641914844512939e-01F, -6.47779703140258789e-02F, 2.96028666198253632e-02F, 7.47569929808378220e-03F, -1.31723254919052124e-01F, 4.44070935249328613e-01F, -9.18756648898124695e-02F, -6.21931701898574829e-02F, 9.66179836541414261e-03F, -5.06002735346555710e-03F, 5.61330094933509827e-02F, -5.54243847727775574e-02F, -2.61890329420566559e-02F, 4.91351671516895294e-02F, 2.56961975246667862e-02F, -5.81907629966735840e-02F, 3.27515840530395508e-01F, -1.15269221365451813e-01F, 5.18352985382080078e-02F, -5.05535304546356201e-03F, -4.45798486471176147e-02F, 4.46206778287887573e-02F, -1.08693927526473999e-01F, -1.16585232317447662e-01F, 1.35659471154212952e-01F, -1.92350372672080994e-02F, 5.37876458838582039e-03F, -3.73386964201927185e-03F, -1.20610557496547699e-01F, -1.02569058537483215e-01F, -8.12753215432167053e-02F, 1.30823373794555664e-01F, 8.12021866440773010e-02F, -1.66596665978431702e-01F, -4.27759550511837006e-02F, 1.89739931374788284e-02F, 1.40537217259407043e-01F, 1.01404991000890732e-02F, 6.84890449047088623e-02F, -3.25417906045913696e-01F, -8.24598893523216248e-02F, 1.38038378208875656e-02F, -9.52860042452812195e-02F, 1.46211599931120872e-02F, -1.59415766596794128e-01F, 2.54000365734100342e-01F, -2.47895151376724243e-01F, 5.65085895359516144e-02F, 3.74322347342967987e-02F, 1.48194238543510437e-01F, 3.09473961591720581e-01F, 8.23457017540931702e-02F, 1.39208570122718811e-01F, -1.90769046545028687e-01F, -6.87339827418327332e-02F, -1.59897878766059875e-01F, 1.20035149157047272e-01F, -4.92780506610870361e-02F, 2.40066032856702805e-02F, 1.30201667547225952e-01F, -2.71791666746139526e-01F, 1.73256203532218933e-01F, 1.24594224616885185e-02F, 1.29380859434604645e-02F, -3.76854166388511658e-02F, -7.72785861045122147e-03F, 7.18472823500633240e-02F, -3.03518325090408325e-02F, -2.07901418209075928e-01F, -4.09100279211997986e-02F, 5.07252030074596405e-02F, 1.85837205499410629e-02F, -3.09161376208066940e-02F, -2.69116703420877457e-02F, -4.71574701368808746e-02F, 2.24173530936241150e-01F, 7.78410732746124268e-02F, 8.76503288745880127e-02F, -1.48476529866456985e-02F, 1.74036875367164612e-01F, 1.49764105677604675e-01F, 6.89652562141418457e-02F, 4.30689519271254539e-03F, -3.29046174883842468e-02F, 8.73625203967094421e-02F, 8.55329930782318115e-02F, 1.81715354323387146e-01F, -5.16667179763317108e-02F, 2.57885009050369263e-02F, 1.02694250643253326e-01F, 2.66239434480667114e-01F, -9.44877341389656067e-02F, 5.06903603672981262e-02F, -5.61036616563796997e-02F, 2.20074672251939774e-02F, -1.88936874270439148e-01F, 2.27504372596740723e-02F, 3.38506437838077545e-02F, 2.65300601720809937e-01F, -3.96430864930152893e-02F, 4.95915934443473816e-02F, 4.05510962009429932e-02F, 1.46802887320518494e-01F, -7.03134685754776001e-02F, -6.04263022541999817e-02F, -1.33140787482261658e-01F, 6.68398365378379822e-02F, 2.09607891738414764e-02F, 6.98974952101707458e-02F, 1.71234399080276489e-01F, -7.78628960251808167e-02F, -3.06401513516902924e-02F, -5.51625229418277740e-02F, -6.38030916452407837e-02F, -5.97147494554519653e-02F, 1.22424960136413574e-02F, 9.57718491554260254e-03F, 3.93091738224029541e-01F, 4.52053500339388847e-03F, 2.82509289681911469e-02F, -1.15266675129532814e-02F, -4.14588227868080139e-02F, -1.39912897720932961e-02F, 2.44802627712488174e-02F, -9.56105766817927361e-04F, 1.22530847787857056e-01F, -7.25807389244437218e-03F, 6.86952844262123108e-02F, 6.24904036521911621e-02F, 3.78939434885978699e-02F, 3.13181802630424500e-02F, 5.84826152771711349e-03F, -1.40445888042449951e-01F, 1.53789192438125610e-01F, 1.36672839522361755e-01F, 9.10008922219276428e-02F, -4.95146363973617554e-02F, -2.61825900524854660e-02F, 4.39030826091766357e-02F, 6.33488744497299194e-02F, 9.59467366337776184e-02F, 2.71660741418600082e-02F, -1.83975622057914734e-02F, 1.99814528226852417e-01F, 5.83975575864315033e-02F, 1.05615325272083282e-01F, 1.07300519943237305e-01F, 4.50290068984031677e-02F, -8.98246094584465027e-02F, -6.20654691010713577e-03F, -2.06028390675783157e-02F, 1.82544678449630737e-01F, 8.65698605775833130e-02F, -6.74310177564620972e-02F, -9.44402068853378296e-02F, -1.12871386110782623e-01F, 1.31699815392494202e-02F, 5.24888895452022552e-02F, -7.64123648405075073e-02F, 1.20989084243774414e-01F, -2.84881681203842163e-01F, 1.46465515717864037e-02F, 1.91410198807716370e-01F, -1.78377300500869751e-01F, -3.45747843384742737e-02F, -1.57904960215091705e-02F, -1.19047544896602631e-01F, 1.03616314008831978e-02F, 7.15351551771163940e-02F, -1.61455124616622925e-01F, -6.63035139441490173e-02F, 7.67729282379150391e-02F, -1.06297716498374939e-01F, -3.51395905017852783e-02F, 3.37059199810028076e-02F, -6.18176255375146866e-03F, 6.92083612084388733e-02F, 9.73705276846885681e-02F, -1.26142442226409912e-01F, -5.09368181228637695e-02F, 4.12552915513515472e-02F, -7.64118880033493042e-02F, 5.48545606434345245e-02F, 5.03010256215929985e-03F, 3.42431738972663879e-02F, 1.17803150787949562e-02F, 1.18055762723088264e-02F, 2.30587869882583618e-02F, -1.37115776538848877e-01F, 6.23090425506234169e-03F, -2.27739587426185608e-02F, 7.30140954256057739e-02F, 3.99662479758262634e-02F, 2.96672135591506958e-02F, 6.94050043821334839e-02F, -2.73299943655729294e-02F, -5.59544190764427185e-02F, 8.02582874894142151e-02F, 3.57139483094215393e-02F, 1.01623460650444031e-02F, 9.66172218322753906e-02F, -8.53161886334419250e-02F, -4.78028170764446259e-02F, 5.89199699461460114e-02F, 1.16549983620643616e-01F, -1.63494572043418884e-01F, -1.07686787843704224e-01F, 1.19888983666896820e-01F, 9.21819061040878296e-02F, 2.18527719378471375e-01F, 1.68385505676269531e-02F, 5.02994656562805176e-03F, 8.67882370948791504e-02F, -1.08858130872249603e-01F, -7.39813745021820068e-02F, 1.69885411858558655e-01F, -1.44768124446272850e-02F, 1.93324297666549683e-01F, -2.17741169035434723e-02F, -8.80257934331893921e-02F, 2.32445523142814636e-02F, 2.05842498689889908e-02F, -9.15759950876235962e-02F, -3.85798141360282898e-02F, -6.17818087339401245e-02F, -4.76875938475131989e-02F, -2.78771296143531799e-03F, -2.19360954361036420e-04F, -1.57109290361404419e-01F, 5.00530824065208435e-02F, 1.10965803265571594e-01F, -4.06175591051578522e-02F, -4.35977950692176819e-02F, 1.71724185347557068e-01F, -2.22764179110527039e-01F, -3.41336764395236969e-02F, -2.38315805792808533e-01F, 4.67262975871562958e-02F, 1.51290804147720337e-01F, 1.10606476664543152e-02F, 5.07952794432640076e-02F, -4.50753830373287201e-02F, 2.11789920926094055e-01F, -4.77722473442554474e-02F, -2.27095782756805420e-02F, -1.39787510037422180e-01F, 5.98006062209606171e-02F, 1.25661760568618774e-01F, 1.40832021832466125e-01F, 5.03171831369400024e-02F, 1.12346361856907606e-03F, 1.83490857481956482e-01F, -5.83975240588188171e-02F, -1.44634529948234558e-01F, -5.19739836454391479e-03F, -2.24773734807968140e-02F, 1.83243989944458008e-01F, 3.01472935825586319e-02F, -3.46004925668239594e-02F, 6.02081120014190674e-02F, -9.66409593820571899e-03F, 1.10897332429885864e-01F, -1.67837083339691162e-01F, -4.40373830497264862e-02F, 4.24330355599522591e-03F, -4.93465475738048553e-02F, 6.33826255798339844e-02F, 1.19378194212913513e-01F, 1.30450531840324402e-01F, -6.31124898791313171e-02F, -5.78487589955329895e-02F, 1.56493291258811951e-01F, 1.32761090993881226e-01F, 2.97332525253295898e-01F, -7.20310062170028687e-02F, 2.10803449153900146e-02F, 1.83406457304954529e-01F, 2.13608920574188232e-01F, -8.69246497750282288e-02F, -1.34203955531120300e-02F, 2.55751699209213257e-01F, 1.08481690287590027e-01F, -7.68093839287757874e-02F, -3.45786474645137787e-02F, -9.39442776143550873e-03F, 1.48654542863368988e-02F, 5.30908294022083282e-02F, 1.92326754331588745e-01F, -2.04416681081056595e-02F, -9.73829627037048340e-02F, 6.44819587469100952e-02F, 2.67816279083490372e-02F, 3.29022780060768127e-02F, 9.71672609448432922e-02F, -1.11923187971115112e-01F, -2.93455511331558228e-01F, -3.07293012738227844e-02F, -2.10438236594200134e-01F, -8.41193050146102905e-02F, -2.04437458887696266e-03F, -3.77221107482910156e-01F, 7.41069838404655457e-02F, 7.97464177012443542e-02F, 1.72567721456289291e-02F, -6.99001327157020569e-02F, -9.65932663530111313e-03F, 2.30746194720268250e-01F, -4.67994809150695801e-02F, 1.41634985804557800e-01F, -1.25164836645126343e-01F, -2.28482671082019806e-02F, -3.60432378947734833e-02F, -4.26816903054714203e-02F, 2.71026976406574249e-02F, 6.78340718150138855e-02F, 2.55320835858583450e-02F, -5.56408204138278961e-02F, 9.72427278757095337e-02F, 7.41165783256292343e-03F, -1.21255740523338318e-01F, 3.14167857170104980e-01F, 2.62686133384704590e-01F, 8.07703360915184021e-02F, 1.12137589603662491e-02F, -1.47327750921249390e-01F, 1.04898482561111450e-01F, 1.38758659362792969e-01F, -8.98169761057943106e-04F, 1.12949395552277565e-02F, -1.07983173802495003e-02F, 1.03647354990243912e-02F, 9.25912484526634216e-02F, 1.32362648844718933e-01F, 1.08286835253238678e-01F, 9.37939658761024475e-02F, 5.95025755465030670e-02F, 7.88356959819793701e-02F, 7.05174058675765991e-02F, 9.69290137290954590e-02F, 1.63075327873229980e-02F, 9.15928743779659271e-03F, -1.00460909307003021e-02F, 2.60665863752365112e-01F, 4.70564216375350952e-02F, -1.13353338092565536e-02F, 5.34920543432235718e-02F, 1.25479921698570251e-01F, 8.70183482766151428e-02F, 4.27251681685447693e-02F, -6.13559521734714508e-02F, 6.26499997451901436e-03F, 9.55183282494544983e-02F, -1.78076386451721191e-01F, -1.43923521041870117e-01F, 1.09055973589420319e-01F, -1.67055219411849976e-01F, -1.09965853393077850e-01F, 1.69604849070310593e-02F, 5.19842170178890228e-02F, 8.99500995874404907e-02F, -4.56131249666213989e-02F, 8.65334644913673401e-02F, 4.62261475622653961e-02F, -3.14797535538673401e-02F, -1.02425208315253258e-02F, 6.73880651593208313e-02F, -4.64489571750164032e-02F, 4.52501103281974792e-02F, -2.27940734475851059e-02F, -3.13621424138545990e-02F, -2.51554399728775024e-02F, 8.22849012911319733e-03F, -9.68012437224388123e-02F, 1.75250187516212463e-01F, -4.93007386103272438e-03F, -5.41845783591270447e-02F, 2.07938067615032196e-02F, 1.85481866355985403e-03F, 9.50029194355010986e-02F, 8.30298513174057007e-02F, -4.71856221556663513e-02F, 1.58436130732297897e-02F, -3.66596691310405731e-02F, -3.60824838280677795e-02F, 1.49785727262496948e-01F, -8.07442069053649902e-02F, -5.58913722634315491e-02F, -7.65923708677291870e-02F, -1.99876297265291214e-02F, -1.01556209847331047e-02F, 1.64946973323822021e-01F, -9.06797647476196289e-02F, 4.73562404513359070e-02F, 2.21418105065822601e-02F, 6.54476657509803772e-02F, -1.68552905321121216e-01F, -2.08806712180376053e-02F, 1.09722942113876343e-01F, 6.46380856633186340e-02F, 9.76350009441375732e-02F, 2.51392424106597900e-01F, -5.89903928339481354e-02F, -2.93997097760438919e-02F, -6.40732571482658386e-02F, -2.37133111804723740e-02F, 3.42431623721495271e-04F, -5.24079538881778717e-02F, 1.01786807179450989e-01F, -3.37935686111450195e-02F, 1.00178524851799011e-01F, 5.68515881896018982e-02F, -1.52277961373329163e-01F, 1.50010421872138977e-01F, 1.54706284403800964e-01F, 1.26479817554354668e-02F, 1.31055325269699097e-01F, -8.86581093072891235e-02F, -4.59348957519978285e-04F, -2.07237556576728821e-01F, -2.20040857791900635e-01F, -5.05554527044296265e-02F, -4.17755276430398226e-04F, -4.50045950710773468e-02F, 2.34685465693473816e-01F, 1.94500684738159180e-02F, 1.03866411373019218e-02F, -1.28482412546873093e-02F, 2.52473764121532440e-02F, -1.51993632316589355e-01F, -2.78104040771722794e-02F, 3.11844032257795334e-02F, 6.50960654020309448e-02F, 2.03731842339038849e-02F, -1.12818598747253418e-01F, -1.75837412476539612e-01F, 1.67446136474609375e-02F, -1.06465414166450500e-01F, 7.55065232515335083e-02F, -1.97880086489021778e-03F, 1.40005141496658325e-01F, -2.27721452713012695e-01F, 8.81140530109405518e-02F, -2.03882120549678802e-02F, -2.49660629779100418e-02F, -5.45282252132892609e-02F, -2.27154210209846497e-01F, 3.52289676666259766e-02F, 2.21099387854337692e-02F, 1.50615677237510681e-01F, 8.95887911319732666e-02F, -4.48176264762878418e-02F, 1.05921821668744087e-02F, 4.22508008778095245e-02F, -7.96787142753601074e-02F, 1.01890347898006439e-01F, -2.32699468731880188e-01F, 2.39621824584901333e-03F, -3.58956158161163330e-02F, 7.66410827636718750e-02F, -2.94723659753799438e-02F, 1.14665448665618896e-01F, 1.91062405705451965e-01F, 9.76835004985332489e-03F, 1.63838490843772888e-02F, 6.35752975940704346e-02F, 1.43909677863121033e-01F, -4.43980693817138672e-02F, -7.14160203933715820e-02F, -1.19662337005138397e-01F, 1.04234322905540466e-01F, 5.76847493648529053e-02F, 1.07269659638404846e-01F, -1.94837853312492371e-01F, 1.23076342046260834e-01F, 1.33684828877449036e-01F, -1.31358429789543152e-01F, 1.99622914195060730e-01F, 2.60748475790023804e-01F, 5.37269525229930878e-02F, 9.15922317653894424e-03F, -9.10624302923679352e-03F, 1.74576640129089355e-01F, -8.03141668438911438e-02F, -1.86223492026329041e-01F, -9.87612009048461914e-02F, -5.72158098220825195e-02F, 2.41771772503852844e-01F, 1.11862845718860626e-01F, 1.22231086716055870e-02F, -7.14912340044975281e-02F, -8.56592431664466858e-02F, 2.98628360033035278e-02F, -7.27083384990692139e-02F, 6.18370100855827332e-02F, 1.26145288348197937e-01F, -4.34986352920532227e-02F, 6.59474134445190430e-02F, -1.93791002035140991e-01F, 1.17553822696208954e-01F, 3.25092002749443054e-02F, -1.72133948653936386e-02F, -7.66487568616867065e-02F, -2.38918438553810120e-02F, -1.18829663842916489e-02F, 1.22350424528121948e-01F, 4.85218167304992676e-02F, -5.48688024282455444e-02F, 1.07530876994132996e-01F, -6.45451471209526062e-02F, -1.96768209338188171e-01F, 7.01637566089630127e-02F, 2.59622037410736084e-02F, 1.11031092703342438e-01F, -4.41691186279058456e-03F, -4.24227826297283173e-02F, 5.09801656007766724e-02F, 1.24496184289455414e-01F, 3.08569706976413727e-02F, -1.28896133974194527e-02F, -1.64903834462165833e-01F, -5.99229196086525917e-03F, 1.55152752995491028e-02F, 7.05090304836630821e-03F, 5.94303719699382782e-02F, 1.43834009766578674e-01F, 1.21568389236927032e-01F, 1.00050345063209534e-01F, -6.74790143966674805e-02F, -3.72311882674694061e-02F, 2.69203446805477142e-03F, 5.69471307098865509e-02F, -4.31826747953891754e-02F, 3.03508162498474121e-01F, 1.09742529690265656e-01F, -1.27680838108062744e-01F, 2.37595662474632263e-01F, 8.24509374797344208e-03F, -1.47829040884971619e-01F, -3.39384526014328003e-02F, -1.05025917291641235e-01F, -3.00540868192911148e-02F, 5.49548156559467316e-02F, 4.91033606231212616e-02F, 6.89473235979676247e-03F, -1.63219735026359558e-01F, 1.61597967147827148e-01F, -3.15465629100799561e-02F, -3.20539511740207672e-02F, -5.72498468682169914e-03F, -6.92413467913866043e-03F, -2.51998938620090485e-02F, -1.23349025845527649e-01F, -3.48881296813488007e-02F, -9.29500162601470947e-02F, -2.87372320890426636e-02F, -3.14524509012699127e-02F, -8.43680202960968018e-02F, 2.16878116130828857e-01F, -1.09140262007713318e-01F, -1.86319835484027863e-02F, -3.63625325262546539e-02F, -1.05689011514186859e-01F, 1.23963221907615662e-01F, 4.37524542212486267e-02F, 4.99625951051712036e-02F, 1.26692801713943481e-01F, 1.40393786132335663e-02F, 4.30595390498638153e-02F, -1.80596292018890381e-01F, -3.73620819300413132e-03F, -1.09422288369387388e-03F, 1.40304667875170708e-02F, 5.27801588177680969e-02F, 9.32681281119585037e-03F, -3.71193140745162964e-02F, -1.82103086262941360e-02F, -1.23947650194168091e-01F, 2.36158281564712524e-01F, 2.43748426437377930e-02F, 2.93260067701339722e-02F, -1.02386353537440300e-02F, -1.02123573422431946e-01F, -9.99129563570022583e-02F, 3.75661849975585938e-02F, -4.38716188073158264e-02F, -3.69063578546047211e-02F, 3.74777466058731079e-02F, 3.49883258342742920e-01F, -3.59018780291080475e-02F, 2.95602202415466309e-01F, 5.10101653635501862e-02F, 8.29788148403167725e-02F, 4.13122400641441345e-02F, -1.82923272252082825e-01F, 1.15960888564586639e-01F, -2.96676978468894958e-02F, 4.13343645632266998e-02F, 7.59462863206863403e-02F, 2.87575155496597290e-01F, 3.07071536779403687e-01F, 1.51890553534030914e-02F, 2.75327451527118683e-02F, 1.35880276560783386e-01F, 1.52106760069727898e-02F, -2.70760804414749146e-02F, 9.48584601283073425e-02F, 1.69498939067125320e-02F, 3.10507476329803467e-01F, 5.36890216171741486e-02F, -7.67079740762710571e-02F, -3.76431718468666077e-02F, -1.72516137361526489e-01F, 7.92162641882896423e-02F, -5.00011481344699860e-02F, -5.48353306949138641e-02F, 6.93596806377172470e-03F, -1.23934932053089142e-02F, -1.07446044683456421e-01F, 2.13663563132286072e-01F, -5.47982044517993927e-02F, -1.30810663104057312e-01F, 2.30159118771553040e-01F, 4.89803478121757507e-02F, -8.23145918548107147e-03F, -3.11040002852678299e-02F, -1.69984117150306702e-01F, 3.08148860931396484e-01F, 9.31445807218551636e-02F, 1.83982569724321365e-02F, 2.61661201715469360e-01F, 5.47370575368404388e-02F, 1.66494816541671753e-01F, 1.12968206405639648e-01F, 8.91224220395088196e-02F, 5.72124868631362915e-02F, -3.69022995233535767e-01F, -1.35751098394393921e-01F, -6.97930604219436646e-02F, -2.87347603589296341e-02F, 4.25795353949069977e-02F, 2.40534842014312744e-01F, 3.82500141859054565e-02F, 3.39120477437973022e-02F, -3.68190407752990723e-02F, -1.21086694300174713e-01F, -1.04020595550537109e-01F, -1.57898310571908951e-02F, 1.85154959559440613e-01F, -4.03674207627773285e-02F, -6.82679787278175354e-02F, 7.22323060035705566e-02F, -3.76468673348426819e-02F, 2.08459366112947464e-02F, 1.19942687451839447e-01F, 3.15425246953964233e-02F, -9.54122170805931091e-02F, 2.05961480736732483e-01F, -5.19791841506958008e-02F, 8.81328582763671875e-02F, 5.68039231002330780e-02F, 1.64783429354429245e-02F, 1.45231152419000864e-03F, 8.26178416609764099e-02F, 1.75809189677238464e-01F, -4.62026111781597137e-02F, 1.13492667675018311e-01F, 4.11256626248359680e-02F, 8.68068262934684753e-02F, 7.55935683846473694e-02F, 3.38259004056453705e-02F, 2.67787929624319077e-02F, -3.09663116931915283e-02F, -1.40240922570228577e-01F, -2.17701345682144165e-02F, 9.80167463421821594e-02F, -3.07321935892105103e-01F, 1.81826781481504440e-02F, 3.12036126852035522e-02F, -1.94579977542161942e-02F, -7.11204335093498230e-02F, -6.93658739328384399e-02F, 7.73585662245750427e-02F, -2.12575979530811310e-02F, -1.61196645349264145e-02F, -4.78151179850101471e-02F, 7.64209926128387451e-02F, -1.72661226242780685e-02F, -4.73885126411914825e-02F, 4.87723983824253082e-02F, -1.11930854618549347e-01F, 1.33114591240882874e-01F, 7.62786269187927246e-02F, 7.08194673061370850e-02F, -1.75602373201400042e-03F, -3.45104597508907318e-02F, 6.28239288926124573e-02F, -2.58214592933654785e-01F, 7.45538175106048584e-02F, -4.05300408601760864e-02F, -1.75452247262001038e-01F, -1.13807089626789093e-01F, 7.28564336895942688e-02F, 2.11913529783487320e-02F, -3.75468432903289795e-02F, 1.70509234070777893e-01F, 1.16369664669036865e-01F, 1.13723089452832937e-03F, 2.97976043075323105e-02F, 1.24871477484703064e-01F, 2.09499508142471313e-01F, 7.33679980039596558e-02F, 2.13173761963844299e-01F, 1.65353417396545410e-02F, 5.49974068999290466e-02F, 3.57675440609455109e-02F, 8.19492861628532410e-02F, 1.16272971034049988e-01F, 1.60098001360893250e-01F, -4.99758450314402580e-03F, -2.11199764162302017e-02F, 5.55494688451290131e-02F, 1.73881202936172485e-01F, 2.09830980747938156e-02F, -7.08250403404235840e-02F, 1.19541630148887634e-01F, 1.68856829404830933e-01F, 7.43613019585609436e-03F, 6.84211030602455139e-02F, -1.91906094551086426e-01F, 5.62569200992584229e-02F, 9.21561047434806824e-02F, -1.54299139976501465e-01F, 8.64654183387756348e-02F, -3.02605126053094864e-02F, 8.82356688380241394e-02F, -9.02931317687034607e-02F, -9.48325619101524353e-02F, 5.51412208005785942e-03F, -1.33833095431327820e-01F, -2.72275745868682861e-01F, -4.95867580175399780e-02F, 1.58037543296813965e-02F, 3.54117937386035919e-02F, -1.52024865150451660e-01F, 8.98532420396804810e-02F, -1.54469415545463562e-01F, -1.37154340744018555e-01F, 4.80387136340141296e-02F, 1.27816386520862579e-02F, 9.62603986263275146e-02F, -6.56425766646862030e-03F, -9.03624594211578369e-02F, 6.92192763090133667e-02F, -1.04955025017261505e-01F, 1.06106027960777283e-01F, 4.49217408895492554e-02F, -1.83358823414891958e-03F, 1.17075495421886444e-01F, -2.90225669741630554e-02F, -6.28621056675910950e-02F, 5.39353489875793457e-02F, -4.55018803477287292e-02F, -9.00251194834709167e-02F, -7.77484104037284851e-02F, -7.96842500567436218e-02F, -1.89057514071464539e-01F, -3.42443361878395081e-02F, -1.39962330460548401e-01F, -5.02870939671993256e-02F, 1.61012664437294006e-01F, -4.45181243121623993e-02F, -5.90230599045753479e-02F, 3.76904048025608063e-02F, 2.78438150882720947e-01F, 1.74679353833198547e-01F, -7.85444527864456177e-02F, 7.92496129870414734e-02F, -8.68297144770622253e-02F, -7.19831958413124084e-02F, 6.76975920796394348e-02F, 3.89951616525650024e-02F, -4.28235046565532684e-02F, 4.16300445795059204e-02F, 3.34547571837902069e-02F, 2.31474921107292175e-01F, 1.11921772360801697e-01F, 1.77497453987598419e-02F, 7.13834986090660095e-02F, 5.52323572337627411e-02F, 7.72108063101768494e-02F, -1.11261736601591110e-02F, 2.02226936817169189e-01F, -7.46989971958100796e-04F, 1.69023498892784119e-02F, 1.46782817319035530e-02F, 9.53921079635620117e-02F, -1.99883654713630676e-01F, 5.54387941956520081e-02F, -1.42834571306593716e-04F, -7.78863504528999329e-02F, 9.61188077926635742e-02F, 2.52055615186691284e-01F, -2.87561453878879547e-02F, 1.34176492691040039e-01F, 4.61040399968624115e-02F, 2.94264522381126881e-03F, 1.47459059953689575e-01F, 1.40396490693092346e-01F, -1.59723702818155289e-02F, 3.86585146188735962e-02F, -6.55378326773643494e-02F, -6.15578368306159973e-02F, -2.14937046170234680e-01F, 2.26672291755676270e-01F, -3.45435366034507751e-02F, 2.60726157575845718e-02F, -6.86696767807006836e-02F, -6.18583001196384430e-02F, -7.50495940446853638e-02F, 4.51888740062713623e-02F, 1.02266401052474976e-01F, 2.44085006415843964e-02F, 6.35402575135231018e-02F, 9.04921293258666992e-02F, -1.68606355786323547e-01F, 2.27522943168878555e-02F, -1.36574190109968185e-02F, -3.14274072647094727e-01F, -5.22755496203899384e-02F, -1.20196431875228882e-01F, -7.90466517210006714e-02F, -9.46004390716552734e-02F, -1.19936868548393250e-01F, 
  -3.85799370706081390e-02F, -4.13912236690521240e-02F, 1.08135342597961426e-02F, 2.79197506606578827e-02F, -1.27696432173252106e-02F, -4.80566464830189943e-04F, -5.10749742388725281e-02F, -3.18098589777946472e-02F, 3.52395735681056976e-02F, 6.74418956041336060e-02F, 4.74992133677005768e-02F, -5.91026432812213898e-02F, 2.76750009506940842e-02F, 7.04176817089319229e-03F, 1.92198355216532946e-03F, 1.61888413131237030e-02F, 4.22783009707927704e-03F, -7.62877464294433594e-02F, 5.48723638057708740e-02F, -6.56382441520690918e-02F, -5.06830327212810516e-02F, -4.89252619445323944e-02F, 5.76864182949066162e-02F, -3.34016606211662292e-02F, -6.85132667422294617e-03F, -6.25248029828071594e-02F, 3.03406193852424622e-02F, 1.20059936307370663e-03F, 4.72033768892288208e-02F, 4.75517772138118744e-02F, 3.91279347240924835e-02F, -2.01148353517055511e-03F, 2.45154555886983871e-02F, -7.06935822963714600e-02F, -6.65174424648284912e-02F, 5.26670292019844055e-02F, -2.86484509706497192e-03F, 3.51883210241794586e-02F, -4.51874267309904099e-03F, 6.29569292068481445e-02F, 2.01110243797302246e-02F, -6.51214197278022766e-02F, 5.19082359969615936e-02F, -2.15999148786067963e-02F, -5.27375526726245880e-02F, -3.84922418743371964e-03F, 7.25526064634323120e-02F, 5.40612302720546722e-02F, 3.39759141206741333e-02F, 3.19243185222148895e-02F, -1.29447458311915398e-02F, -3.76564338803291321e-02F, -7.51421228051185608e-02F, -2.74401679635047913e-02F, -5.84884993731975555e-02F, -2.22796611487865448e-02F, 6.38992339372634888e-02F, -1.67995598167181015e-02F, -4.63935807347297668e-02F, -2.10684910416603088e-02F, -2.92035541497170925e-03F, 4.79238033294677734e-02F, 6.03418564423918724e-03F, 1.41126308590173721e-02F, -7.82581493258476257e-02F, -1.65731310844421387e-02F, 1.53287351131439209e-02F, -3.19106392562389374e-02F, -5.48334196209907532e-02F, -2.25307326763868332e-02F, 1.67931672185659409e-02F, 4.33592349290847778e-02F, -6.79124817252159119e-02F, -1.38300918042659760e-02F, -6.55854716897010803e-02F, -2.82907467335462570e-02F, -8.51217806339263916e-02F, -7.15756490826606750e-02F, 3.39033710770308971e-03F, -3.40572036802768707e-02F, -3.76987084746360779e-02F, -4.23732623457908630e-02F, -5.69064915180206299e-03F, -5.09782470762729645e-02F, -4.08388748764991760e-02F, -8.67727622389793396e-02F, -6.80994167923927307e-02F, 1.08816828578710556e-02F, -7.66731426119804382e-03F, 6.00866321474313736e-03F, -6.38179332017898560e-02F, -6.37313053011894226e-02F, -6.32307827472686768e-02F, 3.63560467958450317e-02F, -2.49801110476255417e-02F, 8.20427387952804565e-03F, -5.12574724853038788e-02F, -1.55148876365274191e-03F, 7.19548761844635010e-02F, -9.35375690460205078e-02F, -3.28874960541725159e-02F, 3.99418734014034271e-03F, 5.37396967411041260e-02F, -4.47406619787216187e-02F, -2.02536359429359436e-02F, 2.17173527926206589e-02F, -4.53773252665996552e-02F, 9.37422271817922592e-03F, -3.01705133169889450e-02F, -1.96936596184968948e-02F, 6.69278204441070557e-03F, 3.80242057144641876e-02F, -6.38459101319313049e-02F, -7.00080990791320801e-02F, 5.05426079034805298e-02F, -1.31046492606401443e-02F, -3.28606739640235901e-02F, -4.32456508278846741e-02F, -5.95652721822261810e-02F, 7.13395327329635620e-02F, -5.95182180404663086e-02F, -1.73354912549257278e-02F, -7.19580287113785744e-03F, 1.07935641426593065e-03F, -8.33295583724975586e-02F, -5.67186102271080017e-02F, -5.27869202196598053e-02F, 2.66946502961218357e-03F, -1.70618072152137756e-02F, 7.13875293731689453e-02F, -6.22694119811058044e-02F, -1.39635130763053894e-02F, -3.88923846185207367e-02F, -9.20468270778656006e-02F, 3.61521616578102112e-02F, -1.22478194534778595e-02F, 5.83019256591796875e-02F, -5.98365291953086853e-02F, -4.69001494348049164e-02F, 4.45010252296924591e-02F, -5.66480075940489769e-03F, -7.09927976131439209e-02F, 3.85602079331874847e-02F, 3.16839367151260376e-02F, 1.49627188220620155e-02F, -6.24752510339021683e-03F, -2.24328301846981049e-02F, -3.51387113332748413e-02F, 5.58897107839584351e-03F, -8.59456807374954224e-02F, 7.87495635449886322e-03F, 2.32020504772663116e-02F, -5.53909204900264740e-02F, 2.90389657020568848e-02F, 1.95954814553260803e-02F, 3.16686998121440411e-03F, -1.52194937691092491e-02F, 4.40993830561637878e-02F, 4.42997999489307404e-02F, -6.64910599589347839e-02F, 2.32816915959119797e-02F, -7.92199075222015381e-02F, -3.86440120637416840e-02F, 3.69746871292591095e-02F, -5.30460216104984283e-02F, -5.78087866306304932e-02F, 4.94985542900394648e-05F, -5.35348951816558838e-02F, 1.21658593416213989e-02F, 3.81509177386760712e-02F, 4.96547594666481018e-02F, 1.09447464346885681e-02F, 4.21459265053272247e-02F, -6.54956027865409851e-02F, -4.99404221773147583e-02F, 3.53914983570575714e-02F, -2.74216150864958763e-03F, -6.71322271227836609e-02F, 2.18333154916763306e-02F, 3.38425599038600922e-02F, -6.49705454707145691e-02F, -1.34108550846576691e-02F, -8.94284248352050781e-02F, 1.39157548546791077e-02F, 3.21893393993377686e-03F, 4.17876709252595901e-03F, -4.50252480804920197e-02F, -4.11814786493778229e-02F, -1.09048783779144287e-02F, 2.11086217314004898e-02F, 3.03332097828388214e-02F, -7.81602859497070312e-02F, 3.01486197859048843e-02F, -4.37593869864940643e-02F, -5.57861179113388062e-02F, 6.01224265992641449e-02F, -2.98985396511852741e-03F, 3.80195155739784241e-02F, -2.85034310072660446e-02F, -3.70978564023971558e-02F, -7.24908784031867981e-02F, 3.05862724781036377e-02F, -1.26505307853221893e-02F, -9.23909153789281845e-03F, -7.82166123390197754e-02F, -2.23679486662149429e-02F, -3.98747585713863373e-02F, -7.63325244188308716e-02F, 6.84380754828453064e-02F, 4.23220358788967133e-03F, 4.25983667373657227e-02F, 5.37982443347573280e-03F, -1.00729912519454956e-02F, 2.39338655956089497e-03F, -6.44746422767639160e-02F, -1.22534334659576416e-02F, -9.46468580514192581e-03F, 4.78161647915840149e-02F, -6.03065900504589081e-02F, 1.74748636782169342e-02F, -4.94440607726573944e-02F, -6.91131514031440020e-04F, -3.72607074677944183e-02F, 8.77625308930873871e-03F, -7.06628710031509399e-02F, -7.17229545116424561e-02F, -4.03202697634696960e-02F, -6.87337964773178101e-02F, 4.24614176154136658e-02F, -6.40523210167884827e-02F, 9.18678008019924164e-03F, -7.12100416421890259e-03F, 1.91657543182373047e-02F, -2.36225258558988571e-02F, 3.80580164492130280e-02F, -4.62596863508224487e-02F, -2.13022604584693909e-02F, -5.58403022587299347e-02F, -2.15763151645660400e-02F, -1.56372468918561935e-02F, -9.24289152026176453e-02F, 1.74328852444887161e-02F, 5.30040413141250610e-02F, -5.82966580986976624e-02F, -7.36987888813018799e-02F, 1.47914364933967590e-02F, 1.08548358548432589e-03F, 2.24315375089645386e-02F, 2.17232927680015564e-02F, -4.59465347230434418e-02F, -3.78858633339405060e-02F, 5.34137934446334839e-02F, 1.74498800188302994e-02F, -3.52487266063690186e-02F, -5.39101921021938324e-02F, -4.64324206113815308e-02F, 1.53501927852630615e-02F, -3.89854386448860168e-02F, 7.31043666601181030e-02F, 4.97313514351844788e-02F, 7.33499154448509216e-02F, -1.73958707600831985e-02F, -5.16660623252391815e-02F, 5.51055520772933960e-02F, -7.06828609108924866e-02F, -3.73041033744812012e-02F, -3.35499048233032227e-02F, -6.38695061206817627e-02F, -5.16697689890861511e-02F, 3.96774038672447205e-02F, -3.76842767000198364e-02F, -2.44084178120829165e-04F, -5.78024238348007202e-02F, 3.73993031680583954e-02F, -3.82840298116207123e-02F, -3.87582555413246155e-02F, -5.28424680233001709e-02F, -4.88162972033023834e-02F, -1.83564312756061554e-02F, -5.85348829627037048e-02F, -2.87868585437536240e-02F, -3.47627513110637665e-02F, 4.57981824874877930e-02F, -3.66042628884315491e-02F, -3.46839129924774170e-02F, 5.58759495615959167e-02F, -6.89801350235939026e-02F, -1.60901434719562531e-02F, -7.71487578749656677e-02F, 3.05274426937103271e-02F, -5.00502102077007294e-02F, 4.38607949763536453e-03F, -7.02880918979644775e-02F, 2.00930666178464890e-02F, 4.64801192283630371e-02F, 6.82043582201004028e-02F, -4.78607639670372009e-02F, 1.88116058707237244e-02F, -5.89349344372749329e-02F, 1.25292902812361717e-02F, 4.57405857741832733e-02F, 3.08358836919069290e-02F, -2.72921323776245117e-02F, -7.17025995254516602e-02F, -5.81441484391689301e-02F, 2.19785887748003006e-02F, 1.79123505949974060e-02F, -1.49486688897013664e-02F, -3.61157730221748352e-02F, -6.92121088504791260e-02F, 3.42104658484458923e-02F, -6.00519031286239624e-02F, 6.79674595594406128e-02F, -4.45944219827651978e-02F, -9.64900925755500793e-02F, -3.17588150501251221e-02F, -3.92534621059894562e-02F, -5.33729791641235352e-02F, -7.48265758156776428e-02F, -1.11296316608786583e-02F, -8.90956148505210876e-02F, 5.25051504373550415e-02F, 1.08390301465988159e-02F, 3.16582210361957550e-02F, 2.38412208855152130e-02F, -9.70412716269493103e-02F, 4.57052774727344513e-02F, -4.87030409276485443e-02F, -3.82709428668022156e-02F, -6.60344511270523071e-02F, -8.83594155311584473e-02F, 4.16707553085871041e-05F, -8.37790742516517639e-02F, 5.92670440673828125e-02F, 3.11741549521684647e-02F, -3.43238413333892822e-02F, -1.22827347368001938e-02F, 4.53107953071594238e-02F, 7.24754780530929565e-02F, -1.78387742489576340e-02F, -4.26931399852037430e-03F, -8.13584923744201660e-02F, -5.34790754318237305e-02F, 1.81591361761093140e-02F, -2.48219817876815796e-02F, -8.15538689494132996e-02F, -6.22216463088989258e-02F, -1.83413550257682800e-02F, -1.13963708281517029e-02F, 2.15511359274387360e-02F, -7.06757083535194397e-02F, -9.21228621155023575e-03F, 7.50443991273641586e-03F, 4.16339840739965439e-03F, 5.62874972820281982e-02F, -2.48042140156030655e-02F, -4.00085002183914185e-03F, -7.83264338970184326e-02F, 9.53109841793775558e-03F, -4.55836951732635498e-02F, 3.82775515317916870e-02F, -4.04848307371139526e-02F, 7.10519254207611084e-02F, -3.11267077922821045e-02F, 3.60210128128528595e-02F, -5.04107065498828888e-02F, -4.92715165019035339e-02F, -2.80975252389907837e-02F, -3.03364712744951248e-02F, 1.24402604997158051e-02F, -4.44498611614108086e-03F, -5.75035214424133301e-02F, 1.39065496623516083e-02F, 1.68682634830474854e-03F, -5.50936954095959663e-03F, -1.84701010584831238e-02F, 4.37894836068153381e-02F, 5.06061539053916931e-02F, -4.64436821639537811e-02F, -4.57512810826301575e-02F, -7.64308422803878784e-02F, -1.41466353088617325e-02F, 5.76589256525039673e-04F, 4.41659620264545083e-04F, -3.57279852032661438e-02F, 4.91445511579513550e-03F, -3.93802300095558167e-02F, 1.46512761712074280e-02F, -6.76017180085182190e-02F, -3.87026779353618622e-02F, 3.34894917905330658e-02F, 4.10165302455425262e-02F, 3.11028547585010529e-02F, -4.70276661217212677e-02F, -4.07609483227133751e-03F, 3.65535654127597809e-02F, -5.80127574503421783e-02F, -1.19869830086827278e-02F, -1.52081446722149849e-02F, -1.19566563516855240e-02F, -3.76004837453365326e-02F, -1.69839803129434586e-02F, 1.80925577878952026e-02F, -9.73811224102973938e-02F, -2.30185948312282562e-02F, -6.41490146517753601e-03F, 6.00515045225620270e-02F, 2.27035954594612122e-02F, 1.26808173954486847e-02F, 3.50956022739410400e-02F, 2.74241287261247635e-02F, -5.17812073230743408e-02F, -4.97208237648010254e-02F, -1.09004601836204529e-02F, -3.72320674359798431e-02F, -1.81567352265119553e-02F, 4.49479334056377411e-02F, -6.85168951749801636e-02F, 1.53475776314735413e-02F, -8.27837139368057251e-02F, -5.61127439141273499e-02F, -2.67694275826215744e-02F, 4.23990264534950256e-02F, 3.64413559436798096e-02F, 7.06370174884796143e-02F, -2.40869875997304916e-02F, -7.49747827649116516e-02F, -6.82495608925819397e-02F, -2.35642082989215851e-02F, 4.89819347858428955e-02F, 6.67540878057479858e-02F, 2.27088201791048050e-02F, -2.17865128070116043e-03F, 5.09497895836830139e-02F, -2.94827483594417572e-02F, 1.45433852449059486e-02F, -9.00922417640686035e-02F, 3.87972146272659302e-02F, -9.82919409871101379e-02F, 4.18071746826171875e-02F, -3.44241149723529816e-02F, -6.04146942496299744e-02F, 2.03064661473035812e-02F, -4.70953211188316345e-02F, 1.69048998504877090e-02F, -5.08084930479526520e-02F, -3.08390166610479355e-02F, -6.11969642341136932e-02F, -8.92530158162117004e-02F, 3.27790379524230957e-02F, 3.05929705500602722e-02F, -8.19079279899597168e-02F, -4.20440211892127991e-02F, 1.95435546338558197e-02F, 2.93918568640947342e-02F, -5.32877482473850250e-02F, 1.36825500521808863e-03F, -4.76198755204677582e-02F, -8.80869384855031967e-03F, -7.80148878693580627e-02F, 5.31019084155559540e-02F, 5.65758123993873596e-02F, 6.09338916838169098e-02F, 3.69735136628150940e-02F, 1.01525081845466048e-04F, -7.28029012680053711e-02F, 1.81206539273262024e-02F, 7.11588561534881592e-03F, -4.95385117828845978e-02F, -5.92574570327997208e-03F, -3.87124321423470974e-03F, -8.08696672320365906e-02F, 3.02071161568164825e-02F, -2.73848492652177811e-02F, -2.30443198233842850e-02F, 6.18671067059040070e-02F, 5.70218125358223915e-03F, -6.66231587529182434e-02F, 2.58429888635873795e-02F, -4.03900630772113800e-02F, -2.32880413532257080e-02F, -3.27208787202835083e-02F, 1.04074850678443909e-02F, -3.29896509647369385e-02F, -4.86272759735584259e-02F, -9.06503573060035706e-03F, -7.67930373549461365e-02F, 4.89668101072311401e-02F, 3.88466864824295044e-02F, -7.92540833353996277e-02F, -5.98924271762371063e-02F, 3.96858975291252136e-02F, 5.61604183167219162e-03F, -8.50350968539714813e-03F, -6.06658533215522766e-02F, 3.49901169538497925e-02F, 3.67414066568017006e-03F, 2.18644030392169952e-02F, -3.82486358284950256e-02F, -7.12391659617424011e-02F, 9.59636643528938293e-03F, -4.00858372449874878e-02F, 4.42060679197311401e-02F, -7.18365162611007690e-02F, -6.32286816835403442e-02F, 4.15605902671813965e-02F, 3.63676398992538452e-02F, -7.33676254749298096e-02F, -2.30213850736618042e-02F, -7.02821090817451477e-02F, -2.94154919683933258e-02F, -8.59179254621267319e-03F, -6.64435699582099915e-03F, -5.08701056241989136e-03F, 2.96209380030632019e-02F, 1.43590550869703293e-02F, 3.65846976637840271e-02F, -2.84642633050680161e-02F, 2.92168464511632919e-02F, 3.16344238817691803e-02F, -2.75627374649047852e-02F, 3.60883655957877636e-04F, -1.80824436247348785e-02F, -8.73243585228919983e-02F, 9.86044853925704956e-03F, 4.58776615560054779e-02F, -2.64242235571146011e-02F, 6.83437362313270569e-02F, -1.50119885802268982e-02F, -7.77874067425727844e-02F, 2.52454802393913269e-02F, -8.15203040838241577e-02F, 2.14280690997838974e-02F, -2.07711011171340942e-02F, -1.06723289936780930e-02F, -6.49739429354667664e-02F, 2.99424342811107635e-02F, -5.11898733675479889e-02F, -3.09202503412961960e-02F, 3.15988026559352875e-02F, -4.50754463672637939e-02F, 3.20762246847152710e-02F, -3.06577086448669434e-02F, 3.36479842662811279e-02F, -8.79926681518554688e-02F, 3.03271152079105377e-02F, 5.54784387350082397e-02F, 6.00631237030029297e-02F, -4.32257354259490967e-02F, -3.56040894985198975e-02F, -4.20294847572222352e-04F, 6.74420148134231567e-02F, 6.66209161281585693e-02F, -4.85397167503833771e-02F, -4.01641130447387695e-02F, 4.12912257015705109e-02F, -7.03466460108757019e-02F, -6.87841325998306274e-02F, 9.55309718847274780e-03F, -6.54378086328506470e-02F, 4.47652535513043404e-03F, 5.01488484442234039e-02F, -2.12294086813926697e-02F, -4.60893325507640839e-02F, 3.92687618732452393e-02F, 7.04030245542526245e-02F, 1.80477779358625412e-02F, -6.88975229859352112e-02F, -4.74855378270149231e-02F, -7.69591629505157471e-02F, -3.77115122973918915e-02F, 4.79965768754482269e-02F, -5.48250004649162292e-02F, -6.86099156737327576e-02F, -3.44330184161663055e-02F, -6.16670362651348114e-02F, -5.16956895589828491e-02F, 1.20431631803512573e-02F, -1.84421353042125702e-02F, -6.65825083851814270e-02F, -4.86142002046108246e-02F, -3.52232605218887329e-02F, 1.83208342641592026e-02F, 5.69409690797328949e-02F, 2.70338039845228195e-02F, -2.35128644853830338e-02F, -5.91342709958553314e-02F, 2.51919589936733246e-02F, 4.27218005061149597e-02F, 5.70599436759948730e-02F, 4.35004830360412598e-02F, -3.96926142275333405e-02F, -4.62492071092128754e-02F, 3.01907304674386978e-02F, 6.78064376115798950e-02F, 1.03237479925155640e-02F, -6.85705542564392090e-02F, -7.58381485939025879e-02F, -2.80162300914525986e-02F, -4.02943566441535950e-02F, -3.13640870153903961e-02F, -8.98957327008247375e-02F, 3.19617167115211487e-02F, 4.52299639582633972e-02F, 1.59557461738586426e-02F, 4.21758890151977539e-02F, -2.12600640952587128e-02F, -4.48105596005916595e-02F, -6.33036764338612556e-03F, -1.68534573167562485e-02F, -1.06640160083770752e-02F, -5.83572350442409515e-02F, 6.16668909788131714e-03F, 4.77650500833988190e-02F, -2.14828755706548691e-02F, -8.94382596015930176e-04F, 6.55953884124755859e-02F, 3.58273833990097046e-02F, 1.98138635605573654e-02F, -6.07392825186252594e-02F, -5.30416928231716156e-02F, -3.75449806451797485e-02F, 2.32786983251571655e-02F, 2.33943257480859756e-02F, -3.94043512642383575e-02F, 6.20559323579072952e-03F, 5.51043599843978882e-02F, -3.23273539543151855e-02F, -2.37494464963674545e-02F, -2.71845757961273193e-02F, -6.67736008763313293e-02F, -6.37750625610351562e-02F, -5.84495300427079201e-03F, 7.88267105817794800e-02F, 2.91883479803800583e-03F, -5.70821948349475861e-02F, -6.67909346520900726e-03F, -3.28535996377468109e-02F, -5.36122955381870270e-02F, 1.56806483864784241e-02F, 2.74255033582448959e-02F, -3.20436134934425354e-02F, -8.10210406780242920e-03F, -6.79154768586158752e-02F, -1.53609970584511757e-02F, -1.72738470137119293e-02F, -7.92380869388580322e-02F, 8.46560299396514893e-03F, -3.33097092807292938e-02F, -6.54578283429145813e-02F, -6.79999366402626038e-02F, -3.52746583521366119e-02F, -2.06687371246516705e-03F, -2.73424889892339706e-02F, 5.18094636499881744e-02F, -6.66505768895149231e-02F, -9.15584620088338852e-03F, 1.73210762441158295e-02F, 3.72246354818344116e-02F, -6.37541860342025757e-02F, -4.03892509639263153e-02F, -2.29353681206703186e-02F, -4.70485985279083252e-02F, -4.76572103798389435e-02F, -8.72825160622596741e-02F, -1.54382060281932354e-03F, 1.03782610967755318e-02F, -2.89838965982198715e-02F, -6.57913237810134888e-02F, 2.90324562229216099e-03F, -7.61518627405166626e-03F, -9.33479964733123779e-02F, -7.38619640469551086e-02F, 2.80388295650482178e-02F, -1.86304040253162384e-02F, 8.55023413896560669e-03F, 2.44493037462234497e-03F, -3.29167395830154419e-02F, -6.43725767731666565e-02F, -5.99067583680152893e-02F, 1.19671002030372620e-02F, 4.35588248074054718e-02F, -4.35753874480724335e-02F, -4.69261482357978821e-02F, 6.61997497081756592e-02F, 5.64200691878795624e-02F, -4.07154336571693420e-02F, 1.37353725731372833e-02F, 2.72528417408466339e-02F, -5.00073805451393127e-02F, -4.86636087298393250e-02F, -7.81296566128730774e-02F, -5.20597882568836212e-02F, -1.54501050710678101e-02F, -5.69193214178085327e-02F, 3.09604778885841370e-02F, 4.30659055709838867e-02F, 4.09697704017162323e-02F, 3.55263836681842804e-02F, -7.68321603536605835e-02F, -7.09140077233314514e-02F, -3.88666950166225433e-02F, -2.40631271153688431e-02F, -5.22702187299728394e-02F, -6.16539120674133301e-02F, -4.25490215420722961e-02F, -3.21186445653438568e-02F, -5.56606391910463572e-04F, 5.12100718915462494e-02F, -6.22963495552539825e-02F, -4.07003983855247498e-02F, -3.51970568299293518e-02F, 5.05803823471069336e-02F, -4.56046126782894135e-02F, -1.44473453983664513e-02F, 7.30143487453460693e-02F, 3.02160978317260742e-02F, 1.98677293956279755e-02F, 2.82326266169548035e-02F, -4.31334376335144043e-02F, 2.66119427978992462e-02F, -8.02905037999153137e-02F, -2.33746431767940521e-02F, -1.49390706792473793e-02F, 2.72224396467208862e-02F, 3.91069725155830383e-02F, 3.12781035900115967e-02F, -5.45934922993183136e-02F, -3.66267259232699871e-03F, 3.03206928074359894e-02F, -1.41744874417781830e-02F, -2.00871657580137253e-02F, 2.74128410965204239e-02F, 4.71354126930236816e-02F, 2.63315998017787933e-02F, 3.63086238503456116e-02F, -4.60173115134239197e-02F, 6.29543960094451904e-02F, 5.32079190015792847e-02F, 3.19764092564582825e-02F, -6.12107142806053162e-02F, 2.08406224846839905e-02F, 1.30179375410079956e-02F, -4.43024933338165283e-02F, 6.39147758483886719e-02F, 7.75578059256076813e-03F, -3.32475937902927399e-02F, -4.29988726973533630e-02F, -4.23003733158111572e-02F, -5.85948564112186432e-02F, 3.44290658831596375e-02F, 4.45447899401187897e-02F, -3.07562164962291718e-02F, 2.46264729648828506e-02F, 1.08481496572494507e-02F, -7.67259448766708374e-02F, -6.68890587985515594e-03F, 2.38189026713371277e-02F, 2.32430640608072281e-02F, -5.47969080507755280e-02F, 6.71150237321853638e-02F, 3.42261418700218201e-02F, 4.17993962764739990e-02F, -6.66750743985176086e-02F, 5.86092881858348846e-02F, -4.41752523183822632e-02F, 9.32488066609948874e-04F, 3.90767864882946014e-02F, 2.33494676649570465e-02F, 5.90558499097824097e-02F, -3.61075252294540405e-03F, 6.05507902801036835e-02F, -8.57132207602262497e-03F, -2.28691734373569489e-02F, -8.88027809560298920e-03F, -3.76460663974285126e-02F, 1.54093112796545029e-02F, 7.01118120923638344e-03F, -4.29008938372135162e-02F, -3.46251167356967926e-02F, 2.53957174718379974e-02F, -2.05555465072393417e-02F, -9.16987508535385132e-02F, 1.31840948015451431e-02F, 5.87447099387645721e-02F, -8.07259045541286469e-03F, 1.30199939012527466e-02F, -6.54098317027091980e-02F, -5.96731379628181458e-02F, 5.52385579794645309e-03F, -4.53411713242530823e-02F, -1.06854131445288658e-02F, -3.52375879883766174e-02F, -1.98575984686613083e-02F, -2.83244531601667404e-02F, 1.75906736403703690e-02F, 3.07495258748531342e-02F, 1.79057121276855469e-02F, -7.98621177673339844e-02F, 2.04191673547029495e-02F, 2.51933131366968155e-02F, -3.45749072730541229e-02F, -5.73197752237319946e-02F, 4.87407334148883820e-02F, 1.08390823006629944e-02F, -4.42700870335102081e-02F, 1.76804214715957642e-02F, 2.46445685625076294e-02F, 2.09690853953361511e-02F, -6.57954141497612000e-02F, 5.04421144723892212e-02F, -1.47087508812546730e-02F, 3.60803380608558655e-02F, 4.58431430160999298e-02F, -5.67286647856235504e-02F, 3.30695211887359619e-02F, -3.12022231519222260e-02F, -2.52775195986032486e-02F, 3.66847068071365356e-02F, -7.41918310523033142e-02F, -7.33817294239997864e-02F, -2.49442793428897858e-02F, -6.62879794836044312e-02F, -6.99014589190483093e-02F, 1.45879313349723816e-02F, -1.70444343239068985e-02F, 1.18124010041356087e-02F, 5.31795881688594818e-02F, 3.51171940565109253e-02F, 3.36931087076663971e-02F, -1.88944127876311541e-03F, -8.65076780319213867e-02F, 2.33535245060920715e-02F, -1.92000158131122589e-02F, -6.35817423462867737e-02F, -6.12451694905757904e-02F, 6.66160788387060165e-03F, 3.49407196044921875e-02F, 7.68539160490036011e-02F, 1.52453612536191940e-02F, 1.44354091025888920e-03F, -1.96299143135547638e-03F, -7.04341530799865723e-02F, 1.95438731461763382e-02F, -7.99548067152500153e-03F, 5.77260106801986694e-02F, -7.10847154259681702e-02F, -6.64128437638282776e-02F, 7.54640847444534302e-02F, -4.51616756618022919e-02F, -6.21828362345695496e-02F, 1.00708464160561562e-02F, 3.58495973050594330e-02F, -3.27649228274822235e-02F, -4.01773601770401001e-02F, -1.65806719451211393e-04F, -8.49279388785362244e-02F, 4.97719645500183105e-02F, 5.76771572232246399e-02F, 2.57071387022733688e-02F, 1.93877599667757750e-03F, 4.11251075565814972e-02F, -2.02469364739954472e-03F, -6.00348114967346191e-02F, -2.87545584142208099e-02F, -1.51080479845404625e-02F, -7.17738941311836243e-02F, 5.30249103903770447e-02F, 6.90756738185882568e-02F, 3.74624878168106079e-02F, 4.42456901073455811e-02F, 3.60053479671478271e-02F, 4.49158549308776855e-02F, 2.91605293750762939e-02F, 7.19610154628753662e-02F, -1.12934922799468040e-02F, 5.84074258804321289e-02F, 3.02453320473432541e-02F, -4.54244539141654968e-02F, 4.46109287440776825e-02F, -7.38501548767089844e-02F, 3.73688936233520508e-02F, 1.19517520070075989e-02F, -4.52505238354206085e-02F, 6.23741000890731812e-03F, 6.53678476810455322e-02F, -4.94880899786949158e-02F, -6.36169463396072388e-02F, 7.32080191373825073e-02F, -4.82598654925823212e-02F, -8.42220410704612732e-02F, -5.63500972930341959e-04F, -8.72401811648160219e-04F, -1.07621364295482635e-02F, 1.19043625891208649e-02F, -3.92234809696674347e-02F, -8.25740247964859009e-02F, -4.55191247165203094e-02F, 5.82408756017684937e-02F, 3.10900323092937469e-02F, 2.39874888211488724e-02F, 3.36705707013607025e-02F, -5.82870617508888245e-02F, -4.59503419697284698e-02F, 5.48901082947850227e-03F, 7.93657824397087097e-03F, -1.40249980613589287e-02F, 4.68859933316707611e-02F, -2.74749775417149067e-03F, -6.99824318289756775e-02F, 1.55139164999127388e-02F, 4.70010749995708466e-03F, 7.28751942515373230e-02F, -5.51076643168926239e-02F, 4.55418974161148071e-03F, 1.24013274908065796e-02F, -4.17662672698497772e-02F, -1.06381671503186226e-02F, -6.25760341063141823e-03F, 8.43898276798427105e-04F, -4.49810028076171875e-02F, -8.75519886612892151e-02F, -1.32594788447022438e-02F, -5.13383783400058746e-02F, 5.22059015929698944e-02F, 6.10699839890003204e-02F, 1.97082310914993286e-02F, -2.19919793307781219e-02F, -7.12043568491935730e-02F, -1.14867640659213066e-02F, -6.79975301027297974e-02F, 5.59417605400085449e-02F, -3.92067357897758484e-02F, 4.90981228649616241e-02F, 6.18198178708553314e-02F, -7.29853734374046326e-02F, 3.92802804708480835e-03F, -1.35663021355867386e-02F, 3.85902486741542816e-02F, -3.82111817598342896e-02F, 4.41958382725715637e-02F, -5.71460835635662079e-02F, 2.64600589871406555e-02F, 4.82041500508785248e-02F, -3.82203282788395882e-03F, 5.87528795003890991e-02F, -6.93938136100769043e-03F, -4.23216037452220917e-02F, -5.09276837110519409e-02F, -3.50025072693824768e-02F, -5.63372038304805756e-02F, 4.71033528447151184e-02F, -6.16862550377845764e-02F, 1.27400066703557968e-02F, -1.80814564228057861e-02F, -7.70419370383024216e-04F, 3.14328260719776154e-02F, 4.01141718029975891e-02F, 3.50796952843666077e-02F, 6.29893364384770393e-03F, -6.04860223829746246e-02F, 1.01313516497612000e-02F, -6.64386749267578125e-02F, 4.18329201638698578e-02F, 2.95546837151050568e-02F, -6.11351896077394485e-03F, -3.27592119574546814e-02F, -2.24126409739255905e-02F, -8.34648776799440384e-03F, -5.21561726927757263e-02F, 6.27093017101287842e-02F, 2.41268193349242210e-03F, 4.20821011066436768e-02F, 4.28113825619220734e-02F, 3.29302623867988586e-02F, -1.67557839304208755e-02F, -3.42021286487579346e-02F, -9.73038673400878906e-02F, -5.36493621766567230e-02F, 3.00046298652887344e-02F, 3.60274575650691986e-02F, -8.47278162837028503e-02F, -6.27381205558776855e-02F, -2.64940354973077774e-02F, -3.82678695023059845e-02F, 3.42456065118312836e-02F, -1.75018850713968277e-02F, 1.98699552565813065e-02F, -2.30255722999572754e-02F, -2.75198873132467270e-02F, -9.04479529708623886e-03F, -8.63684713840484619e-03F, -8.60776454210281372e-02F, 6.00934401154518127e-02F, 6.49741888046264648e-02F, -3.83220762014389038e-02F, 1.89815014600753784e-02F, 6.56642997637391090e-03F, 4.17306199669837952e-02F, 1.58748701214790344e-02F, 3.74638363718986511e-02F, -6.29960447549819946e-02F, 6.26911222934722900e-02F, -7.73435737937688828e-03F, 2.97479014843702316e-02F, 9.66912601143121719e-03F, 4.13208492100238800e-02F, -1.38579187914729118e-02F, 9.20860655605792999e-03F, -3.34032066166400909e-02F, -2.74939723312854767e-02F, -3.58509421348571777e-02F, 2.28829905390739441e-02F, 4.75724786520004272e-03F, -6.50951347779482603e-04F, -6.09554387629032135e-02F, 2.64676883816719055e-02F, 1.72729957848787308e-02F, -9.57384239882230759e-03F, -6.15347176790237427e-02F, 2.81940884888172150e-02F, -6.85797706246376038e-02F, 4.63408902287483215e-02F, -8.58777984976768494e-02F, 
  -6.92989379167556763e-02F, 1.19980797171592712e-02F, -7.78225660324096680e-02F, -3.50030139088630676e-02F, -7.78045877814292908e-02F, 1.67703479528427124e-02F, -5.65113797783851624e-02F, 4.37483303248882294e-02F, -1.35885691270232201e-02F, -1.23580154031515121e-02F, -1.91456377506256104e-02F, -2.14387606829404831e-02F, -6.38288185000419617e-02F, -7.79046025127172470e-03F, -5.29550760984420776e-02F, -3.72271388769149780e-02F, 5.33715933561325073e-02F, -9.68143530189990997e-03F, 6.33240789175033569e-02F, -4.54129464924335480e-02F, 5.29892556369304657e-03F, 4.59667034447193146e-02F, -5.35702034831047058e-02F, -5.77900707721710205e-02F, -1.94838754832744598e-02F, -3.16731221973896027e-02F, -5.24862371385097504e-02F, -9.27468091249465942e-02F, 2.04701162874698639e-02F, 3.71104404330253601e-02F, 1.27701275050640106e-02F, -7.46702402830123901e-02F, -2.68331691622734070e-02F, -4.22300547361373901e-02F, -2.33831461519002914e-02F, 6.42330273985862732e-02F, 7.23802819848060608e-02F, -5.53068071603775024e-02F, 7.78943747282028198e-02F, -6.43646866083145142e-02F, 3.41219641268253326e-02F, -2.55958754569292068e-02F, -5.41591234505176544e-02F, -9.67920571565628052e-02F, -2.71502938121557236e-02F, 1.18650076910853386e-03F, -6.53802752494812012e-02F, 2.39996332675218582e-02F, -6.89914301037788391e-02F, -2.72816475480794907e-02F, -6.52778670191764832e-02F, -5.42490892112255096e-02F, 7.60417990386486053e-03F, 6.53979256749153137e-02F, 6.38248547911643982e-02F, -5.75885176658630371e-03F, -7.20580294728279114e-02F, -2.03889235854148865e-02F, -2.89210304617881775e-02F, -8.18254277110099792e-02F, 2.58232257328927517e-03F, 3.06061673909425735e-02F, -4.59006316959857941e-02F, 2.28620530106127262e-03F, -8.93114060163497925e-02F, 4.90797311067581177e-03F, 6.12159073352813721e-02F, 1.67906656861305237e-02F, 2.93857604265213013e-03F, -3.21914777159690857e-02F, 4.24299761652946472e-02F, -6.44863098859786987e-02F, 6.55728951096534729e-02F, -1.04474341496825218e-02F, 5.06046265363693237e-02F, -2.70592290908098221e-02F, -1.72818824648857117e-02F, 4.49656434357166290e-02F, -6.62008374929428101e-02F, -6.63024857640266418e-02F, -4.90300990641117096e-02F, -8.66730809211730957e-02F, -6.45605772733688354e-02F, -5.21632209420204163e-02F, -3.73398289084434509e-02F, -2.45045609772205353e-02F, -4.74456734955310822e-02F, 2.25118752568960190e-02F, -5.81882558763027191e-02F, -7.38790258765220642e-02F, 6.06169253587722778e-02F, -1.86646208167076111e-02F, 4.60790749639272690e-03F, 5.13709560036659241e-02F, -5.42630292475223541e-02F, -6.57149851322174072e-02F, -3.22923325002193451e-02F, 3.29035893082618713e-02F, 1.73581186681985855e-02F, -2.28422917425632477e-02F, 3.55479083955287933e-02F, -5.35498447716236115e-02F, -6.64708837866783142e-02F, 2.55474448204040527e-02F, -5.11003099381923676e-02F, 1.20176319032907486e-02F, 4.25457134842872620e-02F, -2.88331657648086548e-02F, 6.47474750876426697e-02F, -5.83388507366180420e-02F, 2.51030344516038895e-02F, -6.29167184233665466e-02F, -5.09624555706977844e-03F, 2.92263110168278217e-03F, -1.02730384096503258e-02F, 1.77348181605339050e-02F, -2.88019352592527866e-03F, 2.87412758916616440e-02F, -3.29094678163528442e-02F, 4.15993705391883850e-02F, 6.28952234983444214e-02F, 5.25906272232532501e-02F, -2.60050427168607712e-02F, 1.19930766522884369e-02F, 3.97954788058996201e-03F, -2.01937854290008545e-02F, 1.61411648150533438e-03F, -4.48719561100006104e-02F, -3.41614824719727039e-03F, -6.54021203517913818e-02F, 2.45995409786701202e-02F, 5.29607906937599182e-02F, 1.89881306141614914e-02F, -9.48996171355247498e-02F, -1.74111612141132355e-02F, -4.23105694353580475e-02F, 1.41372596845030785e-02F, -3.46215702593326569e-02F, 8.97415727376937866e-03F, -1.57026033848524094e-02F, 1.57217960804700851e-02F, 3.72788868844509125e-02F, -5.79076223075389862e-02F, -4.74526314064860344e-03F, -5.51744457334280014e-03F, 5.37879299372434616e-03F, -9.59585607051849365e-03F, -2.50116735696792603e-02F, -1.69360879808664322e-02F, -7.31449276208877563e-02F, -1.53393018990755081e-02F, 7.36934272572398186e-03F, 5.67364990711212158e-02F, -6.40686154365539551e-02F, -1.00676249712705612e-02F, 1.76365915685892105e-02F, -8.36129859089851379e-02F, -4.94596082717180252e-03F, -2.91738789528608322e-02F, 9.29238926619291306e-03F, -2.41333013400435448e-03F, -4.71095070242881775e-02F, -5.11657446622848511e-02F, -3.99924106895923615e-02F, -1.26258423551917076e-02F, -9.85588319599628448e-03F, 1.20254857465624809e-02F, 7.16302841901779175e-02F, -4.90965135395526886e-03F, 1.26478932797908783e-02F, 6.08862973749637604e-02F, 4.24048751592636108e-02F, 2.47326190583407879e-03F, -2.07699816673994064e-02F, -4.31698709726333618e-02F, -4.31509166955947876e-02F, -2.40519270300865173e-02F, 7.04137086868286133e-02F, -3.05141359567642212e-02F, 2.08672974258661270e-02F, -5.43992295861244202e-02F, 7.27748125791549683e-03F, -1.98711715638637543e-02F, -4.10819128155708313e-02F, 3.43822091817855835e-02F, 4.15801331400871277e-02F, -3.61752584576606750e-02F, -6.51724189519882202e-02F, -2.95908022671937943e-02F, 1.51028307154774666e-02F, -4.93456907570362091e-02F, 1.12899355590343475e-02F, 1.28826014697551727e-02F, 5.92702776193618774e-02F, 5.69768957793712616e-02F, 3.57039682567119598e-02F, 7.87369310855865479e-02F, 1.81451030075550079e-02F, 6.03739582002162933e-02F, 7.01995044946670532e-02F, -3.58729176223278046e-02F, 3.85018773376941681e-02F, 6.54444471001625061e-02F, -1.02140149101614952e-02F, -2.22966670989990234e-02F, 3.85137945413589478e-02F, 3.03669478744268417e-02F, -4.07543927431106567e-02F, 5.19384853541851044e-02F, -5.09620308876037598e-02F, 4.06790822744369507e-02F, 2.38451976329088211e-02F, 4.32619117200374603e-02F, -5.40922023355960846e-02F, -5.93427941203117371e-02F, 6.22872523963451385e-02F, -3.07596568018198013e-02F, -7.04662427306175232e-02F, -5.56128546595573425e-02F, -4.98948618769645691e-02F, -2.88200564682483673e-03F, -2.03544199466705322e-02F, 2.34031416475772858e-02F, -6.77919909358024597e-02F, -8.26489701867103577e-02F, 5.99037893116474152e-02F, -7.79552012681961060e-03F, -3.33756543695926666e-02F, 2.11373567581176758e-02F, -6.21931068599224091e-03F, 5.53033426403999329e-02F, 5.59221059083938599e-02F, 2.78917904943227768e-02F, 6.36252239346504211e-02F, 6.66636079549789429e-02F, -3.21937948465347290e-02F, 2.01065503060817719e-02F, -3.44230240443721414e-04F, 4.82648238539695740e-02F, 4.07999046146869659e-02F, 6.22239522635936737e-03F, 6.99402242898941040e-02F, -8.07434692978858948e-03F, -8.49016979336738586e-02F, -2.28793304413557053e-02F, 1.56063204631209373e-02F, -3.44221070408821106e-02F, 1.39172226190567017e-02F, -3.58828119933605194e-02F, -7.41187483072280884e-02F, 2.40946281701326370e-02F, 7.25878328084945679e-02F, 1.24858235940337181e-02F, 6.09543034806847572e-03F, 4.08108681440353394e-02F, -4.64702211320400238e-02F, 3.33122089505195618e-02F, 8.68234038352966309e-03F, 6.81956298649311066e-03F, 6.79423753172159195e-03F, -3.23013681918382645e-03F, 3.43602225184440613e-02F, -5.52394762635231018e-02F, -4.68255169689655304e-02F, 4.80495654046535492e-02F, 4.98790219426155090e-02F, -4.69801574945449829e-03F, -5.84154427051544189e-02F, 1.68443452566862106e-02F, 5.06517998874187469e-02F, -5.84377907216548920e-02F, 2.90609057992696762e-03F, -3.81233543157577515e-02F, -1.00709594786167145e-01F, 5.99312484264373779e-02F, -9.69318971037864685e-02F, -1.28499465063214302e-02F, -9.59175825119018555e-02F, -3.21612111292779446e-03F, 1.40788238495588303e-02F, 6.94944560527801514e-02F, -6.19834922254085541e-02F, 2.49921083450317383e-02F, -4.71660606563091278e-02F, 6.03375807404518127e-02F, 3.64832542836666107e-02F, -6.06857351958751678e-02F, -5.25970291346311569e-03F, 5.57105354964733124e-02F, 6.36556046083569527e-03F, -6.93986490368843079e-02F, -1.57257225364446640e-02F, -2.23543476313352585e-02F, 5.23688383400440216e-02F, -7.20724761486053467e-02F, 2.57015302777290344e-02F, -5.73955401778221130e-02F, 3.78255336545407772e-03F, 5.98476268351078033e-02F, -1.06443399563431740e-02F, -3.20115983486175537e-02F, -3.61160598695278168e-02F, -5.65345361828804016e-02F, 1.31596634164452553e-02F, -5.45987300574779510e-02F, 2.93638445436954498e-02F, -6.38923570513725281e-02F, -6.84875622391700745e-02F, -7.43149444460868835e-02F, 7.32866674661636353e-03F, 2.78730550780892372e-03F, -1.36101618409156799e-02F, 2.37627401947975159e-02F, 7.57081294432282448e-03F, -2.21164282411336899e-02F, -2.41730338893830776e-03F, 7.24520254880189896e-03F, 1.46481776027940214e-04F, 6.51808902621269226e-02F, -3.33892814815044403e-02F, -9.23410207033157349e-02F, 6.91166371107101440e-02F, -6.73227310180664062e-02F, -1.03655226528644562e-01F, 1.47833265364170074e-02F, 2.69003622233867645e-02F, -5.70579692721366882e-02F, 4.32558283209800720e-02F, 4.10676263272762299e-02F, 5.34085929393768311e-02F, 5.75722493231296539e-02F, -8.50553903728723526e-03F, -2.51010078936815262e-02F, 3.64353731274604797e-02F, 2.74835689924657345e-03F, -7.07857012748718262e-02F, 6.31877779960632324e-02F, 1.16937719285488129e-02F, -5.94519823789596558e-03F, -1.16679100319743156e-02F, 6.80798292160034180e-02F, -6.63586780428886414e-02F, 2.41110427305102348e-03F, -6.98327869176864624e-02F, 8.23677182197570801e-02F, -7.11507797241210938e-02F, -5.06180860102176666e-02F, 3.26215401291847229e-02F, -3.21396701037883759e-02F, -5.32298088073730469e-02F, 4.64806593954563141e-02F, -1.60123892128467560e-02F, -5.82018718123435974e-02F, -2.98437457531690598e-02F, -4.63080182671546936e-02F, 5.52745461463928223e-02F, -1.14062866196036339e-02F, 2.50236168503761292e-02F, -6.07494451105594635e-02F, -5.32325357198715210e-03F, -1.02160684764385223e-02F, -5.29070431366562843e-03F, 2.15251520276069641e-02F, 3.38660851120948792e-02F, -4.00268994271755219e-02F, 6.26318603754043579e-02F, 4.00334149599075317e-02F, 4.36726100742816925e-02F, -6.39986991882324219e-02F, 7.67830908298492432e-02F, -6.41346499323844910e-02F, 9.07054729759693146e-03F, -3.12569886445999146e-02F, -4.10684645175933838e-02F, -8.56081619858741760e-02F, 5.20998835563659668e-02F, -7.54192471504211426e-03F, 2.17514093965291977e-02F, -8.51800478994846344e-03F, 7.62074440717697144e-02F, -9.83782485127449036e-02F, -4.91400100290775299e-02F, -6.98561519384384155e-02F, 1.13035878166556358e-02F, -8.58400836586952209e-02F, 1.28560587763786316e-02F, 3.86354625225067139e-02F, -7.13498219847679138e-02F, -8.31277482211589813e-03F, -6.55509084463119507e-02F, 4.47683669626712799e-02F, 4.60799075663089752e-02F, 6.86962204053997993e-03F, 6.23337365686893463e-02F, -2.44687311351299286e-02F, -3.46613628789782524e-03F, 7.83523395657539368e-02F, -1.76419643685221672e-03F, -6.82180300354957581e-02F, -7.02594406902790070e-03F, -6.37081963941454887e-03F, -1.16895027458667755e-01F, -4.38955202698707581e-02F, 1.93255133926868439e-02F, -1.07654510065913200e-02F, -2.94520966708660126e-02F, -4.40018475055694580e-02F, 4.17475476861000061e-02F, 3.82588654756546021e-02F, 1.49006219580769539e-02F, -4.23257946968078613e-02F, 2.07764301449060440e-02F, 4.84066233038902283e-02F, 7.31792300939559937e-02F, 6.05461597442626953e-02F, -5.02713769674301147e-02F, -8.53174030780792236e-02F, 4.57198433578014374e-02F, -4.65585291385650635e-03F, 4.85810562968254089e-02F, 1.05257425457239151e-02F, -3.87962535023689270e-02F, -1.40270581468939781e-02F, -5.78091330826282501e-02F, -2.31556668877601624e-02F, -1.18011776357889175e-02F, 5.10656312108039856e-02F, -4.63040024042129517e-02F, -4.09850887954235077e-02F, -4.65675219893455505e-02F, -7.39295780658721924e-03F, -5.23955654352903366e-03F, -4.86919134855270386e-02F, 3.20338923484086990e-03F, 2.39873416721820831e-02F, -1.45589038729667664e-02F, -2.68445741385221481e-02F, -3.34044806659221649e-02F, -6.60798102617263794e-02F, -2.18854099512100220e-03F, -7.05688744783401489e-02F, -2.28444654494524002e-02F, -4.83656749129295349e-02F, -5.81513270735740662e-02F, -1.64938159286975861e-02F, -3.49201411008834839e-02F, 2.84199733287096024e-02F, 5.27756325900554657e-02F, 3.18629220128059387e-02F, -2.85310409963130951e-02F, 5.20141869783401489e-02F, -6.65901154279708862e-02F, -4.98160673305392265e-03F, -9.34735089540481567e-02F, 1.35693699121475220e-02F, -4.96711730957031250e-02F, -5.98814385011792183e-03F, -1.33063923567533493e-02F, -2.38508619368076324e-02F, -4.58115562796592712e-02F, 1.68512284290045500e-03F, -6.86461925506591797e-02F, 1.69203896075487137e-02F, 5.44951995834708214e-03F, 6.58612698316574097e-02F, 1.64103098213672638e-02F, 3.87760773301124573e-02F, -5.90683408081531525e-02F, 2.35429517924785614e-02F, -3.82281690835952759e-02F, -8.60114470124244690e-02F, 2.16059759259223938e-02F, -3.91345620155334473e-02F, 2.21720468252897263e-02F, 4.66218963265419006e-02F, -6.31402283906936646e-02F, 6.29876088351011276e-03F, -1.41837056726217270e-02F, 5.43646030128002167e-02F, 1.84250958263874054e-02F, -4.42676693201065063e-02F, -4.45811524987220764e-02F, 5.22689074277877808e-02F, 6.46030753850936890e-02F, -1.36676095426082611e-02F, -3.50578762590885162e-02F, 1.79875642061233521e-02F, -6.44407421350479126e-02F, 4.25108708441257477e-02F, -4.43443283438682556e-02F, 1.11897336319088936e-02F, -9.15813297033309937e-02F, -1.65625177323818207e-02F, -1.27644076943397522e-01F, -1.56724303960800171e-02F, -2.99485251307487488e-02F, -3.67318168282508850e-02F, -1.32521623745560646e-02F, -8.54724831879138947e-03F, -7.96711891889572144e-02F, 1.15504441782832146e-03F, -5.41272200644016266e-02F, 5.07546104490756989e-02F, 5.44501543045043945e-02F, 2.84758135676383972e-02F, 5.41554987430572510e-02F, 1.39884212985634804e-02F, 3.68993766605854034e-02F, -3.88622619211673737e-02F, -6.77041290327906609e-03F, -3.03515885025262833e-02F, 4.75310832262039185e-02F, -2.39540468901395798e-02F, 1.05433166027069092e-02F, -2.05525066703557968e-02F, -1.52296498417854309e-02F, 5.95211982727050781e-02F, -1.25256236642599106e-02F, -6.27147918567061424e-03F, -6.73096999526023865e-02F, 3.67589890956878662e-02F, -6.33916854858398438e-02F, -7.61575177311897278e-02F, -5.96015416085720062e-02F, 3.17697376012802124e-02F, 1.81781448191031814e-04F, -3.86779196560382843e-02F, -3.84528860449790955e-02F, 6.09906688332557678e-02F, -2.94348299503326416e-02F, 4.39003407955169678e-02F, -8.40813145041465759e-02F, 7.74496048688888550e-02F, 1.44080100581049919e-02F, -3.03430017083883286e-02F, -3.68962474167346954e-02F, -8.59361216425895691e-02F, -2.08389908075332642e-02F, -2.66618654131889343e-02F, 3.62064354121685028e-02F, -6.95784837007522583e-02F, 2.21015941351652145e-02F, 5.80604150891304016e-02F, 3.08840330690145493e-02F, 3.53029482066631317e-02F, -3.11399274505674839e-03F, 3.59935611486434937e-02F, -3.98987941443920135e-02F, -4.19837720692157745e-02F, -7.44925951585173607e-03F, 1.12771466374397278e-02F, -2.22997404634952545e-02F, -4.87589165568351746e-02F, -2.21333205699920654e-02F, -6.10098280012607574e-02F, 5.81865850836038589e-03F, 2.52891480922698975e-02F, 2.69461832940578461e-02F, -4.33826893568038940e-02F, -5.06267733871936798e-02F, 1.19941355660557747e-02F, -5.87915396317839622e-03F, -6.64935680106282234e-03F, -5.39968125522136688e-02F, -4.43283235654234886e-03F, -8.40608123689889908e-03F, 2.57555325515568256e-03F, -6.59699961543083191e-02F, 3.31098586320877075e-02F, 6.30402415990829468e-02F, 4.21486236155033112e-02F, -1.18013201281428337e-02F, -1.41575084999203682e-02F, 1.81032670661807060e-03F, -2.79406774789094925e-02F, -4.86058704555034637e-02F, -4.15831757709383965e-03F, 5.50834834575653076e-02F, 5.75195364654064178e-02F, 8.39567452203482389e-04F, 9.30563732981681824e-03F, -4.80529591441154480e-02F, 6.26179724931716919e-02F, -7.94575735926628113e-03F, -2.29692962020635605e-02F, -4.05855774879455566e-02F, -7.53179788589477539e-02F, -6.94538801908493042e-02F, 1.62841414567083120e-03F, -3.85006554424762726e-02F, 3.69945690035820007e-02F, -6.88918083906173706e-02F, -3.27754430472850800e-02F, -6.80369436740875244e-02F, 4.88007888197898865e-02F, -5.16497567296028137e-02F, -2.60293819010257721e-02F, 7.31348851695656776e-03F, -1.34377539157867432e-01F, -6.46560117602348328e-02F, 3.17461900413036346e-02F, -9.74252261221408844e-03F, -1.42940068617463112e-02F, 2.80214082449674606e-02F, 1.77031976636499166e-03F, -5.00769130885601044e-02F, 3.83376479148864746e-02F, -6.83442056179046631e-02F, -6.75648450851440430e-02F, -1.46268624812364578e-02F, 4.23402562737464905e-02F, -7.63117298483848572e-02F, -4.29393760859966278e-02F, -6.15336261689662933e-02F, -4.92413491010665894e-02F, 5.62262684106826782e-02F, 6.96671456098556519e-02F, 1.71735733747482300e-02F, 2.01652329415082932e-02F, -1.86173897236585617e-02F, -1.98063757270574570e-02F, -5.17951101064682007e-02F, -7.09385797381401062e-02F, -7.04463794827461243e-02F, -6.53640329837799072e-02F, -8.50280653685331345e-03F, -7.09395632147789001e-02F, -2.91383843868970871e-02F, -7.66216665506362915e-02F, -4.48685809969902039e-02F, 2.85832248628139496e-02F, 9.60762798786163330e-03F, 4.31591048836708069e-02F, -3.10263447463512421e-02F, -2.39298399537801743e-02F, 1.53145019430667162e-03F, -1.11472986638545990e-01F, -1.58967282623052597e-02F, -3.51137295365333557e-02F, 9.16662905365228653e-03F, -3.18820439279079437e-02F, -2.34050601720809937e-02F, -2.91332006454467773e-02F, -7.40714222192764282e-02F, 2.31467513367533684e-03F, 1.95347126573324203e-02F, -5.33141344785690308e-02F, -3.14723514020442963e-02F, 4.79199476540088654e-02F, 5.42273744940757751e-02F, 5.07443472743034363e-02F, -8.37642848491668701e-02F, 6.72252178192138672e-02F, 4.08079139888286591e-02F, -8.02477449178695679e-02F, 1.67622156441211700e-02F, 3.10623794794082642e-02F, -1.67399719357490540e-02F, -4.78486716747283936e-03F, 2.09364667534828186e-02F, -2.88421623408794403e-02F, -6.60048797726631165e-02F, -5.44512756168842316e-02F, 5.10356090962886810e-02F, -6.50517567992210388e-02F, -9.87464375793933868e-03F, 5.80660700798034668e-02F, -3.37563492357730865e-02F, -9.78262815624475479e-03F, -9.77949891239404678e-03F, -3.90243604779243469e-02F, 3.66124399006366730e-02F, -2.03803572803735733e-02F, 7.59731456637382507e-02F, 1.57234594225883484e-02F, -6.52700886130332947e-02F, -5.99757134914398193e-02F, -4.66243773698806763e-02F, 3.00843012519180775e-03F, -4.63469699025154114e-02F, -1.11745987087488174e-02F, -1.28613198176026344e-02F, -6.77145039662718773e-03F, -7.20539167523384094e-02F, 6.02663345634937286e-02F, -2.58923154324293137e-02F, -3.18717248737812042e-02F, -5.94058306887745857e-03F, -2.55193207412958145e-02F, 2.59994640946388245e-02F, -5.51917552947998047e-02F, -5.33979684114456177e-02F, -4.85558994114398956e-02F, 1.31887942552566528e-03F, -1.15516863297671080e-03F, -6.70948326587677002e-02F, 4.61131855845451355e-02F, 7.57301002740859985e-02F, -5.63604868948459625e-02F, -2.62134037911891937e-02F, -9.73637178540229797e-02F, -7.25391432642936707e-02F, -6.49366080760955811e-02F, 3.28495986759662628e-02F, 1.26858307048678398e-02F, 5.31812310218811035e-02F, -6.74652010202407837e-02F, 2.43084490648470819e-04F, 2.10476387292146683e-02F, 2.60745845735073090e-02F, 1.19443563744425774e-03F, -4.19817492365837097e-02F, -4.80706766247749329e-02F, 1.21828978881239891e-02F, 2.20478195697069168e-02F, -1.89999099820852280e-02F, 3.54808941483497620e-02F, 3.19044739007949829e-02F, -6.18557166308164597e-03F, -3.85873764753341675e-02F, -6.10322952270507812e-02F, -3.67979928851127625e-02F, -4.11240756511688232e-03F, -3.64371517207473516e-04F, -1.13842133432626724e-02F, -8.48540849983692169e-03F, -1.20314165949821472e-01F, 3.28501835465431213e-02F, 4.40738815814256668e-03F, 9.73987858742475510e-03F, 5.50031065940856934e-02F, -1.87113694846630096e-02F, -2.35194806009531021e-02F, -4.88111935555934906e-02F, -4.38180677592754364e-02F, 1.15480329841375351e-02F, -9.75585952401161194e-02F, 9.77667570114135742e-02F, -4.64688874781131744e-02F, 4.20648753643035889e-02F, -2.63789389282464981e-02F, -2.85504981875419617e-02F, 2.17535216361284256e-02F, 8.42575915157794952e-03F, 2.70969397388398647e-03F, 4.27392870187759399e-02F, -2.14619617909193039e-02F, -5.21570667624473572e-02F, 2.67392396926879883e-02F, 7.04872310161590576e-02F, 1.82125568389892578e-02F, 2.07675714045763016e-03F, -8.94176587462425232e-03F, 2.95903421938419342e-02F, -4.49582599103450775e-02F, -1.77112203091382980e-02F, -6.16140179336071014e-02F, -4.52886782586574554e-02F, 1.69687662273645401e-02F, 6.70381039381027222e-02F, -6.96951746940612793e-02F, 4.90377172827720642e-02F, 5.38289658725261688e-02F, -2.84671597182750702e-02F, 1.84283070266246796e-02F, -5.27695578057318926e-04F, -6.28180280327796936e-02F, 6.31952956318855286e-02F, 1.55882332473993301e-02F, 4.59813028573989868e-02F, -2.04734895378351212e-02F, -8.45144763588905334e-02F, -8.52447096258401871e-03F, -8.45784263219684362e-04F, -9.33937281370162964e-02F, -5.95847028307616711e-04F, 3.42165902256965637e-02F, -2.28361953049898148e-02F, -4.24293689429759979e-02F, -1.12917786464095116e-02F, 5.93205392360687256e-02F, -3.22334766387939453e-02F, -3.37034873664379120e-02F, 1.76265593618154526e-02F, 5.37068471312522888e-02F, 1.19380056858062744e-02F, -2.88839936256408691e-02F, -8.08373838663101196e-02F, -6.30872100591659546e-02F, -4.19177003204822540e-02F, -1.02368585765361786e-01F, 4.08480204641819000e-02F, -8.18271636962890625e-02F, -1.30284288898110390e-02F, 4.40706945955753326e-02F, -2.55929883569478989e-02F, 6.25730827450752258e-02F, -5.07927499711513519e-02F, -2.65475809574127197e-02F, 2.92059294879436493e-02F, 3.91425862908363342e-02F, -5.88160939514636993e-02F, 1.27214863896369934e-02F, 1.17886820808053017e-02F, 1.15643637254834175e-02F, -3.41352336108684540e-02F, 3.78487296402454376e-02F, -4.26215417683124542e-02F, 2.61291395872831345e-02F, 6.83221779763698578e-03F, 1.11876800656318665e-02F, -2.22206450998783112e-02F, 4.74315043538808823e-03F, 1.75606794655323029e-02F, -2.53496896475553513e-02F, -2.88258679211139679e-02F, -3.53546105325222015e-02F, -2.94605810195207596e-02F, 4.12488840520381927e-02F, -2.05761641263961792e-02F, -6.37071579694747925e-02F, -6.37368708848953247e-02F, 4.88383993506431580e-02F, -7.36398994922637939e-02F, -4.58262935280799866e-02F, 3.26835550367832184e-02F, 1.81933641433715820e-02F, -8.11358839273452759e-02F, 2.42962595075368881e-02F, -4.56990767270326614e-03F, 1.30066610872745514e-02F, -4.08544465899467468e-02F, 3.48611027002334595e-02F, -5.15307039022445679e-02F, 1.56074983533471823e-03F, -7.37251415848731995e-02F, -3.64705249667167664e-02F, -2.24204752594232559e-02F, -3.23449517600238323e-03F, 1.46248862147331238e-02F, 6.63728564977645874e-02F, 2.57137734442949295e-02F, -2.14404682628810406e-03F, 5.13036211486905813e-04F, -2.14467328041791916e-02F, -6.06400184333324432e-02F, 2.09039337933063507e-02F, -5.07513433694839478e-03F, 7.63485953211784363e-02F, -1.04656547773629427e-03F, -2.01307106763124466e-02F, -6.75112158060073853e-02F, -4.89929877221584320e-02F, 3.08354757726192474e-02F, -3.61466035246849060e-02F, -1.38388201594352722e-02F, -6.43442198634147644e-02F, -9.15263816714286804e-02F, -4.04390469193458557e-02F, 6.62804814055562019e-03F, 8.07351768016815186e-02F, 4.30881232023239136e-02F, -6.49442225694656372e-02F, -6.41517490148544312e-02F, -2.92257759720087051e-02F, 6.59835338592529297e-03F, 5.18571585416793823e-03F, -8.41330662369728088e-02F, -3.00689339637756348e-02F, -4.14170734584331512e-02F, -2.38058026880025864e-02F, 1.67882665991783142e-02F, 3.27215269207954407e-02F, -1.62988305091857910e-02F, 5.96320107579231262e-02F, -6.08646534383296967e-02F, -1.07309399172663689e-02F, -8.34139343351125717e-03F, 2.62315571308135986e-03F, -4.77151609957218170e-02F, 4.89412657916545868e-02F, 4.43563871085643768e-02F, 3.83853428065776825e-02F, -1.78873185068368912e-02F, -6.27110749483108521e-02F, 6.31036758422851562e-02F, -5.60934506356716156e-02F, -6.80651813745498657e-02F, -3.09419073164463043e-02F, -1.96647848933935165e-02F, -1.76554676145315170e-02F, 2.02391836792230606e-02F, -1.03983804583549500e-01F, -5.29632605612277985e-02F, -4.40560616552829742e-02F, -6.16457425057888031e-02F, -5.72075098752975464e-02F, 4.00676354765892029e-02F, 2.06255204975605011e-02F, -4.39982190728187561e-02F, -5.41376434266567230e-02F, 4.48372475802898407e-02F, -7.14858993887901306e-02F, 3.60364164225757122e-03F, -1.54895754531025887e-02F, -9.39469784498214722e-03F, -6.30023330450057983e-02F, -9.41331759095191956e-02F, 2.22523193806409836e-02F, -5.79277090728282928e-02F, -9.60636660456657410e-02F, 3.37577536702156067e-02F, -7.07733705639839172e-02F, -7.60550200939178467e-02F, 1.38754295185208321e-02F, -8.78722518682479858e-02F, 6.31784722208976746e-02F, 6.05521723628044128e-03F, -8.90961289405822754e-02F, -2.98601072281599045e-02F, -7.31299594044685364e-02F, -2.58341450244188309e-02F, -4.36854846775531769e-02F, -5.82828698679804802e-03F, 1.93815920501947403e-02F, -1.61503534764051437e-03F, -6.56578615307807922e-02F, -4.50712302699685097e-03F, -4.94548119604587555e-02F, -6.51679513975977898e-03F, 1.94244086742401123e-04F, -4.70213741064071655e-02F, -4.59932386875152588e-02F, -3.95080745220184326e-02F, 5.42293861508369446e-03F, 5.88477700948715210e-02F, 3.13019528985023499e-02F, 1.11502921208739281e-02F, -5.78331239521503448e-02F, -8.20079296827316284e-02F, 1.87230051960796118e-03F, -8.55624151881784201e-04F, -1.09978020191192627e-03F, 1.97044797241687775e-02F, -4.92236316204071045e-02F, -5.70712238550186157e-02F, -5.31835854053497314e-02F, 5.47978421673178673e-03F, -2.56766639649868011e-02F, -1.33696869015693665e-02F, -3.81839014589786530e-02F, -6.80516362190246582e-02F, 1.03011056780815125e-02F, 4.83345575630664825e-02F, 6.11047521233558655e-02F, 6.66108205914497375e-02F, -2.25436445325613022e-02F, -5.81078454852104187e-02F, 1.56710259616374969e-02F, -2.61613056063652039e-02F, -8.09912234544754028e-02F, 6.91844224929809570e-02F, -2.57990807294845581e-02F, -4.83392104506492615e-02F, -3.70986536145210266e-02F, -9.93922725319862366e-03F, -1.17127234116196632e-02F, 3.91259528696537018e-02F, 5.58341294527053833e-02F, 3.21322716772556305e-02F, 2.75366306304931641e-02F, -3.02183125168085098e-02F, -2.47943587601184845e-02F, 6.85399863868951797e-03F, -9.61966142058372498e-02F, -7.64679759740829468e-02F, -7.51908347010612488e-02F, 5.39749152958393097e-02F, -7.25597068667411804e-02F, 2.06379592418670654e-02F, 4.66169156134128571e-02F, -9.51690301299095154e-02F, -9.78348329663276672e-02F, -5.46720176935195923e-02F, 3.56703884899616241e-02F, -7.41817057132720947e-02F, 2.91673056781291962e-02F, 3.56152355670928955e-02F, 4.16099838912487030e-02F, -7.27562084794044495e-02F, 1.97300370782613754e-02F, 7.14029222726821899e-02F, -3.36997993290424347e-02F, 8.16084295511245728e-02F, 2.38461643457412720e-02F, -3.68252675980329514e-03F, -7.65864131972193718e-03F, 4.36248108744621277e-02F, -5.90196885168552399e-02F, -5.00742271542549133e-02F, -1.55579177662730217e-02F, 2.69548352807760239e-02F, 4.59262505173683167e-02F, 3.94194796681404114e-02F, 3.33989113569259644e-02F, -8.60683992505073547e-02F, -7.10271894931793213e-02F, 4.91811670362949371e-02F, 3.98360155522823334e-02F, 1.40386670827865601e-02F, 2.44604423642158508e-02F, 5.03470189869403839e-02F, -1.58036127686500549e-02F, 7.30883479118347168e-02F, -6.64234608411788940e-02F, 1.54673308134078979e-02F, -5.25654330849647522e-02F, -5.91560006141662598e-02F, -8.09414237737655640e-02F, -1.13473143428564072e-02F, -4.40800562500953674e-02F, -2.59059090167284012e-02F, -7.70313069224357605e-02F, 6.59591108560562134e-02F, 
