#include "tensorflow/lite/c/builtin_op_data.h"
#include <stdint.h>
#include <assert.h>

namespace tflite { namespace ops { namespace micro {
namespace conv { extern void* Init(TfLiteContext*, const char*, size_t); }
namespace conv { extern TfLiteStatus Prepare(TfLiteContext*, TfLiteNode*); }
namespace conv { extern TfLiteStatus Eval(TfLiteContext*, TfLiteNode*); }
namespace pooling { extern TfLiteStatus MaxEval(TfLiteContext*, TfLiteNode*); }
namespace reshape { extern TfLiteStatus Prepare(TfLiteContext*, TfLiteNode*); }
namespace reshape { extern TfLiteStatus Eval(TfLiteContext*, TfLiteNode*); }
namespace fully_connected { extern void* Init(TfLiteContext*, const char*, size_t); }
namespace fully_connected { extern TfLiteStatus Prepare(TfLiteContext*, TfLiteNode*); }
namespace fully_connected { extern TfLiteStatus Eval(TfLiteContext*, TfLiteNode*); }
} } }

static TfLiteTensor cifar_tensors[20];
static TfLiteNode cifar_nodes[8];
static TfLiteContext cifar_context;
static const TfLiteConvParams cifar_opdata0 = { kTfLitePaddingValid, 1,1, kTfLiteActRelu, 1,1 };
static const int cifar_inputs0[4] = { 3,  0,9,1 };
static const int cifar_outputs0[2] = { 1,  12 };
static const TfLitePoolParams cifar_opdata1 = { kTfLitePaddingValid, 2,2, 2,2, kTfLiteActNone, { { 0,0, 0,0 } } };
static const int cifar_inputs1[2] = { 1,  12 };
static const int cifar_outputs1[2] = { 1,  13 };
static const TfLiteConvParams cifar_opdata2 = { kTfLitePaddingValid, 1,1, kTfLiteActRelu, 1,1 };
static const int cifar_inputs2[4] = { 3,  13,10,2 };
static const int cifar_outputs2[2] = { 1,  14 };
static const TfLitePoolParams cifar_opdata3 = { kTfLitePaddingValid, 2,2, 2,2, kTfLiteActNone, { { 0,0, 0,0 } } };
static const int cifar_inputs3[2] = { 1,  14 };
static const int cifar_outputs3[2] = { 1,  15 };
static const TfLiteConvParams cifar_opdata4 = { kTfLitePaddingValid, 1,1, kTfLiteActRelu, 1,1 };
static const int cifar_inputs4[4] = { 3,  15,11,3 };
static const int cifar_outputs4[2] = { 1,  16 };
static const TfLiteReshapeParams cifar_opdata5 = { { 0, 0, 0, 0, 0, 0, 0, 0, }, 0 };
static const int cifar_inputs5[3] = { 2,  16,6 };
static const int cifar_outputs5[2] = { 1,  17 };
static const TfLiteFullyConnectedParams cifar_opdata6 = { kTfLiteActRelu, kTfLiteFullyConnectedWeightsFormatDefault, false, false };
static const int cifar_inputs6[4] = { 3,  17,7,4 };
static const int cifar_outputs6[2] = { 1,  18 };
static const TfLiteFullyConnectedParams cifar_opdata7 = { kTfLiteActNone, kTfLiteFullyConnectedWeightsFormatDefault, false, false };
static const int cifar_inputs7[4] = { 3,  18,8,5 };
static const int cifar_outputs7[2] = { 1,  19 };

static const int cifar_tensor_dimension0[5] = { 4,  1,32,32,3 };
static const float cifar_tensor_data1[32] = { -0.000941466, 0.00034059, -0.00354463, -0.0015664, 0.0288617, 0.00731457, -0.00142266, 0.0149212, 0.0807389, -0.287277, 0.00435346, 0.0121596, 0.0394845, -0.00943349, -0.0668311, -0.0044438, 0.166085, -0.00334247, 0.0722647, -0.0665873, 0.0211629, 0.00741545, -0.0474027, 0.0178817, 0.0230535, 0.048999, 0.0245798, 0.0591353, -0.0989662, 0.0020101, -0.117647, -0.00766527,  };
static const int cifar_tensor_dimension1[2] = { 1,  32 };
static const float cifar_tensor_data2[64] = { -0.0822861, -0.00125156, 0.0666879, 0.0157444, 0.00813978, 0.105077, 0.0830635, 0.0782397, 0.158627, -0.125384, -0.0175636, -0.0474358, 0.0719904, -0.0141616, -0.0441286, -0.0559976, 0.077695, -0.0239269, 0.0817959, -0.13539, 0.00800744, 0.0066195, 0.0344335, -0.0668608, -0.104149, -0.0705391, -0.0831184, -0.0599299, 0.117047, 0.0167792, -0.0328446, -0.0527792, 0.131212, 0.158466, 0.0258237, -0.0207452, 0.0788492, 0.0553133, 0.0599979, 0.396996, -0.0145931, 0.0891954, -0.133624, 0.0619083, -0.0910005, -0.0184101, 0.0366222, 0.151145, 0.0613003, 0.0936103, 0.0216329, 0.00524438, 0.0315979, -0.0907396, 0.0879014, 0.0778556, 0.0508622, 0.0501467, -0.0561807, -0.190421, -0.0444673, 0.0601553, -0.0354136, -0.0800024,  };
static const int cifar_tensor_dimension2[2] = { 1,  64 };
static const float cifar_tensor_data3[64] = { 0.0675569, -0.0341083, -0.0471057, 0.0176313, 0.00114857, -0.080134, 0.187815, -0.0422505, -0.038207, -0.0379593, -0.109477, -0.125105, 0.12563, 0.288422, 0.0992986, 0.26802, 0.0102435, 0.0701844, -0.0495367, -0.00965984, 0.322522, 0.0570289, -0.00951526, -0.00123459, 0.0352291, -0.0792318, 0.2517, 0.257284, 0.311079, -0.0408328, 0.194638, 0.0825913, 0.164057, 0.197326, -0.0505578, 0.0424517, -0.0565344, 0.12567, -0.0188999, -0.0543446, 0.143838, 0.0933743, -0.0333897, 0.0160423, 0.181561, 0.019056, -0.0408175, -0.0442903, 0.231684, -0.0972083, -0.0237996, 0.0488286, 0.198235, -0.0154445, -0.068788, -0.0342001, -0.0610251, -0.042934, -0.0513963, 0.235745, -0.0601786, -0.0490159, -0.0306589, -0.00318676,  };
static const int cifar_tensor_dimension3[2] = { 1,  64 };
static const float cifar_tensor_data4[64] = { -0.072383, -0.012202, -0.0103692, -0.0521755, 0.0403327, -0.0142228, 0.00564974, -0.00884723, -0.1096, -0.0403089, 0.0832185, 0.0390776, -0.0331046, -0.0489321, -0.0381978, 0.0895172, 0.00274579, 0.0754255, -0.0255227, 0.0624297, 0.157579, -0.233975, -0.0187271, -0.0267652, -0.0431698, 0.0948164, 0.102715, 0.0634878, -0.010231, -0.0466653, -0.0128772, -0.0768161, -0.0781533, -0.0219338, -0.013914, 0.106737, -0.0369488, 0.177847, 0.175354, -0.0189952, -0.00881504, -0.0292256, -0.0203749, 0.335023, -0.0998905, 0.0190918, -0.0267868, -0.0228546, -0.0572723, -0.00848229, -0.15836, 0.00332515, -0.011226, -0.0281844, 0.0771301, -0.00957571, -0.0459764, 0.033527, 0.0297866, 0.192554, 0.112273, 0.23417, -0.0461621, 0.21547,  };
static const int cifar_tensor_dimension4[2] = { 1,  64 };
static const float cifar_tensor_data5[10] = { -0.160537, -0.195852, -0.0817604, 0.177377, 0.232834, -0.013105, 0.0906298, -0.110434, 0.0234766, -0.0127098,  };
static const int cifar_tensor_dimension5[2] = { 1,  10 };
static const int32_t cifar_tensor_data6[2] = { -1, 1024,  };
static const int cifar_tensor_dimension6[2] = { 1,  2 };
static const float cifar_tensor_data7[64*1024] = { 
  0.0414964, -0.011521, 0.019019, -0.363344, 0.113972, -0.03088, -0.0125087, 0.0408569, 0.0491432, 0.00719802, 0.223891, -0.126394, 0.20885, 0.0670263, 0.371182, 0.0672805, 0.0149384, 0.135384, -0.0466269, -0.148824, -0.0241177, 0.181145, -0.129847, 0.356142, -0.0460519, 0.108447, -0.225129, -0.0452051, -0.319274, 0.0491789, -0.426922, -0.0236335, -0.12731, -0.0862094, 0.0174193, 0.0697381, -0.0328384, 0.0946632, 0.413573, -0.0898535, 0.0522982, -0.0842073, 0.0211581, -0.156902, 0.197645, -0.0871342, -0.0036232, -0.0586892, 0.251406, 0.00661903, 0.0292887, -0.0168354, 0.262126, -0.0275697, 0.0439184, -0.217057, 0.0543451, 0.0235142, 0.092532, 0.0713078, 0.249389, 0.0674178, 0.138511, 0.0508897, 0.149039, 0.00417289, 0.0243774, -0.0295785, 0.170453, -0.166237, 0.116635, 0.0392297, 0.0118808, -0.037976, -0.0507293, -0.126795, 0.124336, 0.0913412, 0.0105782, 0.0840712, 0.0794113, 0.0899406, -0.0339064, 0.0391828, -0.00329124, 0.0266339, -0.0659255, 0.218652, -0.145253, 0.000830361, -0.121606, -0.169436, 0.00853617, -0.0349209, -0.0241787, -0.0260735, 0.147781, 0.0784797, -0.137609, -0.000502678, 0.00439047, 0.131756, -0.0977227, 0.0426727, 0.0244826, 0.0181384, 0.0562898, -0.0305755, 0.206517, 0.0852029, 0.0190899, -0.0636906, 0.118538, 0.118133, -0.0590752, 0.132115, 0.142622, -0.0210256, 0.124967, 0.172613, -0.0137925, -0.0598487, 0.0559184, 0.0527591, -0.0566283, 0.0174017, 0.0411877, 0.0380741, 0.253752, -0.0671361, 0.0228117, 0.0486427, 0.125691, -0.0255939, -0.00520147, 0.000420358, -0.0606459, -0.0305762, -0.0451065, -0.105515, 0.0580561, -0.0938717, 0.220459, 0.173561, 0.132917, -0.030339, -0.0690549, -0.0739317, -0.0479062, -0.0197433, -0.0532083, 0.13131, 0.124141, 0.0510708, -0.162512, -0.15359, -0.116658, 0.00972882, 0.0477006, -0.0622176, 0.0148937, 0.0124085, 0.038696, -0.186022, 0.0315313, -0.147593, -0.0411656, -0.0104633, -0.0398692, -0.00725888, 0.0579251, -0.0353947, 0.196447, -0.0114296, 0.0415256, -0.0297564, 0.210521, 0.188488, -0.0150523, -0.0865921, -0.13603, -0.0729414, -0.065688, -0.141663, 0.0307725, -0.0576437, 0.0657883, -0.090092, 0.183648, -0.0244567, 0.0927415, 0.141642, -0.064778, 0.0296029, 0.0074757, -0.131723, 0.444071, -0.0918757, -0.0621932, 0.0096618, -0.00506003, 0.056133, -0.0554244, -0.026189, 0.0491352, 0.0256962, -0.0581908, 0.327516, -0.115269, 0.0518353, -0.00505535, -0.0445798, 0.0446207, -0.108694, -0.116585, 0.135659, -0.019235, 0.00537876, -0.00373387, -0.120611, -0.102569, -0.0812753, 0.130823, 0.0812022, -0.166597, -0.042776, 0.018974, 0.140537, 0.0101405, 0.068489, -0.325418, -0.0824599, 0.0138038, -0.095286, 0.0146212, -0.159416, 0.254, -0.247895, 0.0565086, 0.0374322, 0.148194, 0.309474, 0.0823457, 0.139209, -0.190769, -0.068734, -0.159898, 0.120035, -0.0492781, 0.0240066, 0.130202, -0.271792, 0.173256, 0.0124594, 0.0129381, -0.0376854, -0.00772786, 0.0718473, -0.0303518, -0.207901, -0.04091, 0.0507252, 0.0185837, -0.0309161, -0.0269117, -0.0471575, 0.224174, 0.0778411, 0.0876503, -0.0148477, 0.174037, 0.149764, 0.0689653, 0.0043069, -0.0329046, 0.0873625, 0.085533, 0.181715, -0.0516667, 0.0257885, 0.102694, 0.266239, -0.0944877, 0.0506904, -0.0561037, 0.0220075, -0.188937, 0.0227504, 0.0338506, 0.265301, -0.0396431, 0.0495916, 0.0405511, 0.146803, -0.0703135, -0.0604263, -0.133141, 0.0668398, 0.0209608, 0.0698975, 0.171234, -0.0778629, -0.0306402, -0.0551625, -0.0638031, -0.0597147, 0.0122425, 0.00957718, 0.393092, 0.00452054, 0.0282509, -0.0115267, -0.0414588, -0.0139913, 0.0244803, -0.000956106, 0.122531, -0.00725807, 0.0686953, 0.0624904, 0.0378939, 0.0313182, 0.00584826, -0.140446, 0.153789, 0.136673, 0.0910009, -0.0495146, -0.0261826, 0.0439031, 0.0633489, 0.0959467, 0.0271661, -0.0183976, 0.199815, 0.0583976, 0.105615, 0.107301, 0.045029, -0.0898246, -0.00620655, -0.0206028, 0.182545, 0.0865699, -0.067431, -0.0944402, -0.112871, 0.01317, 0.0524889, -0.0764124, 0.120989, -0.284882, 0.0146466, 0.19141, -0.178377, -0.0345748, -0.0157905, -0.119048, 0.0103616, 0.0715352, -0.161455, -0.0663035, 0.0767729, -0.106298, -0.0351396, 0.0337059, -0.00618176, 0.0692084, 0.0973705, -0.126142, -0.0509368, 0.0412553, -0.0764119, 0.0548546, 0.0050301, 0.0342432, 0.0117803, 0.0118056, 0.0230588, -0.137116, 0.0062309, -0.022774, 0.0730141, 0.0399662, 0.0296672, 0.069405, -0.02733, -0.0559544, 0.0802583, 0.0357139, 0.0101623, 0.0966172, -0.0853162, -0.0478028, 0.05892, 0.11655, -0.163495, -0.107687, 0.119889, 0.0921819, 0.218528, 0.0168386, 0.00502995, 0.0867882, -0.108858, -0.0739814, 0.169885, -0.0144768, 0.193324, -0.0217741, -0.0880258, 0.0232446, 0.0205842, -0.091576, -0.0385798, -0.0617818, -0.0476876, -0.00278771, -0.000219361, -0.157109, 0.0500531, 0.110966, -0.0406176, -0.0435978, 0.171724, -0.222764, -0.0341337, -0.238316, 0.0467263, 0.151291, 0.0110606, 0.0507953, -0.0450754, 0.21179, -0.0477722, -0.0227096, -0.139788, 0.0598006, 0.125662, 0.140832, 0.0503172, 0.00112346, 0.183491, -0.0583975, -0.144635, -0.0051974, -0.0224774, 0.183244, 0.0301473, -0.0346005, 0.0602081, -0.0096641, 0.110897, -0.167837, -0.0440374, 0.0042433, -0.0493465, 0.0633826, 0.119378, 0.130451, -0.0631125, -0.0578488, 0.156493, 0.132761, 0.297333, -0.072031, 0.0210803, 0.183406, 0.213609, -0.0869246, -0.0134204, 0.255752, 0.108482, -0.0768094, -0.0345786, -0.00939443, 0.0148655, 0.0530908, 0.192327, -0.0204417, -0.097383, 0.064482, 0.0267816, 0.0329023, 0.0971673, -0.111923, -0.293456, -0.0307293, -0.210438, -0.0841193, -0.00204437, -0.377221, 0.074107, 0.0797464, 0.0172568, -0.0699001, -0.00965933, 0.230746, -0.0467995, 0.141635, -0.125165, -0.0228483, -0.0360432, -0.0426817, 0.0271027, 0.0678341, 0.0255321, -0.0556408, 0.0972427, 0.00741166, -0.121256, 0.314168, 0.262686, 0.0807703, 0.0112138, -0.147328, 0.104898, 0.138759, -0.00089817, 0.0112949, -0.0107983, 0.0103647, 0.0925912, 0.132363, 0.108287, 0.093794, 0.0595026, 0.0788357, 0.0705174, 0.096929, 0.0163075, 0.00915929, -0.0100461, 0.260666, 0.0470564, -0.0113353, 0.0534921, 0.12548, 0.0870183, 0.0427252, -0.061356, 0.006265, 0.0955183, -0.178076, -0.143924, 0.109056, -0.167055, -0.109966, 0.0169605, 0.0519842, 0.0899501, -0.0456131, 0.0865335, 0.0462261, -0.0314798, -0.0102425, 0.0673881, -0.046449, 0.0452501, -0.0227941, -0.0313621, -0.0251554, 0.00822849, -0.0968012, 0.17525, -0.00493007, -0.0541846, 0.0207938, 0.00185482, 0.0950029, 0.0830299, -0.0471856, 0.0158436, -0.0366597, -0.0360825, 0.149786, -0.0807442, -0.0558914, -0.0765924, -0.0199876, -0.0101556, 0.164947, -0.0906798, 0.0473562, 0.0221418, 0.0654477, -0.168553, -0.0208807, 0.109723, 0.0646381, 0.097635, 0.251392, -0.0589904, -0.0293997, -0.0640733, -0.0237133, 0.000342432, -0.052408, 0.101787, -0.0337936, 0.100179, 0.0568516, -0.152278, 0.15001, 0.154706, 0.012648, 0.131055, -0.0886581, -0.000459349, -0.207238, -0.220041, -0.0505555, -0.000417755, -0.0450046, 0.234685, 0.0194501, 0.0103866, -0.0128482, 0.0252474, -0.151994, -0.0278104, 0.0311844, 0.0650961, 0.0203732, -0.112819, -0.175837, 0.0167446, -0.106465, 0.0755065, -0.0019788, 0.140005, -0.227721, 0.0881141, -0.0203882, -0.0249661, -0.0545282, -0.227154, 0.035229, 0.0221099, 0.150616, 0.0895888, -0.0448176, 0.0105922, 0.0422508, -0.0796787, 0.10189, -0.232699, 0.00239622, -0.0358956, 0.0766411, -0.0294724, 0.114665, 0.191062, 0.00976835, 0.0163838, 0.0635753, 0.14391, -0.0443981, -0.071416, -0.119662, 0.104234, 0.0576847, 0.10727, -0.194838, 0.123076, 0.133685, -0.131358, 0.199623, 0.260748, 0.053727, 0.00915922, -0.00910624, 0.174577, -0.0803142, -0.186223, -0.0987612, -0.0572158, 0.241772, 0.111863, 0.0122231, -0.0714912, -0.0856592, 0.0298628, -0.0727083, 0.061837, 0.126145, -0.0434986, 0.0659474, -0.193791, 0.117554, 0.0325092, -0.0172134, -0.0766488, -0.0238918, -0.011883, 0.12235, 0.0485218, -0.0548688, 0.107531, -0.0645451, -0.196768, 0.0701638, 0.0259622, 0.111031, -0.00441691, -0.0424228, 0.0509802, 0.124496, 0.030857, -0.0128896, -0.164904, -0.00599229, 0.0155153, 0.0070509, 0.0594304, 0.143834, 0.121568, 0.10005, -0.067479, -0.0372312, 0.00269203, 0.0569471, -0.0431827, 0.303508, 0.109743, -0.127681, 0.237596, 0.00824509, -0.147829, -0.0339385, -0.105026, -0.0300541, 0.0549548, 0.0491034, 0.00689473, -0.16322, 0.161598, -0.0315466, -0.032054, -0.00572498, -0.00692413, -0.0251999, -0.123349, -0.0348881, -0.09295, -0.0287372, -0.0314525, -0.084368, 0.216878, -0.10914, -0.018632, -0.0363625, -0.105689, 0.123963, 0.0437525, 0.0499626, 0.126693, 0.0140394, 0.0430595, -0.180596, -0.00373621, -0.00109422, 0.0140305, 0.0527802, 0.00932681, -0.0371193, -0.0182103, -0.123948, 0.236158, 0.0243748, 0.029326, -0.0102386, -0.102124, -0.099913, 0.0375662, -0.0438716, -0.0369064, 0.0374777, 0.349883, -0.0359019, 0.295602, 0.0510102, 0.0829788, 0.0413122, -0.182923, 0.115961, -0.0296677, 0.0413344, 0.0759463, 0.287575, 0.307072, 0.0151891, 0.0275327, 0.13588, 0.0152107, -0.0270761, 0.0948585, 0.0169499, 0.310507, 0.053689, -0.076708, -0.0376432, -0.172516, 0.0792163, -0.0500011, -0.0548353, 0.00693597, -0.0123935, -0.107446, 0.213664, -0.0547982, -0.130811, 0.230159, 0.0489803, -0.00823146, -0.031104, -0.169984, 0.308149, 0.0931446, 0.0183983, 0.261661, 0.0547371, 0.166495, 0.112968, 0.0891224, 0.0572125, -0.369023, -0.135751, -0.0697931, -0.0287348, 0.0425795, 0.240535, 0.03825, 0.033912, -0.036819, -0.121087, -0.104021, -0.0157898, 0.185155, -0.0403674, -0.068268, 0.0722323, -0.0376469, 0.0208459, 0.119943, 0.0315425, -0.0954122, 0.205961, -0.0519792, 0.0881329, 0.0568039, 0.0164783, 0.00145231, 0.0826178, 0.175809, -0.0462026, 0.113493, 0.0411257, 0.0868068, 0.0755936, 0.0338259, 0.0267788, -0.0309663, -0.140241, -0.0217701, 0.0980167, -0.307322, 0.0181827, 0.0312036, -0.019458, -0.0711204, -0.0693659, 0.0773586, -0.0212576, -0.0161197, -0.0478151, 0.076421, -0.0172661, -0.0473885, 0.0487724, -0.111931, 0.133115, 0.0762786, 0.0708195, -0.00175602, -0.0345105, 0.0628239, -0.258215, 0.0745538, -0.04053, -0.175452, -0.113807, 0.0728564, 0.0211914, -0.0375468, 0.170509, 0.11637, 0.00113723, 0.0297976, 0.124871, 0.2095, 0.073368, 0.213174, 0.0165353, 0.0549974, 0.0357675, 0.0819493, 0.116273, 0.160098, -0.00499758, -0.02112, 0.0555495, 0.173881, 0.0209831, -0.070825, 0.119542, 0.168857, 0.00743613, 0.0684211, -0.191906, 0.0562569, 0.0921561, -0.154299, 0.0864654, -0.0302605, 0.0882357, -0.0902931, -0.0948326, 0.00551412, -0.133833, -0.272276, -0.0495868, 0.0158038, 0.0354118, -0.152025, 0.0898532, -0.154469, -0.137154, 0.0480387, 0.0127816, 0.0962604, -0.00656426, -0.0903625, 0.0692193, -0.104955, 0.106106, 0.0449217, -0.00183359, 0.117075, -0.0290226, -0.0628621, 0.0539353, -0.0455019, -0.0900251, -0.0777484, -0.0796843, -0.189058, -0.0342443, -0.139962, -0.0502871, 0.161013, -0.0445181, -0.0590231, 0.0376904, 0.278438, 0.174679, -0.0785445, 0.0792496, -0.0868297, -0.0719832, 0.0676976, 0.0389952, -0.0428235, 0.04163, 0.0334548, 0.231475, 0.111922, 0.0177497, 0.0713835, 0.0552324, 0.0772108, -0.0111262, 0.202227, -0.00074699, 0.0169023, 0.0146783, 0.0953921, -0.199884, 0.0554388, -0.000142835, -0.0778864, 0.0961188, 0.252056, -0.0287561, 0.134176, 0.046104, 0.00294265, 0.147459, 0.140396, -0.0159724, 0.0386585, -0.0655378, -0.0615578, -0.214937, 0.226672, -0.0345435, 0.0260726, -0.0686697, -0.0618583, -0.0750496, 0.0451889, 0.102266, 0.0244085, 0.0635403, 0.0904921, -0.168606, 0.0227523, -0.0136574, -0.314274, -0.0522755, -0.120196, -0.0790467, -0.0946004, -0.119937, 
  -0.0385799, -0.0413912, 0.0108135, 0.0279198, -0.0127696, -0.000480566, -0.051075, -0.0318099, 0.0352396, 0.0674419, 0.0474992, -0.0591026, 0.027675, 0.00704177, 0.00192198, 0.0161888, 0.00422783, -0.0762877, 0.0548724, -0.0656382, -0.050683, -0.0489253, 0.0576864, -0.0334017, -0.00685133, -0.0625248, 0.0303406, 0.0012006, 0.0472034, 0.0475518, 0.0391279, -0.00201148, 0.0245155, -0.0706936, -0.0665174, 0.052667, -0.00286485, 0.0351883, -0.00451874, 0.0629569, 0.020111, -0.0651214, 0.0519082, -0.0215999, -0.0527376, -0.00384922, 0.0725526, 0.0540612, 0.0339759, 0.0319243, -0.0129447, -0.0376564, -0.0751421, -0.0274402, -0.0584885, -0.0222797, 0.0638992, -0.0167996, -0.0463936, -0.0210685, -0.00292036, 0.0479238, 0.00603419, 0.0141126, -0.0782581, -0.0165731, 0.0153287, -0.0319106, -0.0548334, -0.0225307, 0.0167932, 0.0433592, -0.0679125, -0.0138301, -0.0655855, -0.0282907, -0.0851218, -0.0715756, 0.00339034, -0.0340572, -0.0376987, -0.0423733, -0.00569065, -0.0509782, -0.0408389, -0.0867728, -0.0680994, 0.0108817, -0.00766731, 0.00600866, -0.0638179, -0.0637313, -0.0632308, 0.036356, -0.0249801, 0.00820427, -0.0512575, -0.00155149, 0.0719549, -0.0935376, -0.0328875, 0.00399419, 0.0537397, -0.0447407, -0.0202536, 0.0217174, -0.0453773, 0.00937422, -0.0301705, -0.0196937, 0.00669278, 0.0380242, -0.0638459, -0.0700081, 0.0505426, -0.0131046, -0.0328607, -0.0432457, -0.0595653, 0.0713395, -0.0595182, -0.0173355, -0.0071958, 0.00107936, -0.0833296, -0.0567186, -0.0527869, 0.00266947, -0.0170618, 0.0713875, -0.0622694, -0.0139635, -0.0388924, -0.0920468, 0.0361522, -0.0122478, 0.0583019, -0.0598365, -0.0469001, 0.044501, -0.0056648, -0.0709928, 0.0385602, 0.0316839, 0.0149627, -0.00624753, -0.0224328, -0.0351387, 0.00558897, -0.0859457, 0.00787496, 0.0232021, -0.0553909, 0.029039, 0.0195955, 0.00316687, -0.0152195, 0.0440994, 0.0442998, -0.0664911, 0.0232817, -0.0792199, -0.038644, 0.0369747, -0.053046, -0.0578088, 4.94986e-05, -0.0535349, 0.0121659, 0.0381509, 0.0496548, 0.0109447, 0.0421459, -0.0654956, -0.0499404, 0.0353915, -0.00274216, -0.0671322, 0.0218333, 0.0338426, -0.0649705, -0.0134109, -0.0894284, 0.0139158, 0.00321893, 0.00417877, -0.0450252, -0.0411815, -0.0109049, 0.0211086, 0.0303332, -0.0781603, 0.0301486, -0.0437594, -0.0557861, 0.0601224, -0.00298985, 0.0380195, -0.0285034, -0.0370979, -0.0724909, 0.0305863, -0.0126505, -0.00923909, -0.0782166, -0.0223679, -0.0398748, -0.0763325, 0.0684381, 0.0042322, 0.0425984, 0.00537982, -0.010073, 0.00239339, -0.0644746, -0.0122534, -0.00946469, 0.0478162, -0.0603066, 0.0174749, -0.0494441, -0.000691132, -0.0372607, 0.00877625, -0.0706629, -0.071723, -0.0403203, -0.0687338, 0.0424614, -0.0640523, 0.00918678, -0.007121, 0.0191658, -0.0236225, 0.038058, -0.0462597, -0.0213023, -0.0558403, -0.0215763, -0.0156372, -0.0924289, 0.0174329, 0.053004, -0.0582967, -0.0736988, 0.0147914, 0.00108548, 0.0224315, 0.0217233, -0.0459465, -0.0378859, 0.0534138, 0.0174499, -0.0352487, -0.0539102, -0.0464324, 0.0153502, -0.0389854, 0.0731044, 0.0497314, 0.0733499, -0.0173959, -0.0516661, 0.0551056, -0.0706829, -0.0373041, -0.0335499, -0.0638695, -0.0516698, 0.0396774, -0.0376843, -0.000244084, -0.0578024, 0.0373993, -0.038284, -0.0387583, -0.0528425, -0.0488163, -0.0183564, -0.0585349, -0.0287869, -0.0347628, 0.0457982, -0.0366043, -0.0346839, 0.0558759, -0.0689801, -0.0160901, -0.0771488, 0.0305274, -0.0500502, 0.00438608, -0.0702881, 0.0200931, 0.0464801, 0.0682044, -0.0478608, 0.0188116, -0.0589349, 0.0125293, 0.0457406, 0.0308359, -0.0272921, -0.0717026, -0.0581441, 0.0219786, 0.0179124, -0.0149487, -0.0361158, -0.0692121, 0.0342105, -0.0600519, 0.0679675, -0.0445944, -0.0964901, -0.0317588, -0.0392535, -0.053373, -0.0748266, -0.0111296, -0.0890956, 0.0525052, 0.010839, 0.0316582, 0.0238412, -0.0970413, 0.0457053, -0.048703, -0.0382709, -0.0660345, -0.0883594, 4.16708e-05, -0.0837791, 0.059267, 0.0311742, -0.0343238, -0.0122827, 0.0453108, 0.0724755, -0.0178388, -0.00426931, -0.0813585, -0.0534791, 0.0181591, -0.024822, -0.0815539, -0.0622216, -0.0183414, -0.0113964, 0.0215511, -0.0706757, -0.00921229, 0.00750444, 0.0041634, 0.0562875, -0.0248042, -0.00400085, -0.0783264, 0.0095311, -0.0455837, 0.0382776, -0.0404848, 0.0710519, -0.0311267, 0.036021, -0.0504107, -0.0492715, -0.0280975, -0.0303365, 0.0124403, -0.00444499, -0.0575035, 0.0139065, 0.00168683, -0.00550937, -0.0184701, 0.0437895, 0.0506062, -0.0464437, -0.0457513, -0.0764308, -0.0141466, 0.000576589, 0.00044166, -0.035728, 0.00491446, -0.0393802, 0.0146513, -0.0676017, -0.0387027, 0.0334895, 0.0410165, 0.0311029, -0.0470277, -0.00407609, 0.0365536, -0.0580128, -0.011987, -0.0152081, -0.0119567, -0.0376005, -0.016984, 0.0180926, -0.0973811, -0.0230186, -0.0064149, 0.0600515, 0.0227036, 0.0126808, 0.0350956, 0.0274241, -0.0517812, -0.0497208, -0.0109005, -0.0372321, -0.0181567, 0.0449479, -0.0685169, 0.0153476, -0.0827837, -0.0561127, -0.0267694, 0.042399, 0.0364414, 0.070637, -0.024087, -0.0749748, -0.0682496, -0.0235642, 0.0489819, 0.0667541, 0.0227088, -0.00217865, 0.0509498, -0.0294827, 0.0145434, -0.0900922, 0.0387972, -0.0982919, 0.0418072, -0.0344241, -0.0604147, 0.0203065, -0.0470953, 0.0169049, -0.0508085, -0.030839, -0.061197, -0.089253, 0.032779, 0.030593, -0.0819079, -0.042044, 0.0195436, 0.0293919, -0.0532877, 0.00136826, -0.0476199, -0.00880869, -0.0780149, 0.0531019, 0.0565758, 0.0609339, 0.0369735, 0.000101525, -0.0728029, 0.0181207, 0.00711589, -0.0495385, -0.00592575, -0.00387124, -0.0808697, 0.0302071, -0.0273848, -0.0230443, 0.0618671, 0.00570218, -0.0666232, 0.025843, -0.0403901, -0.023288, -0.0327209, 0.0104075, -0.0329897, -0.0486273, -0.00906504, -0.076793, 0.0489668, 0.0388467, -0.0792541, -0.0598924, 0.0396859, 0.00561604, -0.00850351, -0.0606659, 0.0349901, 0.00367414, 0.0218644, -0.0382486, -0.0712392, 0.00959637, -0.0400858, 0.0442061, -0.0718365, -0.0632287, 0.0415606, 0.0363676, -0.0733676, -0.0230214, -0.0702821, -0.0294155, -0.00859179, -0.00664436, -0.00508701, 0.0296209, 0.0143591, 0.0365847, -0.0284643, 0.0292168, 0.0316344, -0.0275627, 0.000360884, -0.0180824, -0.0873244, 0.00986045, 0.0458777, -0.0264242, 0.0683437, -0.015012, -0.0777874, 0.0252455, -0.0815203, 0.0214281, -0.0207711, -0.0106723, -0.0649739, 0.0299424, -0.0511899, -0.0309203, 0.0315988, -0.0450754, 0.0320762, -0.0306577, 0.033648, -0.0879927, 0.0303271, 0.0554784, 0.0600631, -0.0432257, -0.0356041, -0.000420295, 0.067442, 0.0666209, -0.0485397, -0.0401641, 0.0412912, -0.0703466, -0.0687841, 0.0095531, -0.0654378, 0.00447653, 0.0501488, -0.0212294, -0.0460893, 0.0392688, 0.070403, 0.0180478, -0.0688975, -0.0474855, -0.0769592, -0.0377115, 0.0479966, -0.054825, -0.0686099, -0.034433, -0.061667, -0.0516957, 0.0120432, -0.0184421, -0.0665825, -0.0486142, -0.0352233, 0.0183208, 0.056941, 0.0270338, -0.0235129, -0.0591343, 0.025192, 0.0427218, 0.0570599, 0.0435005, -0.0396926, -0.0462492, 0.0301907, 0.0678064, 0.0103237, -0.0685706, -0.0758381, -0.0280162, -0.0402944, -0.0313641, -0.0898957, 0.0319617, 0.04523, 0.0159557, 0.0421759, -0.0212601, -0.0448106, -0.00633037, -0.0168535, -0.010664, -0.0583572, 0.00616669, 0.0477651, -0.0214829, -0.000894383, 0.0655954, 0.0358274, 0.0198139, -0.0607393, -0.0530417, -0.037545, 0.0232787, 0.0233943, -0.0394044, 0.00620559, 0.0551044, -0.0323274, -0.0237494, -0.0271846, -0.0667736, -0.0637751, -0.00584495, 0.0788267, 0.00291883, -0.0570822, -0.00667909, -0.0328536, -0.0536123, 0.0156806, 0.0274255, -0.0320436, -0.0081021, -0.0679155, -0.015361, -0.0172738, -0.0792381, 0.0084656, -0.0333097, -0.0654578, -0.0679999, -0.0352747, -0.00206687, -0.0273425, 0.0518095, -0.0666506, -0.00915585, 0.0173211, 0.0372246, -0.0637542, -0.0403893, -0.0229354, -0.0470486, -0.0476572, -0.0872825, -0.00154382, 0.0103783, -0.0289839, -0.0657913, 0.00290325, -0.00761519, -0.093348, -0.073862, 0.0280388, -0.0186304, 0.00855023, 0.00244493, -0.0329167, -0.0643726, -0.0599068, 0.0119671, 0.0435588, -0.0435754, -0.0469261, 0.0661997, 0.0564201, -0.0407154, 0.0137354, 0.0272528, -0.0500074, -0.0486636, -0.0781297, -0.0520598, -0.0154501, -0.0569193, 0.0309605, 0.0430659, 0.0409698, 0.0355264, -0.0768322, -0.070914, -0.0388667, -0.0240631, -0.0522702, -0.0616539, -0.042549, -0.0321186, -0.000556606, 0.0512101, -0.0622963, -0.0407004, -0.0351971, 0.0505804, -0.0456046, -0.0144473, 0.0730143, 0.0302161, 0.0198677, 0.0282326, -0.0431334, 0.0266119, -0.0802905, -0.0233746, -0.0149391, 0.0272224, 0.039107, 0.0312781, -0.0545935, -0.00366267, 0.0303207, -0.0141745, -0.0200872, 0.0274128, 0.0471354, 0.0263316, 0.0363086, -0.0460173, 0.0629544, 0.0532079, 0.0319764, -0.0612107, 0.0208406, 0.0130179, -0.0443025, 0.0639148, 0.00775578, -0.0332476, -0.0429989, -0.0423004, -0.0585949, 0.0344291, 0.0445448, -0.0307562, 0.0246265, 0.0108481, -0.0767259, -0.00668891, 0.0238189, 0.0232431, -0.0547969, 0.067115, 0.0342261, 0.0417994, -0.0666751, 0.0586093, -0.0441753, 0.000932488, 0.0390768, 0.0233495, 0.0590558, -0.00361075, 0.0605508, -0.00857132, -0.0228692, -0.00888028, -0.0376461, 0.0154093, 0.00701118, -0.0429009, -0.0346251, 0.0253957, -0.0205555, -0.0916988, 0.0131841, 0.0587447, -0.00807259, 0.01302, -0.0654098, -0.0596731, 0.00552386, -0.0453412, -0.0106854, -0.0352376, -0.0198576, -0.0283245, 0.0175907, 0.0307495, 0.0179057, -0.0798621, 0.0204192, 0.0251933, -0.0345749, -0.0573198, 0.0487407, 0.0108391, -0.0442701, 0.0176804, 0.0246446, 0.0209691, -0.0657954, 0.0504421, -0.0147088, 0.0360803, 0.0458431, -0.0567287, 0.0330695, -0.0312022, -0.0252775, 0.0366847, -0.0741918, -0.0733817, -0.0249443, -0.066288, -0.0699015, 0.0145879, -0.0170444, 0.0118124, 0.0531796, 0.0351172, 0.0336931, -0.00188944, -0.0865077, 0.0233535, -0.0192, -0.0635817, -0.0612452, 0.00666161, 0.0349407, 0.0768539, 0.0152454, 0.00144354, -0.00196299, -0.0704342, 0.0195439, -0.00799548, 0.057726, -0.0710847, -0.0664128, 0.0754641, -0.0451617, -0.0621828, 0.0100708, 0.0358496, -0.0327649, -0.0401774, -0.000165807, -0.0849279, 0.049772, 0.0576772, 0.0257071, 0.00193878, 0.0411251, -0.00202469, -0.0600348, -0.0287546, -0.015108, -0.0717739, 0.0530249, 0.0690757, 0.0374625, 0.0442457, 0.0360053, 0.0449159, 0.0291605, 0.071961, -0.0112935, 0.0584074, 0.0302453, -0.0454245, 0.0446109, -0.0738502, 0.0373689, 0.0119518, -0.0452505, 0.00623741, 0.0653678, -0.0494881, -0.0636169, 0.073208, -0.0482599, -0.084222, -0.000563501, -0.000872402, -0.0107621, 0.0119044, -0.0392235, -0.082574, -0.0455191, 0.0582409, 0.03109, 0.0239875, 0.0336706, -0.0582871, -0.0459503, 0.00548901, 0.00793658, -0.014025, 0.046886, -0.0027475, -0.0699824, 0.0155139, 0.00470011, 0.0728752, -0.0551077, 0.00455419, 0.0124013, -0.0417663, -0.0106382, -0.0062576, 0.000843898, -0.044981, -0.087552, -0.0132595, -0.0513384, 0.0522059, 0.06107, 0.0197082, -0.021992, -0.0712044, -0.0114868, -0.0679975, 0.0559418, -0.0392067, 0.0490981, 0.0618198, -0.0729854, 0.00392803, -0.0135663, 0.0385902, -0.0382112, 0.0441958, -0.0571461, 0.0264601, 0.0482042, -0.00382203, 0.0587529, -0.00693938, -0.0423216, -0.0509277, -0.0350025, -0.0563372, 0.0471034, -0.0616863, 0.01274, -0.0180815, -0.000770419, 0.0314328, 0.0401142, 0.0350797, 0.00629893, -0.060486, 0.0101314, -0.0664387, 0.0418329, 0.0295547, -0.00611352, -0.0327592, -0.0224126, -0.00834649, -0.0521562, 0.0627093, 0.00241268, 0.0420821, 0.0428114, 0.0329303, -0.0167558, -0.0342021, -0.0973039, -0.0536494, 0.0300046, 0.0360275, -0.0847278, -0.0627381, -0.026494, -0.0382679, 0.0342456, -0.0175019, 0.01987, -0.0230256, -0.0275199, -0.0090448, -0.00863685, -0.0860776, 0.0600934, 0.0649742, -0.0383221, 0.0189815, 0.00656643, 0.0417306, 0.0158749, 0.0374638, -0.062996, 0.0626911, -0.00773436, 0.0297479, 0.00966913, 0.0413208, -0.0138579, 0.00920861, -0.0334032, -0.027494, -0.0358509, 0.022883, 0.00475725, -0.000650951, -0.0609554, 0.0264677, 0.017273, -0.00957384, -0.0615347, 0.0281941, -0.0685798, 0.0463409, -0.0858778, 
  -0.0692989, 0.0119981, -0.0778226, -0.035003, -0.0778046, 0.0167703, -0.0565114, 0.0437483, -0.0135886, -0.012358, -0.0191456, -0.0214388, -0.0638288, -0.00779046, -0.0529551, -0.0372271, 0.0533716, -0.00968144, 0.0633241, -0.0454129, 0.00529893, 0.0459667, -0.0535702, -0.0577901, -0.0194839, -0.0316731, -0.0524862, -0.0927468, 0.0204701, 0.0371104, 0.0127701, -0.0746702, -0.0268332, -0.0422301, -0.0233831, 0.064233, 0.0723803, -0.0553068, 0.0778944, -0.0643647, 0.034122, -0.0255959, -0.0541591, -0.0967921, -0.0271503, 0.0011865, -0.0653803, 0.0239996, -0.0689914, -0.0272816, -0.0652779, -0.0542491, 0.00760418, 0.0653979, 0.0638249, -0.00575885, -0.072058, -0.0203889, -0.028921, -0.0818254, 0.00258232, 0.0306062, -0.0459006, 0.00228621, -0.0893114, 0.00490797, 0.0612159, 0.0167907, 0.00293858, -0.0321915, 0.04243, -0.0644863, 0.0655729, -0.0104474, 0.0506046, -0.0270592, -0.0172819, 0.0449656, -0.0662008, -0.0663025, -0.0490301, -0.0866731, -0.0645606, -0.0521632, -0.0373398, -0.0245046, -0.0474457, 0.0225119, -0.0581883, -0.073879, 0.0606169, -0.0186646, 0.00460791, 0.051371, -0.054263, -0.065715, -0.0322923, 0.0329036, 0.0173581, -0.0228423, 0.0355479, -0.0535498, -0.0664709, 0.0255474, -0.0511003, 0.0120176, 0.0425457, -0.0288332, 0.0647475, -0.0583389, 0.025103, -0.0629167, -0.00509625, 0.00292263, -0.010273, 0.0177348, -0.00288019, 0.0287413, -0.0329095, 0.0415994, 0.0628952, 0.0525906, -0.026005, 0.0119931, 0.00397955, -0.0201938, 0.00161412, -0.044872, -0.00341615, -0.0654021, 0.0245995, 0.0529608, 0.0189881, -0.0948996, -0.0174112, -0.0423106, 0.0141373, -0.0346216, 0.00897416, -0.0157026, 0.0157218, 0.0372789, -0.0579076, -0.00474526, -0.00551744, 0.00537879, -0.00959586, -0.0250117, -0.0169361, -0.0731449, -0.0153393, 0.00736934, 0.0567365, -0.0640686, -0.0100676, 0.0176366, -0.083613, -0.00494596, -0.0291739, 0.00929239, -0.00241333, -0.0471095, -0.0511657, -0.0399924, -0.0126258, -0.00985588, 0.0120255, 0.0716303, -0.00490965, 0.0126479, 0.0608863, 0.0424049, 0.00247326, -0.02077, -0.0431699, -0.0431509, -0.0240519, 0.0704137, -0.0305141, 0.0208673, -0.0543992, 0.00727748, -0.0198712, -0.0410819, 0.0343822, 0.0415801, -0.0361753, -0.0651724, -0.0295908, 0.0151028, -0.0493457, 0.0112899, 0.0128826, 0.0592703, 0.0569769, 0.035704, 0.0787369, 0.0181451, 0.060374, 0.0701995, -0.0358729, 0.0385019, 0.0654444, -0.010214, -0.0222967, 0.0385138, 0.0303669, -0.0407544, 0.0519385, -0.050962, 0.0406791, 0.0238452, 0.0432619, -0.0540922, -0.0593428, 0.0622873, -0.0307597, -0.0704662, -0.0556129, -0.0498949, -0.00288201, -0.0203544, 0.0234031, -0.067792, -0.082649, 0.0599038, -0.00779552, -0.0333757, 0.0211374, -0.00621931, 0.0553033, 0.0559221, 0.0278918, 0.0636252, 0.0666636, -0.0321938, 0.0201066, -0.00034423, 0.0482648, 0.0407999, 0.0062224, 0.0699402, -0.00807435, -0.0849017, -0.0228793, 0.0156063, -0.0344221, 0.0139172, -0.0358828, -0.0741187, 0.0240946, 0.0725878, 0.0124858, 0.00609543, 0.0408109, -0.0464702, 0.0333122, 0.00868234, 0.00681956, 0.00679424, -0.00323014, 0.0343602, -0.0552395, -0.0468255, 0.0480496, 0.049879, -0.00469802, -0.0584154, 0.0168443, 0.0506518, -0.0584378, 0.00290609, -0.0381234, -0.10071, 0.0599312, -0.0969319, -0.0128499, -0.0959176, -0.00321612, 0.0140788, 0.0694945, -0.0619835, 0.0249921, -0.0471661, 0.0603376, 0.0364833, -0.0606857, -0.0052597, 0.0557105, 0.00636556, -0.0693986, -0.0157257, -0.0223543, 0.0523688, -0.0720725, 0.0257015, -0.0573955, 0.00378255, 0.0598476, -0.0106443, -0.0320116, -0.0361161, -0.0565345, 0.0131597, -0.0545987, 0.0293638, -0.0638924, -0.0684876, -0.0743149, 0.00732867, 0.00278731, -0.0136102, 0.0237627, 0.00757081, -0.0221164, -0.0024173, 0.0072452, 0.000146482, 0.0651809, -0.0333893, -0.092341, 0.0691166, -0.0673227, -0.103655, 0.0147833, 0.0269004, -0.057058, 0.0432558, 0.0410676, 0.0534086, 0.0575722, -0.00850554, -0.025101, 0.0364354, 0.00274836, -0.0707857, 0.0631878, 0.0116938, -0.0059452, -0.0116679, 0.0680798, -0.0663587, 0.0024111, -0.0698328, 0.0823677, -0.0711508, -0.0506181, 0.0326215, -0.0321397, -0.0532298, 0.0464807, -0.0160124, -0.0582019, -0.0298437, -0.046308, 0.0552745, -0.0114063, 0.0250236, -0.0607494, -0.00532325, -0.0102161, -0.0052907, 0.0215252, 0.0338661, -0.0400269, 0.0626319, 0.0400334, 0.0436726, -0.0639987, 0.0767831, -0.0641346, 0.00907055, -0.031257, -0.0410685, -0.0856082, 0.0520999, -0.00754192, 0.0217514, -0.008518, 0.0762074, -0.0983782, -0.04914, -0.0698562, 0.0113036, -0.0858401, 0.0128561, 0.0386355, -0.0713498, -0.00831277, -0.0655509, 0.0447684, 0.0460799, 0.00686962, 0.0623337, -0.0244687, -0.00346614, 0.0783523, -0.0017642, -0.068218, -0.00702594, -0.00637082, -0.116895, -0.0438955, 0.0193255, -0.0107655, -0.0294521, -0.0440018, 0.0417475, 0.0382589, 0.0149006, -0.0423258, 0.0207764, 0.0484066, 0.0731792, 0.0605462, -0.0502714, -0.0853174, 0.0457198, -0.00465585, 0.0485811, 0.0105257, -0.0387963, -0.0140271, -0.0578091, -0.0231557, -0.0118012, 0.0510656, -0.046304, -0.0409851, -0.0465675, -0.00739296, -0.00523956, -0.0486919, 0.00320339, 0.0239873, -0.0145589, -0.0268446, -0.0334045, -0.0660798, -0.00218854, -0.0705689, -0.0228445, -0.0483657, -0.0581513, -0.0164938, -0.0349201, 0.02842, 0.0527756, 0.0318629, -0.028531, 0.0520142, -0.0665901, -0.00498161, -0.0934735, 0.0135694, -0.0496712, -0.00598814, -0.0133064, -0.0238509, -0.0458116, 0.00168512, -0.0686462, 0.0169204, 0.00544952, 0.0658613, 0.0164103, 0.0387761, -0.0590683, 0.023543, -0.0382282, -0.0860114, 0.021606, -0.0391346, 0.022172, 0.0466219, -0.0631402, 0.00629876, -0.0141837, 0.0543646, 0.0184251, -0.0442677, -0.0445812, 0.0522689, 0.0646031, -0.0136676, -0.0350579, 0.0179876, -0.0644407, 0.0425109, -0.0443443, 0.0111897, -0.0915813, -0.0165625, -0.127644, -0.0156724, -0.0299485, -0.0367318, -0.0132522, -0.00854725, -0.0796712, 0.00115504, -0.0541272, 0.0507546, 0.0544502, 0.0284758, 0.0541555, 0.0139884, 0.0368994, -0.0388623, -0.00677041, -0.0303516, 0.0475311, -0.023954, 0.0105433, -0.0205525, -0.0152296, 0.0595212, -0.0125256, -0.00627148, -0.0673097, 0.036759, -0.0633917, -0.0761575, -0.0596015, 0.0317697, 0.000181781, -0.0386779, -0.0384529, 0.0609907, -0.0294348, 0.0439003, -0.0840813, 0.0774496, 0.014408, -0.030343, -0.0368962, -0.0859361, -0.020839, -0.0266619, 0.0362064, -0.0695785, 0.0221016, 0.0580604, 0.030884, 0.0353029, -0.00311399, 0.0359936, -0.0398988, -0.0419838, -0.00744926, 0.0112771, -0.0222997, -0.0487589, -0.0221333, -0.0610098, 0.00581866, 0.0252891, 0.0269462, -0.0433827, -0.0506268, 0.0119941, -0.00587915, -0.00664936, -0.0539968, -0.00443283, -0.00840608, 0.00257555, -0.06597, 0.0331099, 0.0630402, 0.0421486, -0.0118013, -0.0141575, 0.00181033, -0.0279407, -0.0486059, -0.00415832, 0.0550835, 0.0575195, 0.000839567, 0.00930564, -0.048053, 0.062618, -0.00794576, -0.0229693, -0.0405856, -0.075318, -0.0694539, 0.00162841, -0.0385007, 0.0369946, -0.0688918, -0.0327754, -0.0680369, 0.0488008, -0.0516498, -0.0260294, 0.00731349, -0.134378, -0.064656, 0.0317462, -0.00974252, -0.014294, 0.0280214, 0.00177032, -0.0500769, 0.0383376, -0.0683442, -0.0675648, -0.0146269, 0.0423403, -0.0763117, -0.0429394, -0.0615336, -0.0492413, 0.0562263, 0.0696671, 0.0171736, 0.0201652, -0.0186174, -0.0198064, -0.0517951, -0.0709386, -0.0704464, -0.065364, -0.00850281, -0.0709396, -0.0291384, -0.0766217, -0.0448686, 0.0285832, 0.00960763, 0.0431591, -0.0310263, -0.0239298, 0.00153145, -0.111473, -0.0158967, -0.0351137, 0.00916663, -0.031882, -0.0234051, -0.0291332, -0.0740714, 0.00231468, 0.0195347, -0.0533141, -0.0314724, 0.0479199, 0.0542274, 0.0507443, -0.0837643, 0.0672252, 0.0408079, -0.0802477, 0.0167622, 0.0310624, -0.01674, -0.00478487, 0.0209365, -0.0288422, -0.0660049, -0.0544513, 0.0510356, -0.0650518, -0.00987464, 0.0580661, -0.0337563, -0.00978263, -0.0097795, -0.0390244, 0.0366124, -0.0203804, 0.0759731, 0.0157235, -0.0652701, -0.0599757, -0.0466244, 0.00300843, -0.046347, -0.0111746, -0.0128613, -0.00677145, -0.0720539, 0.0602663, -0.0258923, -0.0318717, -0.00594058, -0.0255193, 0.0259995, -0.0551918, -0.053398, -0.0485559, 0.00131888, -0.00115517, -0.0670948, 0.0461132, 0.0757301, -0.0563605, -0.0262134, -0.0973637, -0.0725391, -0.0649366, 0.0328496, 0.0126858, 0.0531812, -0.0674652, 0.000243084, 0.0210476, 0.0260746, 0.00119444, -0.0419817, -0.0480707, 0.0121829, 0.0220478, -0.0189999, 0.0354809, 0.0319045, -0.00618557, -0.0385874, -0.0610323, -0.036798, -0.00411241, -0.000364372, -0.0113842, -0.00848541, -0.120314, 0.0328502, 0.00440739, 0.00973988, 0.0550031, -0.0187114, -0.0235195, -0.0488112, -0.0438181, 0.011548, -0.0975586, 0.0977668, -0.0464689, 0.0420649, -0.0263789, -0.0285505, 0.0217535, 0.00842576, 0.00270969, 0.0427393, -0.021462, -0.0521571, 0.0267392, 0.0704872, 0.0182126, 0.00207676, -0.00894177, 0.0295903, -0.0449583, -0.0177112, -0.061614, -0.0452887, 0.0169688, 0.0670381, -0.0696952, 0.0490377, 0.053829, -0.0284672, 0.0184283, -0.000527696, -0.062818, 0.0631953, 0.0155882, 0.0459813, -0.0204735, -0.0845145, -0.00852447, -0.000845784, -0.0933937, -0.000595847, 0.0342166, -0.0228362, -0.0424294, -0.0112918, 0.0593205, -0.0322335, -0.0337035, 0.0176266, 0.0537068, 0.011938, -0.028884, -0.0808374, -0.0630872, -0.0419177, -0.102369, 0.040848, -0.0818272, -0.0130284, 0.0440707, -0.025593, 0.0625731, -0.0507927, -0.0265476, 0.0292059, 0.0391426, -0.0588161, 0.0127215, 0.0117887, 0.0115644, -0.0341352, 0.0378487, -0.0426215, 0.0261291, 0.00683222, 0.0111877, -0.0222206, 0.00474315, 0.0175607, -0.0253497, -0.0288259, -0.0353546, -0.0294606, 0.0412489, -0.0205762, -0.0637072, -0.0637369, 0.0488384, -0.0736399, -0.0458263, 0.0326836, 0.0181934, -0.0811359, 0.0242963, -0.00456991, 0.0130067, -0.0408544, 0.0348611, -0.0515307, 0.00156075, -0.0737251, -0.0364705, -0.0224205, -0.0032345, 0.0146249, 0.0663729, 0.0257138, -0.00214405, 0.000513036, -0.0214467, -0.06064, 0.0209039, -0.00507513, 0.0763486, -0.00104657, -0.0201307, -0.0675112, -0.048993, 0.0308355, -0.0361466, -0.0138388, -0.0643442, -0.0915264, -0.040439, 0.00662805, 0.0807352, 0.0430881, -0.0649442, -0.0641517, -0.0292258, 0.00659835, 0.00518572, -0.0841331, -0.0300689, -0.0414171, -0.0238058, 0.0167883, 0.0327215, -0.0162988, 0.059632, -0.0608647, -0.0107309, -0.00834139, 0.00262316, -0.0477152, 0.0489413, 0.0443564, 0.0383853, -0.0178873, -0.0627111, 0.0631037, -0.0560935, -0.0680652, -0.0309419, -0.0196648, -0.0176555, 0.0202392, -0.103984, -0.0529633, -0.0440561, -0.0616457, -0.0572075, 0.0400676, 0.0206255, -0.0439982, -0.0541376, 0.0448372, -0.0714859, 0.00360364, -0.0154896, -0.0093947, -0.0630023, -0.0941332, 0.0222523, -0.0579277, -0.0960637, 0.0337578, -0.0707734, -0.076055, 0.0138754, -0.0878723, 0.0631785, 0.00605522, -0.0890961, -0.0298601, -0.07313, -0.0258341, -0.0436855, -0.00582829, 0.0193816, -0.00161504, -0.0656579, -0.00450712, -0.0494548, -0.0065168, 0.000194244, -0.0470214, -0.0459932, -0.0395081, 0.00542294, 0.0588478, 0.031302, 0.0111503, -0.0578331, -0.0820079, 0.0018723, -0.000855624, -0.00109978, 0.0197045, -0.0492236, -0.0570712, -0.0531836, 0.00547978, -0.0256767, -0.0133697, -0.0381839, -0.0680516, 0.0103011, 0.0483346, 0.0611048, 0.0666108, -0.0225436, -0.0581078, 0.015671, -0.0261613, -0.0809912, 0.0691844, -0.0257991, -0.0483392, -0.0370987, -0.00993923, -0.0117127, 0.039126, 0.0558341, 0.0321323, 0.0275366, -0.0302183, -0.0247944, 0.006854, -0.0961966, -0.076468, -0.0751908, 0.0539749, -0.0725597, 0.020638, 0.0466169, -0.095169, -0.0978348, -0.054672, 0.0356704, -0.0741817, 0.0291673, 0.0356152, 0.04161, -0.0727562, 0.01973, 0.0714029, -0.0336998, 0.0816084, 0.0238462, -0.00368253, -0.00765864, 0.0436248, -0.0590197, -0.0500742, -0.0155579, 0.0269548, 0.0459263, 0.0394195, 0.0333989, -0.0860684, -0.0710272, 0.0491812, 0.039836, 0.0140387, 0.0244604, 0.050347, -0.0158036, 0.0730883, -0.0664235, 0.0154673, -0.0525654, -0.059156, -0.0809414, -0.0113473, -0.0440801, -0.0259059, -0.0770313, 0.0659591, 
  0.00238581, -0.0274038, -0.016476, -0.000559361, -0.00751524, 0.0686149, -0.0165073, -0.0649129, -0.0701737, 0.0202711, 0.0117985, -0.0188117, 0.0135824, -0.0419962, 0.0709439, -0.0752627, 0.00142115, 0.0420873, -0.045559, -0.0447889, 0.00500523, -0.0442899, -0.15257, -0.0723522, 0.0526833, -0.0683383, -0.0180975, 0.0954334, -0.0610537, -0.0378453, -0.0642593, -0.0447494, -0.0268529, -0.0408414, 0.0588628, -0.105429, 0.040462, -0.096605, 0.0387659, 0.0330622, 0.00632703, -0.0356885, -0.0637218, -0.0165464, -0.0746607, 0.05456, 0.0104377, -0.0718436, 0.0176639, -0.0512705, -0.0241829, 0.0103169, 0.0431751, 0.00542647, 0.0494181, 0.069132, 0.028808, 0.0734944, -0.0833932, -0.0284623, 0.0459863, -0.0653881, 0.0659514, 0.0337054, -0.0153674, -0.0587882, -0.0202229, -0.0954382, 0.0661051, 0.0288816, -0.10316, -0.0150896, 0.00324902, -0.0234676, 0.0692175, -0.0275146, 0.0100694, 0.0488355, 0.0592738, -0.126431, -0.044978, 0.0454703, -0.00300241, 0.0073827, 0.0699601, -0.0737863, -0.0375185, 0.0603273, 0.0284007, -0.0332295, 0.00124264, 0.0235453, -0.0622355, -0.057122, -0.0290706, -0.00861983, 0.00501375, 0.00891583, 0.0955888, -0.0869441, 0.0466125, 0.0468326, -0.0678509, 0.0227424, -0.00123635, 0.0673149, -0.0447194, -0.0193479, -0.110747, 0.0422613, -0.0432154, 0.0577869, 0.000490235, 0.0200529, -0.0262953, -0.00336036, -0.026141, -0.0291311, 0.0268896, -0.0382638, -0.0434964, -0.0414999, -0.0276773, -0.0579062, 0.0587503, -0.0473042, 0.0530375, -0.0568453, 0.0551617, -0.0181271, 0.0034002, -0.0577626, 0.0517237, -0.00342867, -0.00241401, 0.0463772, 0.0126701, 0.0130477, 0.00606856, -0.014858, -0.0225123, 0.0231733, 0.00101034, -0.0612084, 0.00221857, -0.0375845, -0.0116772, 0.0231788, -0.0721565, -0.0477967, -0.0919973, -0.0892982, -0.00208188, 0.0431527, -0.0548896, -0.0582085, -0.064733, -0.0578919, -0.0613623, -0.0487884, -0.0551583, -0.0391544, 0.0762997, 0.0161524, 0.0344016, -0.0392446, 0.0769734, 0.00234193, 0.0840758, -0.0261089, 0.00728228, 0.071692, -0.0897808, 0.05841, 0.0580205, -0.00229509, -0.0860824, -0.00952349, 0.061506, 0.0419629, -0.0290068, 0.0732478, -0.0585953, 0.0224762, -0.0227792, -0.0171295, 0.003868, -0.0202096, 0.101228, 0.0546518, -0.0730771, -0.0432743, 0.0355277, -0.0181869, -0.0630958, 0.00338114, -0.00395301, 0.0653555, -0.00173063, -0.0634387, -0.0265985, -0.0229354, 0.042807, -0.0595784, -0.10548, -0.0512113, 0.130893, -0.0251934, -0.0258601, 0.00911049, 0.0301506, -0.0556381, 0.000937119, -0.0409141, -0.0878844, -0.0583047, -0.0540843, 0.00315058, -0.0130531, -0.0401593, -0.00795771, -0.010724, -0.0524581, -0.0755447, -0.102637, -0.0359934, -0.0243865, -0.0926969, -0.0415918, -0.0443991, -0.0176447, -0.0617577, 0.0141007, -0.0339029, -0.0197766, -0.0564466, -0.0603744, 0.0662633, 0.0589623, -0.0191229, -0.0491156, 0.0372485, 0.0556009, -0.113586, -0.061261, -0.0120913, -0.0796615, -0.0247439, 0.00997758, -0.0508263, -0.0762186, -0.0060447, 0.047454, -0.0608757, 0.0623513, -0.0223312, 0.0155729, -0.000928588, 0.0245082, 0.0165774, -0.00478689, -0.0185707, -0.0898428, -0.0365745, -0.066728, 0.0250066, 0.0427506, -0.0385516, -0.0830698, 0.0540245, 0.0519612, -0.0634929, -0.0226905, -0.0504532, -0.0411121, -0.042711, 0.0292386, 0.0216917, 0.0254112, 0.03758, -0.0209252, 0.000352887, 0.074678, -0.0377184, -0.0875308, 0.0652956, -0.00324138, 0.0211478, -0.0322168, -0.0727386, -0.0110696, -0.0217042, 0.0310719, -0.0351071, -0.0664231, 0.0727805, -0.0752441, 0.0261114, -0.0392158, -0.0336734, -0.0609532, 0.0260527, 0.0159308, 0.00610951, 0.0519411, -0.0707922, 0.00580066, -0.0846261, 0.00430802, -0.0346476, -0.0418183, -0.0517355, -0.049667, 0.0654173, -0.0661953, -0.0251702, -0.0799285, -0.0475657, 0.0473905, 0.0134037, -0.092247, -0.0112405, 0.0596317, 0.0236915, -0.0595526, -0.0839586, -0.0130565, 0.0748291, 0.0376, -0.0579143, 0.041471, -0.0355369, -0.0152233, -0.0831753, -0.0867159, -0.110518, -0.0820517, -0.081229, 0.0741253, -0.119722, -0.0755622, 0.0321438, 0.0123517, 0.013337, 0.0344596, 0.0219195, -0.0470768, -0.0105905, -0.0363342, 0.047259, -0.0252892, -0.082994, -0.101811, -0.0246842, -0.0704093, -0.0982723, -0.0255141, -0.0762488, -0.0951143, -0.036709, -0.0330651, -0.03343, 0.0179566, -0.0412234, -0.0698089, -0.0309063, 0.0200841, 0.0295467, -0.0847487, -0.0383255, -0.00703416, 0.0458109, -0.021929, -0.0643728, 0.0688242, 0.0694144, 0.0712698, 0.0268461, -0.00590193, -0.0457891, -0.059694, 0.0351576, -0.0641641, -0.0134479, -0.0372051, -0.0386311, 0.0195351, -0.00420267, -0.0261789, -0.000519455, -0.00129407, -0.0428161, 0.038507, 0.0149879, 0.0194214, -0.0436124, 0.0352371, -0.112169, -0.0893617, -0.0206604, -0.0586833, -0.070661, -0.0312142, 0.0516766, 0.009982, 0.0187719, -0.0736368, 0.0393586, 0.0242666, -0.0470079, -0.0399393, 0.0162008, -0.0104207, 0.0452006, -0.0634725, -0.104807, -0.015842, -0.0314994, -0.062599, -0.0137652, 0.043635, -0.0878408, 0.0118021, 0.00695796, 0.020554, 0.022705, 0.0164142, -0.0928407, -0.0356529, 0.0628512, 0.0212707, -0.0360064, -0.0745369, -0.0422895, -0.0514169, 0.00983329, -0.0555842, -0.0398353, -0.0356312, -0.0621178, 0.0426407, 0.0114651, -0.0703193, -0.0748477, -0.0699762, -0.0789708, -0.0618936, -0.0152952, -0.028003, 0.0339825, 0.0294068, 0.00214338, 0.00557031, -0.0277808, -0.0738088, 0.0642918, -0.0740254, -0.0596806, -0.0337834, -0.0989146, -0.0828296, -0.104053, 0.00564076, -0.048995, -0.0937866, 0.00410105, -0.0483744, -0.0023796, -0.000617173, 0.00989589, -0.0195753, -0.0431274, 0.103586, -0.0973744, -0.111101, -0.0571791, -0.0122307, 0.0348039, 0.0196067, -0.0287359, -0.0638243, -0.0114131, -0.0699252, -0.0573898, -0.00864092, -0.0410404, 0.0403827, 0.0165899, -0.101592, -0.0143387, -0.0551927, -0.0478003, 0.0271638, 0.0428434, -0.00423155, -0.0384035, -0.0615788, -0.00711157, -0.0451799, -0.020824, -0.0340838, 0.0109124, -0.0235885, -0.00392003, -0.0362781, -0.0312272, -0.0589532, -0.0277339, 0.0312114, 0.00348026, 0.0493057, -0.0156134, 0.0427266, 0.0512425, -0.0360837, -0.00837429, 0.0338468, -0.0802558, -0.0150887, -0.0020881, 0.0235948, 0.0331169, -0.0164512, -0.0470853, -0.0307253, 0.0261341, -0.0223286, -0.0822924, -0.0423076, 0.025749, -0.0220932, 0.0249291, 0.00166214, -0.0580941, 0.00658506, 0.0549257, 0.0105981, -0.107541, 0.0168162, 0.0152826, -0.0254009, -0.0377213, -0.00218194, -0.0128955, -0.00217092, -0.046377, -0.0634511, -0.067838, -0.0605946, 0.00116731, -0.0160267, -0.0166364, -0.050126, -0.0277004, -0.0737145, -0.0394558, 0.0158504, -0.0365716, 0.0195487, 0.0509102, 0.0278696, 0.0103504, -0.0652467, 0.00328332, -0.0150968, -0.0708422, -0.0531013, 0.0380235, -0.0529404, -0.0146523, -0.0665084, -0.0582748, -0.0141713, 0.0215833, -0.0345158, -0.0224687, -0.0669893, 0.00771218, -0.0356288, 0.0129816, -0.034882, -0.0438371, -0.0579201, -0.0723647, 0.0140061, -0.051284, 0.00225409, -0.0461423, -0.0130258, -0.049801, 0.0542587, -0.0900264, 0.00372853, -0.0985624, -0.0516001, -0.0840734, -0.0366782, 0.00617622, 0.040515, 0.0486832, -0.107108, -0.0658099, -0.0781333, -0.0331019, 0.0257693, -0.0442495, -0.0445082, -0.109362, 0.0225806, 0.047766, 0.0482644, -0.0309019, -0.0419626, -0.0275037, -0.039556, 0.00261072, 0.0336163, 0.00690123, 0.0245408, -0.0155328, 0.051988, 0.0907258, 0.0170801, 0.0271303, -0.0960817, 0.00746044, -0.0542513, -0.0886112, 0.00143893, 0.0290663, 0.0287582, 0.0464556, 0.00574724, 0.00791685, -0.0168764, -0.086259, -0.0495142, -0.0456144, -0.0465828, -0.0320847, -0.021092, -0.0438159, 0.0534377, -0.00283212, 0.0464987, -0.113648, -0.0668681, -0.0179306, -0.065325, 0.0423509, -0.0189731, -0.0213934, 0.0145486, -0.102236, -0.0855746, -0.0626072, 0.00228133, -0.11116, 0.00760462, -0.0163614, -0.0667368, 0.0216101, -0.0933393, -0.0192701, -0.0113593, -0.0476671, -0.0654233, 0.0187725, 0.0413873, 0.0611385, -0.0796714, -0.0187714, 0.00547758, -0.00989355, 0.0579282, -0.105367, 0.00388812, 0.0181321, -0.000773951, 0.0620105, 0.0328, 0.0114023, 0.0124791, -0.0607365, 0.019113, 0.0609228, -0.00532741, 0.00790362, 0.00691661, 0.0627057, -0.0659959, -0.0827575, -0.0495437, -0.0517837, -0.0817688, 0.0291995, 0.0378488, 0.0580741, -0.0324509, -0.101349, 0.0697214, 0.0600791, 0.00253232, 0.0454987, 0.0230594, -0.0261202, 0.0192602, -0.0711526, 0.000476526, -0.098931, -0.121092, 0.0483527, 0.0613433, -0.00182591, -0.0219893, 0.0393651, -0.0951923, -0.0697037, -0.0877319, -0.0178155, 0.087565, -0.0104547, -0.00179106, -0.0228874, -0.0966295, -0.0363279, -0.0907839, -0.0340466, -0.00107197, 0.0326477, -0.0576387, -0.0572267, 0.00175082, 0.0341812, -0.0947149, -0.104813, -0.0956307, 0.0542547, -0.0300436, -0.131248, -0.0325405, -0.0290919, 0.0651589, 0.0086209, -0.028341, 0.00204369, -0.0129267, -0.0278972, 0.0224188, -0.0258908, 0.0471428, 0.0219885, 0.010493, -0.0669198, -0.0501862, 0.0352398, 0.0275735, 0.0179414, -0.0677572, 0.0700442, -0.0127669, 0.0510928, -0.0303655, -0.12979, -0.0242781, -0.0333043, -0.00754953, 0.0370201, -0.0110993, 0.0697159, -0.0037529, 0.00466736, 0.0161155, -0.0147262, 0.0134758, 0.028233, 0.0165725, 0.0400815, -0.0362109, -0.00559554, -0.0556081, 0.0356702, -0.0916877, -0.0714249, -0.0117624, -0.124528, -0.0197472, 0.0260488, -0.0407394, -0.0597034, -0.0119248, -0.0736724, -0.0376459, -0.0200014, -0.0852294, 0.0633949, -0.0786066, -0.0573184, 0.0569002, -0.038353, -0.0316069, 0.0430697, -0.000547446, 0.0292536, 0.0488816, -0.085269, -0.037638, 0.0447156, -0.0645514, -0.0450245, 0.0538236, -0.0695249, -0.0994267, 0.0730463, -0.0642417, -0.0716305, 0.0555353, -0.0281531, 0.0479332, -0.030003, -0.11677, -0.0612647, -0.0810817, -0.0185958, -0.0531205, 0.0572114, 0.012973, -0.00632812, -0.0596998, 0.0235174, -0.0721587, -0.0529805, -0.0389302, 0.0210742, 0.0305018, 0.0253201, 0.0145523, -0.0655548, -0.0456526, 0.00720227, 0.00675234, -0.0690778, -0.000120309, 0.0146336, 0.036047, -0.00530504, -0.0760795, -0.0746005, 0.0355206, -0.103728, -0.041264, 0.00897105, -0.0258223, -0.0353136, -0.0372441, -0.0524416, -0.0372551, -0.0495696, -0.0867481, 0.036855, 0.00661871, 0.00709493, -0.076424, -0.103224, -0.0139346, 0.0220281, -0.0101956, -0.100635, -0.0157851, 0.0313801, 0.0541035, -0.0703652, -0.0500473, -0.00662014, -0.0230222, -0.00254331, -0.106588, -0.0199406, 0.0511354, 0.0324643, -0.0208581, 0.00106378, 0.0324489, 0.0197138, -0.0397862, 0.0151173, -0.0124467, -0.0457253, -0.0638701, -0.0346009, 0.0189836, 0.0541675, -0.0780221, 0.0140563, 0.0512679, 0.059009, -0.0459347, -0.0538584, -0.0539052, -0.0289488, -0.0260557, -0.0442186, -0.0577255, 0.0327839, -0.0714618, 0.0612791, 0.0329373, -0.0622651, 0.00180529, -0.0369993, -0.0188946, -0.032698, -0.0299513, -0.0771879, -0.0569232, -0.0572214, 0.0458067, -0.0368455, -0.0488133, -0.0146115, -0.0845665, 0.0323576, -0.0393468, 0.0219928, -0.0791285, 0.0419754, -0.0146725, -0.12207, 0.0155513, 0.0377819, 0.0691273, -0.100208, 0.022828, -0.000947688, 0.0241126, -0.00491166, 0.0115759, -0.0127042, 0.0195567, -0.113494, -0.0646371, 0.0177079, 0.00416476, -0.0406275, 0.0182177, 0.021521, -0.0158797, 0.0525519, -0.068623, -0.0202874, -0.0641784, 0.0142451, -0.0122709, -0.0641098, -0.00462745, -0.053484, 0.0148426, -0.0539091, -0.00506772, 0.0386381, -0.0486445, -0.0463613, -0.0593612, -0.0707969, 0.0431487, -0.0317877, -0.0204408, -0.0585553, -0.0458521, 0.0682183, -0.0243089, -0.0924244, -0.0337242, -0.0353572, -0.0691774, -0.0118278, -0.0301355, -0.0333503, -0.00328313, -0.0586211, -0.0865241, -0.0905221, 0.0413616, -0.00723606, -0.0403684, -0.0233078, -0.00856839, -0.103691, 0.00479615, 0.00312896, -0.0209746, -0.117776, -0.0970051, -0.0771177, -0.0205307, -0.0930957, 0.067703, -0.000477397, 0.0737891, 0.0553623, -0.0432012, -0.0465073, -0.0142286, 0.00504188, -0.028687, 0.0205508, 0.0720414, -0.0270514, 0.016509, -0.0476736, 0.0376879, 0.0126714, -0.105824, -0.0623924, 0.0616079, -0.063849, -0.00786236, 0.0401465, -0.082882, 0.0094099, -0.0389967, 0.00313858, 0.0284887, -0.0336815, 
  -0.169321, -0.0432667, 0.0375576, -0.131895, -0.334675, -0.184803, 0.0286426, -0.0238805, -0.0492108, 0.00606132, -0.0530696, -0.00893578, 0.150797, 0.15115, 0.196553, -0.17016, 0.383454, -0.0925507, 0.0717805, -0.213092, -0.0932469, 0.0302648, -0.0487971, -0.0887256, -0.192325, -0.0414615, 0.217215, -0.0735535, -0.0424095, 0.0660602, -0.0159109, 0.178045, 0.194412, -0.163416, 0.0557652, -0.154744, -0.0196487, 0.164845, -0.00150731, -0.0187325, -0.191701, 0.236953, -0.0430184, 0.0462949, -0.130288, -0.119495, -0.0262316, -0.0471761, -0.0489775, 0.0556768, 0.0147835, -0.204274, -0.0819057, -0.0601896, -0.0313332, -0.142744, -0.042128, -0.0229681, 0.113585, 0.0429522, 0.0139477, 0.0822975, 0.0541225, 0.00481334, -0.249626, 0.0598879, 0.0589536, 0.0735855, -0.0539326, -0.0591508, 0.17637, -0.013792, 0.0700951, -0.0369792, -0.244969, -0.00280133, 0.0830191, 0.167147, -0.0507632, -0.0590746, -0.150808, -0.0785087, 0.0699138, -0.0500252, -0.0654097, 0.0579469, 0.0734362, 0.14651, -0.198261, -0.0399341, -0.0418619, -0.102611, 0.170767, -0.0384054, -0.223731, -0.030939, 0.0252683, 0.100695, 0.055124, 0.151685, 0.0573411, -0.115113, -0.253989, 0.0375835, 0.0467221, 0.0567436, -0.0106655, 0.0235665, -0.101063, -0.0276054, -0.0524874, 0.0535642, -0.131632, 0.174604, -0.0123734, 0.146171, -0.118465, -0.00921729, 0.066099, -0.0270841, 0.0591684, -0.0123559, 0.108653, -0.005873, -0.105057, 0.0690824, 0.101082, -0.108641, -0.205671, -0.0377593, -0.030481, 0.235995, -0.345627, -0.131022, 0.128085, -0.0173252, 0.00332215, -0.0425801, -0.274246, 0.11829, -0.0951202, 0.262349, -0.108707, -0.00424829, -0.0683439, 0.090331, -0.0282134, -0.0751614, 0.0060125, -0.0302306, 0.0929233, -0.0416983, -0.238777, -0.209519, 0.118189, 0.181916, 0.0890925, 0.069163, -0.020535, 0.167743, -0.104636, 0.207819, -0.0427694, -0.0106184, -0.0732975, -0.264688, 0.1707, -0.0288487, 0.112597, -0.251036, 0.0298457, 0.0335597, -0.0886274, -0.107646, -0.0609018, 0.0772209, -0.0946206, 0.207286, 0.0466195, 0.0854298, 0.0382, -0.0879703, -0.101672, -0.134863, -0.029256, -0.0358613, 0.0994563, -0.29131, 0.0832362, -0.0257101, -0.0685592, -0.203998, 0.112657, 0.0138749, 0.0257848, -0.0150019, -0.124974, -0.223965, -0.0776742, -0.0103142, -0.0657251, -0.0687754, -0.258423, 0.0934142, -0.246039, 0.204403, 0.0487153, -0.200205, -0.078533, 0.0156661, -0.0151796, -0.31297, 0.107214, -0.0940203, 0.109462, -0.15503, -0.099713, -0.29186, 0.0990762, 0.197338, 0.0058985, -0.0679837, -0.0518199, 0.0806141, 0.168948, -0.0233943, 0.144858, 0.0407599, -0.0187217, -0.0788499, 0.0502496, 0.0420149, -0.0990454, -0.139148, 0.0222895, -0.00440976, 0.0406388, -0.197987, -0.0332882, -0.0582976, -0.111917, -0.0969498, -0.0225564, 0.0800067, -0.150701, -0.0740064, 0.287547, -0.189379, -0.0106056, -0.0684698, 0.0173797, -0.444128, -0.157688, -0.0346435, 0.0236341, -0.373915, -0.0830979, 0.0377443, 0.0721441, -0.0820977, -0.119005, -0.125847, 0.177237, -0.0116856, -0.0610901, -0.0019811, 0.119727, -0.19436, 0.0923765, -0.00780537, 0.249996, -0.0597367, -0.215145, -0.0301816, -0.0335464, -0.117536, 0.0520769, 0.146634, 0.180078, 0.0975241, -0.0542212, -0.0338548, 0.0777404, -0.0697882, -0.193089, 0.0769906, 0.144175, -0.0489522, 0.103844, 0.00626403, 0.119168, -0.0488026, -0.0499065, -0.0726909, -0.159394, 0.0115414, 0.0442978, -0.107711, -0.00912499, -0.0230183, -0.209399, -0.0340041, 0.0194542, 0.0554173, -0.130018, 0.259808, 0.0424829, 0.0242386, -0.244704, 0.0133197, -0.267921, -0.278196, 0.0663631, -0.0793947, 0.269005, 0.0374112, 0.0650728, -0.035444, -0.0117065, -0.183409, 0.0777962, 0.0276015, -0.00137255, -0.150749, -0.0829101, 0.020598, -0.0860377, 0.0587706, -0.0425205, -0.0328091, -0.120112, -0.0278802, 0.130984, 0.267343, -0.133515, 0.0403741, -0.320012, 0.0718626, -0.0411297, -0.213725, -0.198261, -0.0097866, -0.00695156, 0.0126973, 0.158467, -0.147311, 0.0075165, -0.217619, 0.0493184, -0.044997, 0.194554, 0.114579, 0.0665977, -0.179207, -0.0480196, -0.133679, -0.077308, -0.00425638, -0.118145, 0.0433748, -0.0591029, 0.14919, 0.0446324, 0.244718, -0.0294253, -0.0864184, -0.045605, -0.0251319, 0.255675, -0.0436104, 0.00623783, -8.74415e-05, -0.43634, 0.062219, -0.350664, 0.0212405, -0.054295, 0.00861048, 0.148705, 0.0521256, 0.150425, 0.0250088, -0.0022674, 0.111281, -0.022617, -0.0265313, -0.0650085, -0.0322247, 0.0819464, -0.0838331, -0.101877, 0.0457101, -0.0449052, -0.0585494, -0.101707, -0.0340387, 0.0964368, 0.0522527, 0.0211854, 0.034103, -0.286331, 0.00748086, 0.0146458, -0.13884, -0.186621, -0.00485236, 0.0452904, -0.0210621, 0.145391, -0.0699542, -0.159792, -0.102566, 0.208362, -0.0659803, -0.0407525, -0.0797631, -0.0252384, -0.204182, -0.144608, -0.158303, -0.0391533, -0.195343, -0.11693, -0.0456034, -0.0918231, -0.134686, -0.0268818, -0.0330958, -0.155402, -0.0150544, 0.0584494, 0.00812848, -0.0220882, 0.262729, 0.0307838, -0.033042, -0.0959144, 0.0467056, -0.345182, -0.0597041, 0.0181919, -0.0222592, -0.145047, -0.261724, 0.0745599, -0.0551233, 0.0628949, 0.0245171, 0.0239095, 0.0473583, 0.0210552, -0.309984, -0.393355, -0.136193, -0.210161, -0.012091, -0.022786, 0.0699643, 0.00537697, -0.0363791, -0.425729, -0.0616019, 0.108324, -0.0867912, 0.0346772, 0.0785985, 0.0263477, -0.177253, 0.0276129, 0.00402653, 0.112406, -0.424853, 0.0138766, -0.0576437, -0.0617805, -0.00916678, 0.262802, 0.0390338, 0.00543751, -0.0127964, -0.0871572, -0.109796, 0.0649659, -0.0803194, 0.00730839, -0.222499, -0.170001, 0.041444, 0.199208, -0.174461, 0.0587649, -0.0538578, -0.126619, 0.0776467, 0.0257537, -0.0525629, 0.0200983, 0.108797, -0.035063, -0.010288, 0.0193751, -0.0426377, -0.185188, -0.0653807, -0.0674729, 0.0114771, -0.118532, -0.142256, 0.0618306, -0.0616452, 0.00129445, -0.0787961, -0.288318, -0.00410751, -0.0180585, 0.0981951, -0.166573, 0.145585, 0.22602, -0.0496425, 0.050358, 0.0782003, 0.071493, -0.257158, 0.0949214, -0.352601, 0.118997, -0.0435591, -0.0569425, 0.0388932, 0.0474836, 0.219722, 0.23068, -0.15167, 0.191335, -0.112772, 0.297173, 0.209846, -0.00636302, -0.285824, -0.0807352, 0.00882427, 0.0139888, 0.224375, -0.0495283, -0.0295867, -0.00527946, -0.120833, -0.0347489, 0.177316, -0.0273714, -0.0631652, 0.424704, -0.0631247, -0.0515389, 0.0663993, -0.122955, 0.152278, 0.0623326, 0.0575088, 0.176835, 0.0450145, 0.071027, 0.045494, 0.00414645, 0.0450033, 0.10976, -0.115033, -0.0491727, -0.0616928, 0.184225, -0.511674, -0.0534347, 0.0310091, 0.0356071, -0.130931, -0.159024, -0.0426963, -0.0639375, -0.0437303, -0.255654, 0.356766, -0.0154453, 0.0110532, 0.0516749, -0.037948, -0.125546, -0.0143019, -0.211259, 0.0954282, 0.0148489, -0.0920472, -0.0841002, -0.0705487, 0.0114917, 0.0898944, 0.00599952, 0.186897, 0.0516943, -0.346265, 0.295186, -0.0705388, -0.034437, -0.0910263, 0.146786, -0.00532398, 0.109864, 0.0691501, -0.116466, 0.120558, -0.117617, -0.441481, -0.0022195, 0.0080771, -0.0121833, 0.0570629, 0.117453, 0.0661415, -0.0780212, 0.107159, -0.0694122, 0.0393912, 0.0364777, -0.0632867, 0.0646461, -0.224539, -0.000289363, 0.114619, -0.335355, -0.0575779, -0.0757166, -0.165787, 0.0102553, -0.0385494, -0.0161231, -0.00750935, -0.00709307, 0.0630082, 0.0770672, 0.212514, -0.277705, -0.0174191, 0.0720122, -0.0777115, 0.404497, 0.0488832, 0.118367, 0.0535297, 0.00345924, -0.000822256, -0.309162, -0.0430838, -0.0104332, 0.0254131, -0.162337, -0.0593874, 0.0133319, -0.1315, 0.0616088, -0.0112713, -0.13528, 0.0240722, 0.0593525, -0.353361, 0.161848, 0.0400893, -0.169896, 0.114075, 0.167682, 0.0529617, 0.0756958, -0.432895, -0.175331, 0.250921, -0.0541301, 0.0175662, -0.0649654, -0.124682, 0.100999, 0.0245074, -0.0378618, -0.229976, -0.0255338, -0.0895127, -0.0154923, -0.274422, -0.030239, 0.0546735, -0.0225937, 0.102128, -0.0113549, -0.0262931, -0.15924, -0.0193469, 0.0918806, 0.117394, -0.0705677, -0.0468723, 0.0863862, -0.0293259, -0.0453858, -0.0406952, 0.041225, 0.144007, -0.0561102, -0.0679876, 0.0762382, -0.0225994, -0.0327485, 0.078853, -0.0871142, 0.0703014, -0.0554259, 0.00364784, 0.00165839, -0.224097, -0.122244, 0.0554305, 0.0615053, -0.0498991, 0.316333, -0.137064, -0.0162117, 0.00261694, 0.101482, 0.0934003, 0.181319, -0.246174, 0.147394, 0.00383605, -0.116255, -0.185577, -0.0113155, 0.0542305, 0.125281, -0.059297, -0.203886, 0.199876, 0.134026, -0.179056, -0.0195689, -0.0826093, -0.0173526, 0.0739516, 0.217895, -0.151991, -0.0583647, -0.222619, -0.00500302, -0.380073, -0.055258, -0.0470158, -0.0805275, 0.192001, 0.021105, -0.0841632, 0.0965534, -0.0678918, -0.0680537, 0.193986, -0.0269918, 0.022412, -0.04511, 0.0455263, 0.038557, 0.0388949, 0.0559019, 0.314253, 0.29311, 0.0277689, 0.0703782, 0.106636, -0.322976, 0.276987, 0.0258602, -0.0405864, 0.00455286, -0.0355989, -0.192266, 0.0251255, -0.0730981, -0.226287, 0.119513, 0.0903213, -0.0234339, 0.192615, -0.00940057, 0.256981, 0.160258, -0.141276, -0.0194118, -0.0569861, -0.0408456, 0.363058, -0.359957, -0.317877, -0.123307, 0.106266, 0.0526505, 0.381002, -0.173293, 0.197971, 0.0145137, 0.28231, -0.0636959, -0.267722, 0.165728, -0.0223665, -0.04063, 0.186104, 0.056162, 0.0270752, -0.204424, 0.0778605, -0.0101196, 0.0511064, 0.132064, -0.136173, 0.076079, 0.122566, 0.319608, -0.0700368, -0.0699873, -0.256023, 0.0234392, -2.53792e-05, -0.0868623, -0.0392155, -0.0948076, -0.02712, 0.0904533, -0.190946, 0.32571, -0.0328789, 0.0560136, 0.0730665, -0.0643546, 0.4256, -0.0569851, -0.0543133, 0.0274431, -0.0056317, -0.140899, 0.0650484, -0.329187, -0.0881571, 0.096517, 0.198462, -0.0171312, -0.143896, 0.0355497, 0.0232777, 0.0348556, 0.202099, 0.0904738, -0.0093494, -0.160244, -0.0264856, -0.136822, 0.130717, -0.167996, 0.0568349, 0.0426946, 0.449058, -0.156813, 0.395647, 0.216083, 0.113542, -0.0680038, -0.0267207, 0.0867766, 0.0496569, -0.149038, 0.0693342, -0.0285728, -0.0297185, 0.115153, -0.046941, 0.0360645, -0.00123317, -0.0212979, -0.217358, -0.01274, -0.0137068, -0.119912, -0.0566642, -0.165198, -0.295857, 0.0636441, 0.0394877, -0.121335, -0.0744644, -0.0352805, -0.0419412, 0.0883188, 0.178086, 0.126281, -0.0507417, 0.0213529, -0.118852, 0.233957, 0.25394, 0.0502981, 0.000299062, -0.0450173, -0.0114412, 0.0418994, 0.188833, 0.0315306, 0.0439887, -0.00173496, 0.230507, -0.00852278, -0.166766, 0.025484, 0.0637614, -0.00805161, -0.121997, 0.131567, 0.196051, -0.10425, 0.211635, 0.00405766, 0.20343, -0.136582, 0.0758248, -0.0927551, 0.0250439, 0.234661, -0.00859559, 0.0474203, 0.0254309, 0.0309889, 0.085801, -0.0731799, 0.0297363, 0.0128504, 0.00251949, 0.0235869, 0.0319569, 0.0961451, -0.102123, -0.00416393, 0.0424259, 0.0923242, -0.196052, 0.0793269, 0.0383002, 0.0461276, -0.036802, 0.0298415, -0.0821017, 0.00208125, -0.00907522, -0.187693, -0.0171869, -0.0961646, -0.00335452, 0.0273052, 0.267443, 0.159716, 0.000521153, 0.0830672, 0.171231, -0.0541107, 0.0116881, 0.0462608, 0.033833, -0.0357759, -0.0345477, 0.208262, 0.0573697, 0.0868399, -0.141147, -0.031634, 0.169021, -0.00797634, -0.0976499, 0.0432477, 0.146439, -0.0388505, -0.0421656, 0.162306, -0.00649022, 0.0384749, 0.272516, -0.211977, -0.10986, 0.0981047, 0.033134, -0.0533934, -0.042703, -0.0577663, 0.320487, 0.163591, -0.132053, -0.0593404, 0.425219, -0.0450098, 0.0107042, 0.13066, 0.0481311, 0.0332561, -0.107798, -0.00327377, 0.151038, -0.0476411, -0.0588064, 0.15907, 0.170777, -0.081265, -0.161597, 0.269043, -0.0321976, 0.436568, -0.0973179, 0.0473119, -0.0174663, -0.152311, 0.100432, 0.0368109, -0.0298653, 0.0785736, 0.00869549, 
  0.0357669, -0.0662576, -0.0123006, -0.0749091, 0.0225378, 0.0372375, -0.0812122, 0.0636919, -0.00327839, 0.0021744, 0.027898, -0.0277956, -0.000800165, -0.0315349, -0.04908, -0.044567, 0.0289475, -0.022638, -0.0218423, 0.0619378, -0.0441467, 0.026073, 0.0148436, 0.0312867, -0.0274657, -0.0792491, -0.073767, -0.109467, 0.029917, -0.0609453, -0.00222691, -0.0705533, -0.0280816, -0.0377386, -0.0444474, 0.0233516, 0.0249586, -0.0275639, -0.0625943, -0.0412231, -0.0420228, -0.001372, -0.0277808, -0.006456, -0.0858847, 0.0120376, -0.0401188, -0.0174011, -0.0805478, -0.0196519, -0.0162081, -0.025418, 0.0198907, -0.0509185, 0.00242086, 0.068178, -0.0698991, 0.0270519, 0.0330984, -0.0385259, 0.013846, -0.0314294, -0.0675521, 0.0068852, -0.0768381, -0.0669459, -0.06138, -0.0984591, 0.0311101, -0.0749001, -0.0853999, -0.0763445, 0.0641554, -0.021844, 0.0108144, -0.0312583, -0.00398795, -0.00153214, 0.0359474, -0.0626264, -0.0530118, -0.0883233, -0.0056373, -0.0792144, 0.0153739, 0.0315615, 0.012969, -0.050942, 0.041594, 0.0501968, 0.0471452, 0.0128448, 0.0490809, 0.00460104, -0.0230255, -4.50735e-05, -0.0479268, -0.0168289, -0.0181892, -0.0423485, -0.0608364, 0.00413168, -0.0473189, 0.0659894, 0.04476, 0.00211316, -0.051246, -0.0751283, -0.0457088, 0.047379, -0.0743694, -0.00223576, -0.0234865, 0.00868881, 0.0738189, -0.0103568, -0.058549, 0.00311679, -0.0328001, 0.0151272, 0.0526686, 0.0140563, -0.0154279, -0.031131, 0.021843, -0.0725405, 0.0269649, -0.0640571, -0.0063682, 0.044468, -0.069703, 0.035696, -0.0390321, -0.0670992, -0.0288213, 0.0638607, 0.0437463, -0.0747459, -0.0543136, 0.00528707, -0.0580193, -0.0327111, 0.00992281, 0.00370684, -0.0723112, -0.0455955, 0.0160928, 0.0248594, -0.00384917, -0.0406738, -0.0892699, 0.0330434, -0.055933, -0.108804, -0.0376685, 0.0200094, -0.0467154, -0.0560357, 0.0458041, -0.0147777, -0.0702147, -0.0398721, -0.0391228, -0.0524379, 0.0537806, -0.0070171, -0.0147713, -0.0579648, 0.00308961, -0.0542379, 0.0480725, 0.0033923, -0.0805939, -0.0203438, -0.0402214, -0.0677583, -0.082089, -0.00448711, -0.0400559, -0.0986801, -0.0478605, 0.0409829, 0.00146512, 0.0164276, 0.0224287, -0.0652103, -0.0403756, 0.0301684, -0.0144205, -0.0141578, -0.030245, 0.018203, -0.0926834, -0.0172321, 0.041113, -0.0912633, -0.0555339, -0.0177191, 0.0186489, 0.0196357, 0.0371245, 0.00359876, 0.00732095, -0.0650482, -0.0260427, -0.0571222, -0.0853546, 0.0106357, 0.0629044, -0.0750882, 0.0416976, -0.0959909, -0.0279501, 0.0293236, -0.0529577, -0.0142996, 0.0464808, -0.00552309, 0.0174166, -0.0154572, 0.00821896, 0.0272043, -0.0811578, 0.066066, -0.0357456, -0.00120997, -0.0313089, -0.0132031, -0.0529668, -0.062062, -0.065719, -0.0703533, 0.056962, -0.0610839, -0.0574898, -0.105287, -0.0529405, -0.105181, -0.0767267, 0.0579535, 0.0127309, -0.0255679, -0.0430063, 0.00455917, -0.0120704, 0.0295972, 0.0221381, -0.0604923, -0.0232402, 0.00402201, -0.0390987, -0.0710211, -0.07001, -0.0399592, -0.00880627, 0.0556375, -0.0164553, -0.0454353, 0.0683173, -0.0604259, 0.0608513, -0.0185708, -0.0883411, -0.0305378, -0.0495653, 0.0117754, -0.0406523, -0.00542418, -0.0355563, -0.0580475, -0.0100596, 0.00227538, 0.0638074, -0.00588287, -0.0321367, -0.0712189, -0.0492666, 0.00247779, -0.0834545, -0.0384178, -0.0612285, -0.0602171, 0.0400746, -0.0644371, -0.0658763, 0.0253805, 0.0260854, 0.0207274, 0.0287732, -0.0439104, -0.0110781, -0.0613659, 0.0156534, 0.0182158, 0.0253926, 0.0410885, -0.0679471, -0.0538433, 0.0249744, -0.062009, -0.111376, 0.0465042, -0.0624986, 0.0375083, 0.0310994, -0.0755833, 0.0211493, -0.0142492, -0.029422, -0.0280267, 0.012822, -0.0374105, -0.0557861, -0.052347, -0.0619251, 0.0268603, -0.0508886, 0.0514581, -0.0489346, -0.0432366, 0.0254306, -0.0529732, 0.0208667, 0.0431945, -0.0803106, 0.0121345, -0.0547816, 0.000795963, 0.030282, 0.0619471, -0.0622138, 0.0191736, 0.0240809, 0.0143584, -0.0401819, -0.020631, -0.0615638, -0.0253613, -0.0652147, 0.0580383, -0.0740161, -0.0076771, -0.0166339, -0.0100875, -0.0194764, 0.00420195, 0.0586795, 0.0193976, -0.0713334, -0.0099594, -0.0775156, 0.0505098, 0.0105637, 0.00342994, -0.039912, -0.0510019, -0.038401, 0.0305966, 0.0476182, 0.0385386, -0.00511838, 0.0256525, -0.0581706, 0.0518863, 0.000628271, -0.00493258, -0.0555745, -0.0779212, -0.0728472, -0.0774467, 0.0299374, -0.0408766, -0.0607143, -0.0664776, -0.0552047, 0.0178635, 0.00257117, -0.0649027, 0.0444474, -0.09418, 0.0435293, -0.0502056, -0.0366374, 0.0439448, 0.00816392, 0.0624107, -0.0117168, -0.0734102, 0.0268859, -0.0631054, 0.0350078, 0.0669048, -0.0262102, 0.0352185, -0.0523669, -0.0136604, 0.0154364, -0.039568, 0.0136746, -0.0790395, -0.0661907, -0.00582159, 0.00786678, -0.0460316, -0.0561098, -0.0438915, 0.0195255, -0.00163645, -0.0745647, -0.0810486, -0.0544346, 0.00917795, -0.0188757, -0.0350538, -0.0333831, 0.0564423, 0.0206972, 0.019442, -0.072221, -0.0614258, -0.013509, -0.00541821, 0.0566442, -0.0696094, -0.0159461, -0.090829, 0.0511295, -0.00412148, -0.0387451, -0.0644196, 0.04583, -0.00164471, 0.00903352, 0.0200139, 0.0344294, 0.00697604, 0.0152906, 0.0508983, -0.102633, 0.0370844, 0.0341846, -0.0165021, -0.0614789, -0.00211662, -0.0650584, -0.0374875, 0.0192828, -0.0412682, 0.00944629, -0.0041415, -0.031184, 0.05127, 0.0587392, -0.0723568, -0.0813433, -0.0649256, 0.0597158, -0.0268327, -0.0015197, 0.0254773, 0.0262424, -0.019617, -0.0827897, 0.00207327, 0.0252862, -0.0735577, 0.0340279, -0.0225601, 0.0143331, 0.0363912, 0.0123183, -0.0415804, 0.0286993, -0.101495, -0.0545496, -0.0543405, -0.0411902, -0.0297461, 0.0302153, -0.00289059, 0.0384586, 0.00447085, 0.043026, -0.014205, 0.0790801, -0.0253291, -0.0521126, 0.0685048, -0.0385861, 0.0346934, 0.0145826, 0.00999615, -0.0332482, -0.000976372, 0.0574844, -0.0775638, -0.0214546, -0.0316214, 0.0268474, -0.0899016, 0.00692122, -0.0162672, -0.10921, -0.0285997, 0.0683, 0.0493629, 0.0550957, -0.104915, -0.0466339, 0.0491266, -0.0215027, -0.0411234, -0.0778404, -0.0173489, -0.0666336, 0.00113222, 0.0621352, -0.00640554, 0.0230652, -0.0527399, -0.0791384, 0.0479531, 0.00984883, -0.0273027, -0.055594, -0.0831174, 0.0476089, 0.0509731, 0.0594261, 0.000524771, -0.016362, 0.0261161, 0.0473615, 0.003623, -0.0287573, -0.0633924, 0.00101283, 0.0114081, -0.0567315, -0.0174242, 0.0193122, -0.013694, -0.106102, -0.081027, 0.0103583, -0.080561, 0.0415094, -0.0469825, -0.0447221, -0.0232934, 0.068304, -0.0535323, 0.0666316, -0.0441681, 0.0741348, 0.0139095, -0.0112358, -0.0385091, -0.0170328, 0.0310716, -0.0548224, 0.0652851, -0.024798, 0.0442981, -0.0518461, -0.0699866, 0.0367881, -0.0158278, -0.00520089, 0.04925, -0.0669832, -0.0665852, -0.0526363, 0.0610776, -0.0519435, -0.0924497, -0.0399755, -0.0331481, -0.0233735, -0.0384293, -0.0285321, -0.0802609, -0.0440411, 0.000291007, -0.0433934, 0.0453673, -0.0001273, -0.069167, -0.0412979, -0.0272022, -0.00175875, -0.084391, -0.0276258, -0.046065, -0.0666364, -0.0274087, -0.0653396, -0.0665476, -0.0396622, -0.00350931, -0.0118765, 0.0555813, 0.0283036, 0.0197013, -0.0553303, 0.0336516, -0.0829845, -0.00304906, 0.0340577, 0.0661801, -0.00595825, 0.0663545, 0.0555438, 0.00956947, -0.0510828, 0.011692, 0.0383484, -0.0354091, -0.0541022, 0.026079, -0.0211286, -0.0262257, 0.00671247, 0.0640495, -0.0575884, -0.0317467, 0.00735296, 0.0155281, -0.00126434, -0.059354, 0.0318951, 0.01556, -0.0688344, -0.0483477, -0.0642565, -0.0665075, 0.0166959, 0.0611437, -0.0073811, 0.0165467, -0.0239335, 0.0563292, -0.0180542, -0.038764, 0.0212134, 0.0557177, -0.0767755, 0.000531368, 0.00515034, 0.0364519, -0.00626393, -0.0503258, 0.0244407, -0.0774719, -0.0457479, -0.0636345, 0.0287042, -0.115602, 0.0592003, -0.087049, 0.0107251, 0.0407749, -0.0778458, -0.0548184, -0.0553692, -0.0212279, -0.00890262, -0.0106078, -0.00443345, -0.0703989, -0.074813, -0.00589754, -0.0181047, -0.0594983, 0.00523586, -0.0645506, -0.0392942, -0.0891681, 0.0365894, 0.00961842, 0.0552034, -0.0487978, 0.0336346, -0.0574029, 0.0214705, -0.0534917, 0.0465297, -0.0503095, -0.0861124, -0.0654167, 0.0481311, 0.0320689, -0.0624117, -0.0218201, -0.067587, 0.0515853, 0.0386002, -0.0482339, 0.0247152, -0.0261397, -0.0275671, -0.0370673, -0.0204888, -0.0689315, 0.00130051, 0.0066333, 0.0347134, -0.0681472, -0.0375328, -0.0470721, -0.0532038, -0.0541455, 0.0680767, 0.00129139, -0.0505649, -0.0799527, 0.0292207, -0.0616445, -0.0933347, -0.0568737, -0.0156618, 0.00255572, 0.0024881, -0.0877088, -0.0042461, 0.0526876, -0.0564789, 0.0132148, -0.00060215, -0.0325146, 0.0366857, 0.0328734, -0.0368198, 0.0181643, -0.013824, -0.0102402, -0.0159537, -0.0142083, -0.0375005, -0.0295761, -0.0609211, -0.0844747, -0.0019703, -0.0714601, -0.0681091, -0.0657515, 0.0275078, 0.0181225, 0.017378, 0.0472811, 0.0506099, -0.0349135, -0.0320443, 0.035263, 0.0348001, 0.00232223, -0.0506546, -0.0526537, -0.0504451, -0.0410034, -0.0210461, -0.0503971, 0.0133939, 0.0261764, -0.0485861, 0.0689677, 0.0172468, 0.0570516, 0.0589659, 0.0542415, -0.0188085, -0.0487586, 0.0582092, -0.0377339, -0.0274739, -0.0594236, 0.00901505, 0.0400293, -0.0278523, -0.0627823, -0.0746986, -0.0132463, 0.0486082, 0.0095784, 0.0024036, 0.0140143, 0.0634985, 0.00220729, 0.067879, -0.0196453, 0.0448857, -0.0513034, 0.00567346, -0.0243608, 0.0196014, -0.0972092, 0.0123569, 0.0469686, -0.00626213, 0.0264034, 0.0132037, 0.0273751, 0.0623042, 0.0540283, -0.0412286, 0.0252108, 0.0570014, 0.0306507, 0.0480982, -0.0385248, -0.0258958, -0.000814949, 0.019096, -0.0492997, 0.000125439, -0.0551169, -0.065504, -0.0206716, 0.0546833, -0.0207106, -0.0511968, -0.0448983, 0.00371695, -0.00175294, -0.0276114, -0.0589737, 0.0257473, -0.0535766, 0.0394752, -0.0645979, -0.0480844, -0.0517781, -0.0651561, -0.0425032, 0.0588265, 0.0251427, 0.0163968, -0.0560693, -0.0439051, -0.00779405, -0.0498612, 0.0401069, -0.0747905, -0.00825272, 0.0320473, -0.0729952, -0.00409208, -0.0151066, -0.0425175, -0.0186, -0.0611576, 0.0559983, 0.0254938, -0.0136697, 0.00164468, 0.015026, -0.0452336, 0.0446372, -0.0657651, -0.0624546, -0.0299247, -0.0336253, -0.0529094, 0.0203124, -0.0411739, 0.0581203, -0.00969389, -0.0344138, -0.0393259, -0.0318959, 0.0439754, 0.00522827, -0.00236204, 0.0620027, -0.013331, 0.0538173, -0.0422921, -0.0510014, -0.056167, 0.0258092, -0.047998, 0.0337681, 0.0525985, -0.081767, -0.0480837, -0.0262389, 0.0516963, 0.00767646, -0.00768887, 0.0314807, -0.0508055, -0.0758223, -0.0687198, 0.0302516, 0.0174381, -0.0940004, -0.0818262, -0.0452233, 0.0480235, -0.00869731, 0.0684171, 0.0107654, 0.03041, -0.0491591, 0.025651, -0.0486865, -0.0609779, 0.0101093, 0.0249818, 0.0371466, -0.0882191, 0.0436561, -0.0258645, 0.0254796, 0.0159445, -0.00242346, 0.00623992, 0.018928, -0.0289469, -0.0205564, 0.0320519, -0.00792491, 0.00961101, 0.00427522, 0.0128448, -0.029198, 0.0140298, -0.00101287, -0.0305865, 0.00872092, 0.0687237, -0.00810872, -0.0321462, -0.0427379, -0.0353802, -0.00718827, -0.0715032, 0.012857, 0.0344953, -0.0533532, 0.0344141, -0.0211557, -0.0446181, -0.0540597, -0.0233493, -0.0490325, -0.0503093, -0.00105174, -0.0185074, 0.021433, -0.00770314, -0.0319753, 0.0242591, -0.0289836, -0.0321007, -0.0426684, -0.0153073, 0.0287736, 0.0547886, 0.0411168, -0.0645465, 0.0301728, 0.0672944, -0.0652103, -0.0764935, 0.00795372, -0.0727919, -0.0420219, 0.0542386, -0.0171754, -0.0956743, -0.105048, 0.0297347, -0.0668201, 0.030225, 0.0184314, 0.0199176, -0.0699604, -0.030516, -0.085084, -0.0473159, 0.0120686, -0.0229611, -0.0259357, -0.0465507, -0.0587237, 0.028361, -0.0642475, -0.0342644, -0.0375335, -0.0842823, -0.00252726, -0.0376982, 0.0614649, 0.0057832, -0.0414936, -0.0355737, -0.0391051, -0.0149703, 0.0282505, -0.0340455, -0.0384722, 0.0325288, -0.0110158, 0.0181913, 0.0743671, 0.0164809, 0.0580566, 0.0197669, -0.0673872, -0.0446208, 0.0157254, -0.0831744, 0.0484656, -0.0735275, 0.0627754, 0.0482098, 0.0294426, 0.0531901, -0.10916, 0.030184, 0.0641923, 0.0507857, 0.0429667, 
  0.067034, -0.00724304, 0.00526515, 0.280787, 0.0331334, 0.134454, -0.0180965, -0.0284992, 0.0756359, 0.0360891, -0.227176, -0.096965, 0.0416606, -0.38119, -0.0355545, -0.0901862, -0.0909276, 0.209315, -0.050935, 0.122876, -0.240446, -0.123713, -0.0051462, 0.08131, -0.219573, 0.094217, -0.0600329, -0.100275, -0.0848616, 0.00156714, -0.0272744, -0.18692, 0.162212, 0.215527, 0.134704, 0.044849, -0.0710716, 0.0461481, -0.267122, -0.0293729, -0.240883, -0.0729038, -0.0654141, 0.0732815, 0.0882277, -0.0339649, -0.0212132, 0.0261921, 0.0197133, -0.108884, 0.0465173, -0.0887985, -0.128909, 0.0348442, 0.139897, 0.0502581, 0.0154161, 0.0106266, -0.0169073, -0.247422, 0.0507805, -0.0231903, 0.100963, -0.0321587, -0.12057, 0.022576, -0.0907455, 0.0746138, -0.276397, -0.0120588, 0.137543, 0.0610287, 0.0653218, -0.0305556, -0.227315, -0.0869441, -0.00886315, -0.110025, 0.0894865, -0.00413451, -0.236222, 0.234981, 0.00121615, 0.0674716, -0.108787, 0.127001, -0.115851, -0.003776, 0.117401, 0.0371154, 0.0275356, 0.072727, -0.12167, -0.0542456, 0.0603753, -0.00181819, -0.0463802, 0.16948, 0.185134, 0.141074, -0.0123868, -0.277959, -0.222432, -0.00666773, -0.130841, -0.00394435, 0.0247217, -0.066812, -0.134079, -0.187253, -0.0445156, 0.0573657, -0.0392777, -0.198624, 0.00207954, 0.0630093, -0.107934, 0.01916, 0.0154366, 0.125372, -0.0488374, -0.030593, -0.0393276, -0.122459, 0.323049, 0.057701, 0.148314, -0.0885192, -0.0482112, -0.016232, -0.0600988, -0.00195151, 0.161307, 0.246796, 0.0834253, -0.0102915, 0.00902997, -0.0866284, 0.0601363, -0.00039029, 0.14916, 0.0329223, 0.0262389, -0.0990036, -0.242155, 0.0266667, 0.0498738, 0.113754, 0.0188062, -0.0470166, -0.113682, -0.123196, -0.10827, -0.011204, 0.18007, 0.086143, -0.112181, 0.016064, -0.0763186, 0.170601, -0.0625578, 0.0575889, 0.200585, 0.201085, 0.0615041, -0.0100473, -0.0285049, 0.0187265, -0.150849, -0.0771944, -0.0513322, 0.154603, -0.14109, -0.311329, 0.00832605, 0.0184195, 0.1265, 0.0574445, 0.014015, 0.0238351, -0.0718453, -0.0568275, -0.0879456, 0.425227, -0.00591513, 0.0193506, 0.0153911, 0.0270828, 0.143517, -0.014223, -0.00323337, -0.0229948, -0.0537876, 0.0101593, -0.0828884, 0.176541, -0.267908, 0.228073, 0.271559, 0.00526045, -0.0551957, 0.00149839, 0.082915, -0.0184417, 0.00504781, 0.0988927, -0.13055, -0.133398, -0.0174776, 0.143559, 0.0687551, 0.131748, -0.274413, -0.0661451, 0.0225664, -0.21692, -0.155045, -0.0142919, 0.0619336, 0.199878, -0.125941, 0.00672029, -0.00402306, 0.0519151, -0.0296733, -0.0415001, 0.112372, 0.214446, 1.83124e-05, -0.0678939, 0.204176, 0.0205914, -0.335744, -0.0818431, -0.0928884, 0.0106436, -0.207863, 0.0989035, -0.013594, -0.0140802, -0.094816, -0.0353489, -0.107793, 0.0288632, -0.283558, 0.00761186, -0.118585, 0.190761, 0.0538606, -0.060978, 0.0318279, 0.0283619, 0.253385, -0.0760895, 0.031762, 0.0973218, -0.0946719, -0.00874064, -0.0681524, -0.00921218, 0.191754, 0.136148, -0.0181198, -0.00310554, 0.0208131, -0.0179941, -0.199232, -0.094615, 0.134509, -0.286499, 0.0937323, -0.107491, 0.126532, 0.0372526, 0.0145324, 0.11693, -0.0417472, -0.184251, -0.0308181, -0.198403, -0.0694263, -0.105505, -0.0261352, 0.0415342, -0.0470901, 0.00519983, 0.148581, -0.110582, 0.108411, -0.0270694, -0.0769011, 0.0708077, -0.0711511, -0.283729, -0.0523186, 0.0506173, -0.272929, -0.0837755, 0.0230901, 0.0326934, -0.0834, 0.0572297, 0.0450626, 0.0198933, 0.0416488, -0.0564837, -0.0289638, 0.0671312, -0.259163, -0.0527271, -0.0485203, -0.010678, -0.0286797, -0.0693568, 0.259237, -0.119023, 0.0280626, 0.0578136, -0.0389476, 0.0699538, -0.186559, 0.0480329, -0.107338, -0.0806312, -0.134776, -0.00683884, 0.104092, 0.0305422, 0.00407294, -0.0599422, -0.0165697, 0.168561, -0.0699685, -0.0954829, -0.0685192, -0.170594, 0.0117558, 0.0611721, 0.0624582, 0.122591, 0.121844, 0.0740321, 0.036985, -0.17878, 0.207601, 0.0154911, 0.0668563, 0.151748, -0.0632572, 0.064615, 0.0565821, -0.0103373, 0.0261146, 0.0951479, 0.14181, 0.109199, -0.0689961, -0.0134325, -0.0796343, 0.0400532, -0.294152, 0.0514843, 0.0193045, 0.0858262, -0.0429897, 0.0261144, 0.019373, 0.058119, -0.0143437, 0.0621011, -0.0956451, -0.0509634, 0.0608927, 0.0676241, 0.075475, -0.0669127, 0.032601, -0.0289477, 0.059881, -0.00295304, 0.150938, 0.0507257, -0.00230638, -0.0650387, -0.0987531, -0.0382339, -0.0148465, -0.00369586, 0.0324285, 0.0821186, 0.0842796, 0.12431, -0.103906, 0.0114582, -0.106438, -0.079104, 0.0594941, -0.0591536, 0.032155, 0.0261459, -0.0316383, -0.00834098, 0.0218228, 0.171557, 0.184461, -0.157581, -0.0283809, -0.0106827, 0.106035, -0.0936171, 0.0508736, -0.0165302, -0.12186, 0.00425291, 0.118417, -0.117228, 0.0865596, 0.169241, -0.187835, 0.171926, -0.0192781, 0.0592162, -0.0799791, -0.0839802, -0.345127, 0.227858, -0.0766375, -0.0795393, -0.0598663, -0.0390196, 0.0723429, 0.0253983, 0.208794, 0.187464, -0.0284445, -0.0529581, 0.0758926, 0.0566494, -0.0145355, 0.102868, -0.0046685, 0.0159974, -0.0623941, -0.0102985, 0.183977, 0.0200055, -0.0280887, -0.0806268, -0.131173, 0.0210604, -0.046336, 0.0852982, -0.175326, 0.276296, -0.0410023, 0.0576944, 0.0385394, -0.0667313, 0.0175892, -0.161741, -0.0519422, 0.156274, 0.0439971, -0.040037, 0.0837003, 0.104191, 0.0374335, 0.22969, -0.149475, -0.101852, 0.138053, 0.0182407, -0.0822345, -0.0920422, 0.00240766, -0.0535167, -0.0203519, -0.0144854, -0.0144233, -0.14441, 0.0880795, 0.024794, 0.0171474, -0.00709222, -0.00332751, 0.29917, 0.088481, 0.0700889, -0.351377, 0.0344618, -0.0591649, 0.116738, -0.0486361, -0.163645, 0.0320005, 0.0317833, -0.128896, -0.0472325, 0.00151842, 0.126374, -0.0933898, 0.0653108, 0.0615984, -0.0901422, -0.0601298, -0.0215894, 0.179136, 0.00711724, 0.139305, -0.00748605, 0.143356, 0.0621495, 0.0232177, 0.0180455, -0.0185747, -0.0802638, 0.156221, 0.0205628, -0.11549, -0.0186717, 0.0293706, -0.0224794, -0.0175289, 0.103186, 0.0104569, -0.313937, 0.132707, -0.0977934, -0.0994225, -0.0727202, 0.0517097, 0.0656912, 0.104679, -0.164855, -0.22958, 0.0828508, -0.18967, -0.00946327, -0.0751318, -0.0400253, -0.048249, 0.0298962, 0.0692957, 0.156247, -0.0613189, -0.115255, 0.191984, -0.036051, 0.00344707, 0.088287, 0.292941, 0.0512917, -0.211929, 0.0285948, -0.0112983, 0.243233, -0.146087, -0.0302687, 0.0272157, -0.0224592, -0.00584529, -0.0804449, 0.025443, 0.176259, 0.0505549, 0.0468446, 0.0284384, -0.179176, -0.0365417, -0.00296592, 0.123746, 0.0466434, 0.0349338, -0.0270974, 0.0232897, -0.0843345, -0.132577, 0.0221734, -0.00492078, -0.00289094, 0.00886916, -0.0145703, 0.0340491, 0.0676833, 0.0284682, 0.0456373, -0.0362868, 0.0947027, 0.0769115, 0.0445288, 0.0412591, -0.0558259, 0.0319728, -0.0495328, 0.00329933, -0.091634, 0.133951, 0.00751826, 0.117669, 0.0208712, 0.10907, 0.00379289, 0.0774638, 0.0948717, 0.044753, 0.0397085, -0.0591631, -0.105994, -0.126123, 0.164563, 0.0801826, 0.137531, -0.0726882, 0.169795, 0.301444, -0.0694523, -0.463895, 0.157361, 0.0443082, 0.0577754, 0.219464, -0.0115168, -0.00193785, -0.0292562, 0.0764755, 0.169634, -0.0292501, 0.0835423, -0.0980752, 0.0172894, 0.0691286, 0.0665257, 0.00098459, -0.00990822, 0.0248265, 0.213455, 0.127805, -0.0211849, -0.129097, -0.182256, -0.123431, -0.00340482, -0.0723468, -0.00197092, -0.0059836, -0.040386, 0.166161, -0.0384277, 0.0342502, 0.0509484, -0.222733, 0.0619304, -0.137843, -0.0128726, 0.118323, 0.0535977, -0.127883, 0.0210658, -0.0589716, 0.0907982, 0.185234, -0.174105, 0.0812544, 0.011739, -0.00881736, 0.0810771, 0.117167, -0.129032, 0.130522, 0.0221847, -0.105865, -0.0443098, -0.0872825, -0.172948, 0.190025, 0.081204, 0.0161989, -0.115344, 0.124338, -0.0255183, -0.225313, 0.147379, -0.0384823, 0.054195, 0.132239, 0.111683, -0.0314314, -0.00175284, -0.0944183, -0.0718393, -0.0702472, 0.0267284, 0.0954082, 0.0705437, 0.159818, 0.104026, 0.0220794, 0.00486374, 0.147676, -0.131008, 0.134503, -0.0505136, -0.00872802, 0.0822325, -0.0196504, -0.0314161, 0.0160517, 0.2344, 0.0985506, -0.100505, 0.0241765, -0.0767976, -0.0586617, -0.037764, 0.0201076, -0.0217922, 0.022739, 0.0131487, 0.0514437, 0.0519781, -0.0323329, 0.157261, -0.0692576, -0.117142, 0.0717114, -0.240807, 0.0511151, 0.133773, 0.293498, 0.00283192, 0.167851, 0.0287678, 0.0297092, 0.0709362, -0.0413076, -0.122591, -0.117152, -0.173947, 0.0255318, -0.0501066, 0.080869, -0.0139651, 0.150879, 0.0515729, -0.332699, -0.177275, -0.0497681, 0.204582, -0.126261, -0.00873542, 0.00556541, -0.0471381, 0.108929, -0.116149, -0.0595837, -0.00607116, -0.100865, 0.00174205, -0.15969, 0.118832, -0.0334358, -0.0708527, 0.107124, 0.105528, 0.274194, 0.0413264, 0.0610593, -0.077823, 0.279006, 0.0708207, -0.0524825, 0.179695, -0.0537681, 0.452446, -0.147578, -0.0268362, -0.0370014, -0.0639387, -0.0632759, 0.156115, -0.193013, -0.310952, 0.299735, -0.321294, -0.195334, 0.224309, -0.0102805, 0.0140096, -0.13357, -0.15064, -0.280885, -0.134579, -0.0443729, 0.0414727, -0.159075, 0.0568528, 0.125065, -0.0127676, 0.0624365, -0.0139856, 0.0448704, -0.187527, 0.302182, -0.0843233, 0.0206385, -0.0423629, -0.0254038, 0.0551683, -0.24523, -0.283378, 0.0421999, 0.461054, -0.175883, -0.223885, 0.0608825, -0.0711171, 0.226245, 0.00520615, 0.0135462, 0.0513822, -0.148448, 0.0375673, -0.195746, -0.212875, -0.0522887, -0.0377378, 0.424016, -0.118497, 0.123002, -0.0301558, -0.105698, -0.253517, 0.273064, 0.0683581, -0.0853194, 0.231748, 0.164406, 0.274493, -0.0230979, -0.00945127, 0.00696797, 0.0110959, -0.0520594, 0.12486, -0.121, -0.0923977, 0.121722, -0.212921, -0.0855208, -0.0151362, -0.0898096, 0.0485708, 0.0468268, 0.181021, -0.0702071, 0.175415, 0.132765, 0.052209, 0.000208174, -0.0445261, 0.242246, 0.0251682, 0.0448546, -0.158701, 0.0187329, -0.109526, 0.406057, 0.00967665, 0.00267408, 0.115214, 0.280393, 0.0150809, -0.0819506, -0.0067944, 0.00848708, 0.0388786, -0.102491, 0.215956, 0.0249956, 0.0206673, -0.000157851, 0.146345, -0.0565401, 0.105817, -0.0564607, -0.0616121, 0.0259584, 0.158191, -0.0652664, -0.0439962, 0.097306, -0.0767987, 0.0807384, -0.0304343, -0.0620578, -0.216866, 0.0870387, -0.0236136, 0.00124433, 0.183175, -0.0810948, 0.266186, -0.0710802, 0.00202341, -0.0523601, 0.0440633, -0.0685314, 0.0989596, -0.259076, -0.130495, -0.0278718, -0.176873, -0.0322825, 0.106393, -0.0278076, -0.00859372, -0.106437, 0.17271, 0.0389802, 0.104254, 0.266147, 0.154647, 0.141787, 0.0945401, 0.065961, 0.0719194, 0.207715, -0.417227, -0.205805, 0.0312128, 0.252369, -0.0153915, -0.00592757, 0.0955899, 0.0310858, -0.00351353, 0.21082, 0.178607, -0.0515703, 0.133868, -0.258656, 0.104298, -0.0346223, 0.0333045, 0.204521, 0.0211468, 0.0371815, 0.0119801, -0.201769, -0.060149, 0.062772, 0.0383626, -0.0283017, -0.0433437, -0.0322328, -0.0811054, 0.188792, -0.0281503, 0.0607889, -0.0997148, 0.216752, 0.0740426, 0.0041443, 0.478349, -0.284327, 0.135294, -0.0580879, 0.0395621, 0.0453039, -0.0369778, -0.00745512, 0.147016, -0.0428645, -0.104991, 0.302024, -0.238749, -0.0407654, 0.00796778, 0.0518549, 0.168065, -0.248834, 0.120182, 0.0175354, 0.0838221, -0.0263023, -0.13151, 0.0700713, 0.00228019, -0.0529561, 0.106508, 0.106286, -0.490585, -0.287775, -0.161179, 0.111861, -0.304039, 0.0915162, -0.0233654, -0.232133, 0.102489, -0.0660129, 0.08466, -0.033238, 0.174925, -0.372456, 0.104945, -0.0349005, 0.0685395, -0.112275, -0.0292758, -0.00915449, -0.0150297, -0.159372, 0.0361721, -0.0375607, 0.21209, 0.0136137, -0.0333682, 0.303671, 0.0117504, 0.107352, 0.047563, 0.0813719, -0.147746, 
  -0.0693452, 0.00968388, -0.0289991, -0.0745644, -0.0424282, -0.0353446, -0.0745288, 0.0328127, -0.0414074, 0.0104933, 0.0292508, -0.0496087, 0.0183455, -0.0732313, 0.0328444, -0.0322588, 0.00830543, -0.0492871, 0.0366512, -0.0941218, -0.0345017, 0.0544627, 0.0380741, -0.054742, -0.0389876, -0.0930754, -0.0122036, -0.00313774, 0.0162469, 0.0567336, 0.0213104, -0.0810781, -0.0428035, -0.0383129, 0.00377942, -0.0323947, -0.0319537, 0.00928756, -0.035052, 0.0350076, 0.0262784, -0.108817, -0.0414506, -0.0076232, 0.0392571, -0.0234852, -0.0233252, -0.0688967, -0.0271038, -0.051981, -0.0731945, -0.00940075, -0.0826273, -0.0456735, -0.0384879, -0.000258408, -0.0117664, 0.0460096, -0.0790472, -0.040193, -0.0299871, 0.0653443, 0.0528749, 0.00797733, -0.0730481, -0.0501797, 0.0593193, 0.0458738, 0.0405311, 0.0333581, 0.0311445, -0.00623204, -0.0525045, 0.0659808, -0.0697672, -0.0447199, -0.0558301, -0.0334648, -0.00410704, -0.0464325, 0.0109385, -0.0766572, 0.0334417, -0.0465937, -0.0570819, -0.0205078, 0.102598, 0.00613693, 0.0161111, -0.0285043, -0.00331258, 0.060345, -0.0724302, 0.0151418, -0.0689171, -0.020417, 0.045739, 0.00701276, 8.89301e-05, -0.0099772, -0.024517, 0.0714318, -0.0727917, -0.0322337, -0.0706903, -0.10438, 0.0710706, 0.0213846, -0.028751, -0.0365331, -0.0278826, 0.0323046, 0.0212163, -0.0385626, 0.00279761, -0.0371267, -0.080348, 0.0103438, -0.0441825, -0.00771041, -0.0362534, 0.0342999, -0.0423506, -0.082742, -0.0278761, -0.0555444, -0.0499811, -0.039391, 0.0267296, -0.0531349, -0.0534032, -0.0592048, -0.0480747, -0.0386622, -0.0195272, 0.0590698, -0.0127317, 0.0475831, -0.0346652, 0.0557529, 0.0478612, -0.0457074, 0.0338697, -0.0208469, -0.0196335, -0.0160052, 0.0218266, -0.0668945, -0.022498, -0.0458653, -0.0262146, -0.00238414, -0.0129647, -0.0550815, -0.061378, -0.0762592, 0.00749751, 0.010244, -0.085644, -0.0257166, -0.0749283, 0.0445326, -0.0198103, -0.0591414, 0.0395375, -0.0675174, -0.0184264, -0.0448434, 0.0699289, 0.0350005, -0.0611717, -0.0149592, -0.0668621, 0.00406502, -0.048212, 0.00216087, 0.0091784, -0.0274217, -0.0245916, -0.0614658, -0.0486818, 0.0276549, 0.0378718, 0.0393365, -0.0704744, -0.0128574, 0.0138139, 0.0294802, -0.0643768, -0.0108207, -0.0720015, -0.0445377, -0.0730191, -0.0142168, 0.0591141, 0.0663499, -0.0135649, 0.00422564, 0.0395391, -0.0673736, 0.0371997, -0.037281, -0.0748812, -0.00518508, -0.0168585, -0.0203882, 0.0320308, -0.0643777, 0.0592861, 0.00759356, 0.0716032, -0.048328, -0.08335, -0.00696903, 0.0763056, -0.0713426, 0.0867939, -0.0488026, -0.0748364, 0.0518708, 0.0298028, 0.0649771, 0.0218773, -0.101213, 0.0507321, -0.0130754, -0.029482, -0.0254156, 0.0711355, 0.056192, 0.0142189, 0.0327663, 0.0606775, -0.0423776, -0.0495871, -0.00140993, -0.00447343, -0.0437249, -0.0458672, 0.0700134, 0.0398387, -0.0290722, -0.0477421, -0.0266346, 0.00292275, -0.0386582, 0.0554203, 0.0524077, 0.0742215, -0.0492917, -0.0090289, -0.00587842, 0.0144021, 0.0620443, -0.0139758, -0.0527822, 0.00702357, 0.00788189, 0.0333499, 0.0285909, -0.058456, 0.0175521, 0.0435637, 0.0364372, -0.070224, 0.0120969, -0.0812997, 0.0716099, -0.0549655, -0.0330836, -0.0561832, 0.0170938, 0.0679795, -0.0889939, -0.024872, 0.0549155, -0.000616444, -0.0440872, -0.0126863, -0.0920069, 0.0552037, -0.0112483, -0.00894416, -0.0899284, 0.0201086, 0.0404031, -0.0547703, -0.078031, 0.00176349, 0.0221763, -0.053373, -0.0328002, 0.00570689, 0.0200013, -0.0526828, 0.0189039, 0.0561165, 0.000956028, 0.031223, 0.0232784, 0.0557896, 0.0245771, -0.0674434, 0.0658617, -0.019945, 0.0324612, -0.0231644, 0.0216532, -0.0159874, -0.0732234, -0.0856918, -0.0285503, 0.0262501, -0.0173533, -0.00197364, 0.0385065, -0.0838836, 0.00185584, 0.0394669, -0.0518581, 0.0404211, -0.0401093, -0.0275591, -0.0589473, 0.00856734, -0.0438686, 0.0321325, -0.0203393, 0.0286079, -0.0716954, -0.036094, -0.0691073, -0.0699408, -0.00560368, 0.0426675, 0.0324925, -0.0214126, -0.0783701, -0.0378511, -0.0552719, 0.025306, 0.0243219, -0.00843701, -0.0406537, 0.000231581, 0.0178275, 0.0474868, 0.00618525, 0.0370737, -0.0389805, -0.0198722, -0.0574493, -0.081971, 0.00573132, 0.00293993, -0.0147455, 0.0614552, -0.0558907, 0.0268336, 0.0742395, 0.00162468, -0.0914849, 0.0048264, 0.0210377, -0.094678, -0.036167, -0.0697609, -0.0308134, -0.107726, -0.0661644, 0.0712966, -0.0576607, -0.0403132, 0.0641278, -0.0303539, -0.0557811, -0.0362782, -0.0329885, -0.03713, -0.0479874, -0.0575402, -0.016425, -0.0653878, 0.0199215, 0.0209897, 0.00602094, -0.0728105, 0.0473028, -0.0738188, -0.000141078, -0.0237783, -0.0631991, 0.0076007, 0.0508545, -0.0146011, 0.0579812, -0.0429184, -0.0219617, 0.0489302, -0.0117495, -0.0395842, 0.0176408, 0.0103456, -0.064166, -0.00873845, -0.038026, 0.00247143, -0.0707934, 0.0369774, -0.057206, -0.0452939, -0.00142487, -0.0528671, -0.0718527, -0.0450217, 0.0432257, 0.0174893, -0.053999, 0.0108066, 0.052468, -9.51663e-05, 0.0314377, 0.0671537, 0.0570586, 0.0569299, -0.0059895, 0.044682, -0.0322152, -0.056546, -0.00912362, -0.0556855, 0.0514014, 0.0345798, 0.069598, 0.00244101, 0.0353039, 0.0230518, 0.0567873, 0.0398455, -0.00902851, -0.00228824, -0.0663906, -0.0223452, -0.0850957, -0.00613906, -0.0718673, -0.0301699, -0.0201379, 0.0178577, 0.0333796, 0.0167836, 0.0138576, 0.0234612, 0.0382358, -0.0431961, 0.049464, -0.0198568, -0.0494821, -0.0689181, 0.102123, 0.0360672, -0.0545149, -0.0089575, 0.0138526, 0.00789784, 0.00334373, 0.0476217, 0.0209319, -0.079675, -0.0512052, -0.072537, 0.0192974, -0.015816, 0.0343498, -0.00731263, -0.00841096, 0.0434429, 0.00136029, 0.0255505, 0.0317569, -0.0894703, -0.0418473, 0.0570974, 0.0500572, -0.0638926, -0.00736503, 0.0690184, 0.0237434, -0.00578061, 0.0328558, 0.0588824, -0.09478, 0.0356994, 0.00630351, 0.00937222, 0.0682361, -0.0177789, 0.00846621, 0.0366753, -0.0485169, -0.0512948, 0.0427728, -0.0672774, 0.0333444, 0.0668538, 0.0587044, -0.00517303, 0.0326587, -0.0308351, 0.00697626, 0.0382552, -0.0366527, -0.044517, 0.020629, -0.0259883, 0.0516957, 0.0325444, -0.0216182, -0.0844218, 0.0408324, 0.0717322, 0.0247047, 0.0354385, 0.0108481, 0.00620312, 0.0555226, 0.0182793, -0.071309, -0.0256848, -0.0731667, -0.0212231, -0.0607085, 0.0409017, 0.00534638, -0.0137806, 0.0378931, 0.0523895, -0.0215836, -0.0407255, -0.0950008, -0.0563633, 0.0161693, -0.00913058, -0.0124186, -0.0706543, -0.0716005, -0.0263034, -0.0197075, -0.0433031, -0.0315961, 0.038235, -0.048407, 0.0212468, -0.00253699, 0.0122864, -0.0875264, -0.0194461, -0.00415049, 0.0465903, -0.0240332, -0.0328156, -0.0364731, -0.00187156, 0.0264266, -0.0574705, -0.0361264, 0.0104949, -0.0357208, -0.0307305, 0.0429578, -0.00989735, -0.0523499, 0.0395888, 0.0244385, 0.0699694, -0.0717966, 0.0278459, 0.0519189, 0.0137633, 0.0381625, -0.0694589, -0.0180249, 0.021095, 0.0114164, 0.013409, -0.00709365, 0.0050618, -0.0568744, -0.0187981, -0.0371395, 0.00142919, -0.037244, -0.0535606, -0.0416285, 0.00818505, -0.0665489, -0.0114677, 0.0306867, 0.043297, 0.0123267, 0.0851097, 0.0037408, -0.0534574, 0.0115738, -0.010427, -0.0507125, -0.0889834, -0.0136254, 0.0401363, -0.0480962, -0.0628116, -0.0532915, 0.0121699, 0.0450868, -0.0501688, 0.0163145, -0.0578711, -0.0192071, 0.0269421, 0.0018447, -0.0848558, 0.020194, 0.059283, -0.0235622, -0.105792, -0.00488505, -0.0186838, -0.000331933, 0.0480946, 0.0685599, -0.0236494, 0.0198307, -0.0258204, 0.0393013, -0.0460236, -0.0615461, -0.086665, 0.00928184, -0.0697789, -0.0837948, -0.080929, -0.0627933, -0.0252954, -0.0439856, 0.0511444, -0.0187886, -0.0822883, 0.0335916, 0.0602807, -0.0140644, 0.0160384, -0.0778152, -0.0284431, -0.0580477, 0.0179786, -0.0649397, -0.0596559, -0.0202471, 0.071887, -0.0424684, 0.0249432, 0.0227922, -0.0704083, -0.0696737, 0.00169605, 0.0218487, -0.0339467, 0.0567063, -0.0289399, 0.0266247, -0.0871214, -0.0614216, -0.0473303, -0.0306185, 0.0536489, 0.0379468, 0.0654989, 0.0167914, -0.0417324, 0.0181659, -0.002196, -0.00803507, -0.056979, -0.0543251, -0.00195465, 0.0476, 0.0445888, -0.0140984, -0.0902449, 0.00674218, 0.011871, 0.0125061, 0.0110209, -0.0582926, -0.031059, -0.0636524, -0.0640589, 0.0117967, 0.0337751, -0.0543176, 0.00895715, -0.0658998, 0.0250004, 0.0242349, -0.00291043, -0.0160638, 0.0311399, -0.0764148, -0.0523295, 0.0349967, 0.0356275, -0.0520869, -0.0666199, -0.0588938, 0.0612266, 0.0475155, -0.0499196, -0.0185187, 0.0194068, -0.0222822, -0.0740229, 0.0052456, -0.0597956, -0.0298521, -0.0639151, -0.0735194, 0.0282003, 0.0654933, -0.0398988, 0.0515493, -0.0258926, 0.0464355, -0.0651378, 0.00945713, -0.103274, 0.0481424, -0.0283774, 0.0331173, -0.068983, -0.0636475, -0.0118823, -0.0404455, -0.0682701, 0.0335773, 0.0306824, -0.0810159, 0.053218, 0.0497889, -0.0343655, -0.0455522, 0.0375916, 0.036243, -0.0478617, -0.0221297, 0.0214122, -0.0802149, -0.0916996, 0.0484207, -0.0843007, 0.0121264, -0.00454187, -0.0145614, 0.0125079, 0.0222067, -0.0594331, -0.0381848, -0.0326608, -0.0781822, -0.0858326, 0.0613875, 0.0317701, -0.0277207, -0.0237611, -0.0183532, 0.0622713, -0.0633987, 0.00154447, 0.00634157, 0.0689073, -0.00573004, 0.0607421, -0.0284348, 0.0175213, -0.0476726, -0.0312388, -0.0258853, -4.67226e-05, -0.0750685, 0.00266634, -0.058678, 0.00812437, 0.0466016, 0.0188914, -0.0257962, 0.0391787, -0.0165906, -0.0234622, -0.00785951, -0.0727616, 0.018024, -0.0671964, 0.0424421, 0.0276698, 0.0268032, 0.0373358, 0.0460536, -0.0261219, -0.0328654, -0.025157, 0.0200529, -0.0719972, 0.0381259, 0.00362481, 0.00234778, -0.0377263, -0.0414481, -0.0843008, 0.0380978, -0.0249521, 0.0112674, -0.0792148, -0.0603108, 0.0393501, 0.0552709, -0.0570456, -0.0637198, 0.0290845, -0.0608813, -0.07872, -0.0243083, 0.035406, 0.0164271, -0.0773322, -0.0388195, -0.0452703, -0.0304553, -0.0604824, -0.0928878, 0.0502302, -0.0376696, -0.0332756, 0.0416741, 0.0770691, -0.0721435, -0.0621857, -0.00850057, -0.000180665, 0.0386884, 0.062465, 0.0533191, 0.00644873, -0.0448021, -0.00415277, 0.0423558, -0.011841, 0.0396542, 0.0331411, -0.0498071, 0.0543221, -0.0913296, 0.0501405, 0.0165544, -0.0628449, -0.0469164, -0.0630318, 0.0436945, 0.058462, -0.0505066, 0.0277701, 0.0220948, -0.0230594, -0.0454782, -0.0680985, -0.0478051, -0.00330273, 0.00608382, -0.0315367, -0.0124459, -0.0664649, -0.0617348, -0.0266766, 0.00154845, -0.00649569, -0.0391153, -0.0841034, 0.0719524, 0.0632171, -0.0701723, 0.0612356, -0.0626058, -0.0374346, 0.056388, -0.0695745, 0.04031, 0.0279983, 0.020261, -0.0704892, -0.0565374, -0.0514138, 0.00982381, 0.0531267, -0.0669937, -0.0911095, 0.0454951, 0.0472619, 0.05626, 0.0503664, -0.0433094, 0.0513588, 0.0214757, 0.0511484, -0.0419088, -0.05463, -0.101443, -0.028422, -0.0702081, -0.0141277, -0.0191622, -0.0405481, 0.0547622, -0.0691438, -0.0721533, 0.0725547, -0.0373419, 0.0153148, 0.0277397, -0.034086, 0.0109643, 0.0292769, -0.0581005, 0.0625915, 0.0266434, 0.056776, -0.0744866, 0.0236164, -0.0472955, 0.017565, -0.0076546, 0.066676, -0.0624425, 0.0315467, 0.0555435, -0.0285215, 0.0594396, -0.0818376, 0.0308871, 0.0343641, -0.0459471, 0.0195674, -0.0605531, -0.0321604, -0.0502043, -0.0320165, -0.00748497, -0.0200798, 0.0243451, -0.0494671, -0.0600823, 0.0299269, 0.0019566, 0.0355327, 0.018069, -0.0665607, -0.0796691, 0.0720737, -0.0413846, 0.0452795, -0.0512005, -0.0734898, 0.071262, -0.068183, 0.0492437, -0.0797397, 0.0550072, -0.0512379, -0.0104891, -0.0600939, -0.0121748, 0.0694419, 0.00341724, -0.00388916, 0.0310543, -0.0489552, -0.00364742, 0.0267818, -0.0423004, -0.0537722, -0.000136689, -0.0449669, 0.00348111, -0.0441519, 0.0327256, -0.00988728, -0.0121756, -0.00710153, -0.0363818, 0.0587979, 0.0100765, 0.0178136, 0.00439307, -0.0620781, 0.0241786, -0.0213717, 0.00261887, -0.0791732, 0.00687017, -0.00181985, -0.0376704, -0.0823734, -0.0513736, 0.0291966, 0.0523647, -0.0862483, 0.0640706, -0.00552926, 0.0556279, -0.056067, 0.0342142, -0.0600562, 0.0141194, 0.0141954, -0.0413417, 0.0147484, 0.0318761, 
