// This file is generated. Do not edit.
// Generated on: 11.08.2020 11:26:36

#include "tensorflow/lite/c/builtin_op_data.h"
#include "tensorflow/lite/c/common.h"
#include "tensorflow/lite/micro/kernels/micro_ops.h"

#if defined __GNUC__
#define ALIGN(X) __attribute__((aligned(X)))
#elif defined _MSC_VER
#define ALIGN(X) __declspec(align(X))
#elif defined __TASKING__
#define ALIGN(X) __align(X)
#endif

namespace {

constexpr int kTensorArenaSize = 145600;
uint8_t tensor_arena[kTensorArenaSize] ALIGN(16);
template <int SZ, class T> struct TfArray {
  int sz; T elem[SZ];
};
enum used_operators_e {
  OP_CONV_2D, OP_MAX_POOL_2D, OP_RESHAPE, OP_FULLY_CONNECTED,  OP_LAST
};
struct TensorInfo_t { // subset of TfLiteTensor used for initialization from constant memory
  TfLiteType type;
  void* data;
  TfLiteIntArray* dims;
  size_t bytes;
};
struct NodeInfo_t { // subset of TfLiteNode used for initialization from constant memory
  struct TfLiteIntArray* inputs;
  struct TfLiteIntArray* outputs;
  void* builtin_data;
  used_operators_e used_op_index;
};

TfLiteContext ctx{};
TfLiteTensor tflTensors[20];
TfLiteEvalTensor evalTensors[20];
TfLiteRegistration registrations[OP_LAST];
TfLiteNode tflNodes[8];

const TfArray<4, int> tensor_dimension0 = { 4, { 1,32,32,3 } };
const ALIGN(8) float tensor_data1[32] = { 
    -0.00094146572519093752, 0.00034059036988765001, -0.0035446295514702797, -0.0015664005186408758, 0.028861666098237038, 0.007314569316804409, -0.0014226598432287574, 0.014921179972589016, 0.080738872289657593, -0.28727713227272034, 
    0.0043534622527658939, 0.012159605510532856, 0.039484549313783646, -0.0094334911555051804, -0.066831067204475403, -0.0044438010081648827, 0.1660846471786499, -0.0033424720168113708, 0.072264693677425385, -0.066587306559085846, 
    0.021162949502468109, 0.0074154520407319069, -0.047402650117874146, 0.017881708219647408, 0.023053469136357307, 0.048998977988958359, 0.024579767137765884, 0.059135265648365021, -0.098966248333454132, 0.0020101028494536877, 
    -0.1176474392414093, -0.0076652686111629009, 
};
const TfArray<1, int> tensor_dimension1 = { 1, { 32 } };
const ALIGN(8) float tensor_data2[64] = { 
    -0.082286074757575989, -0.00125155970454216, 0.066687941551208496, 0.015744386240839958, 0.008139781653881073, 0.1050773411989212, 0.083063527941703796, 0.078239701688289642, 0.15862676501274109, -0.12538377940654755, 
    -0.017563598230481148, -0.047435794025659561, 0.071990370750427246, -0.014161647297441959, -0.044128600507974625, -0.055997595191001892, 0.07769504189491272, -0.023926939815282822, 0.081795915961265564, -0.13539038598537445, 
    0.0080074425786733627, 0.0066195027902722359, 0.034433469176292419, -0.06686081737279892, -0.10414876043796539, -0.070539124310016632, -0.083118416368961334, -0.05992991104722023, 0.11704684048891068, 0.016779208555817604, 
    -0.03284459188580513, -0.052779216319322586, 0.13121208548545837, 0.15846617519855499, 0.025823744013905525, -0.020745158195495605, 0.078849196434020996, 0.055313281714916229, 0.059997875243425369, 0.39699572324752808, 
    -0.014593080617487431, 0.089195363223552704, -0.13362377882003784, 0.061908338218927383, -0.091000542044639587, -0.01841011643409729, 0.03662220761179924, 0.15114548802375793, 0.061300318688154221, 0.09361034631729126, 
    0.021632939577102661, 0.005244384054094553, 0.031597919762134552, -0.090739622712135315, 0.087901435792446136, 0.077855616807937622, 0.050862248986959457, 0.050146725028753281, -0.056180678308010101, -0.19042141735553741, 
    -0.044467337429523468, 0.060155302286148071, -0.035413634032011032, -0.080002382397651672, 
};
const TfArray<1, int> tensor_dimension2 = { 1, { 64 } };
const ALIGN(8) float tensor_data3[64] = { 
    0.067556872963905334, -0.03410828486084938, -0.047105662524700165, 0.017631325870752335, 0.0011485739378258586, -0.080134034156799316, 0.18781471252441406, -0.042250458151102066, -0.038206994533538818, -0.037959255278110504, 
    -0.1094767153263092, -0.12510450184345245, 0.12563034892082214, 0.288421630859375, 0.099298641085624695, 0.26802048087120056, 0.010243529453873634, 0.070184424519538879, -0.049536727368831635, -0.009659837931394577, 
    0.32252231240272522, 0.057028885930776596, -0.0095152584835886955, -0.0012345947325229645, 0.035229135304689407, -0.079231791198253632, 0.25170025229454041, 0.25728368759155273, 0.31107890605926514, -0.040832832455635071, 
    0.19463782012462616, 0.082591325044631958, 0.16405710577964783, 0.19732551276683807, -0.05055781826376915, 0.042451731860637665, -0.056534368544816971, 0.1256701648235321, -0.018899880349636078, -0.054344557225704193, 
    0.14383815228939056, 0.093374297022819519, -0.033389702439308167, 0.016042295843362808, 0.18156081438064575, 0.019056042656302452, -0.040817450731992722, -0.04429033026099205, 0.23168438673019409, -0.097208313643932343, 
    -0.023799577727913857, 0.048828575760126114, 0.19823509454727173, -0.015444483608007431, -0.068787954747676849, -0.034200083464384079, -0.061025127768516541, -0.042934011667966843, -0.051396343857049942, 0.2357451468706131, 
    -0.060178626328706741, -0.04901592805981636, -0.030658947303891182, -0.0031867616344243288, 
};
const TfArray<1, int> tensor_dimension3 = { 1, { 64 } };
const ALIGN(8) float tensor_data4[64] = { 
    -0.072382979094982147, -0.012201998382806778, -0.010369187220931053, -0.052175536751747131, 0.040332652628421783, -0.014222824014723301, 0.0056497417390346527, -0.0088472301140427589, -0.10959960520267487, -0.040308855473995209, 
    0.083218544721603394, 0.039077579975128174, -0.033104557543992996, -0.048932131379842758, -0.038197830319404602, 0.089517205953598022, 0.0027457945980131626, 0.075425460934638977, -0.025522679090499878, 0.062429741024971008, 
    0.15757878124713898, -0.23397453129291534, -0.018727114424109459, -0.026765221729874611, -0.043169770389795303, 0.094816356897354126, 0.10271503031253815, 0.063487760722637177, -0.010230970568954945, -0.046665266156196594, 
    -0.012877207249403, -0.076816082000732422, -0.078153297305107117, -0.021933834999799728, -0.013914021663367748, 0.10673679411411285, -0.036948755383491516, 0.17784711718559265, 0.17535394430160522, -0.018995184451341629, 
    -0.0088150398805737495, -0.029225615784525871, -0.020374927669763565, 0.33502322435379028, -0.09989050030708313, 0.019091829657554626, -0.026786824688315392, -0.02285456471145153, -0.057272270321846008, -0.0084822913631796837, 
    -0.15835966169834137, 0.0033251519780606031, -0.011226021684706211, -0.028184365481138229, 0.077130086719989777, -0.0095757078379392624, -0.045976400375366211, 0.033527001738548279, 0.029786569997668266, 0.19255368411540985, 
    0.11227279901504517, 0.23417024314403534, -0.046162057667970657, 0.21546997129917145, 
};
const TfArray<1, int> tensor_dimension4 = { 1, { 64 } };
const ALIGN(8) float tensor_data5[10] = { 
    -0.16053737699985504, -0.1958523690700531, -0.081760436296463013, 0.17737674713134766, 0.23283417522907257, -0.01310496311634779, 0.090629830956459045, -0.11043356359004974, 0.023476563394069672, -0.012709815986454487, 
};
const TfArray<1, int> tensor_dimension5 = { 1, { 10 } };
const ALIGN(8) int32_t tensor_data6[2] = { 
    -1, 1024, 
};
const TfArray<1, int> tensor_dimension6 = { 1, { 2 } };
const ALIGN(8) float tensor_data7[64*1024] = { 
  0.041496429592370987, -0.011520959436893463, 0.019018959254026413, -0.36334440112113953, 0.11397188901901245, -0.030880045145750046, -0.012508727610111237, 0.04085686057806015, 0.049143243581056595, 0.007198023609817028, 0.22389115393161774, -0.1263936311006546, 0.20884968340396881, 0.067026346921920776, 0.37118151783943176, 0.067280516028404236, 0.014938389882445335, 0.13538378477096558, -0.046626869589090347, -0.14882437884807587, -0.024117719382047653, 0.18114523589611053, -0.12984739243984222, 0.35614156723022461, -0.046051863580942154, 0.10844656080007553, -0.22512902319431305, -0.04520508274435997, -0.31927379965782166, 0.04917893186211586, -0.42692238092422485, -0.023633468896150589, -0.12731049954891205, -0.086209401488304138, 0.017419286072254181, 0.069738112390041351, -0.032838385552167892, 0.094663247466087341, 0.41357341408729553, -0.089853473007678986, 0.052298162132501602, -0.084207303822040558, 0.021158140152692795, -0.15690207481384277, 0.19764511287212372, -0.087134204804897308, -0.003623198950663209, -0.058689165860414505, 0.25140580534934998, 0.0066190292127430439, 0.029288714751601219, -0.016835408285260201, 0.26212641596794128, -0.027569681406021118, 0.043918434530496597, -0.21705721318721771, 0.054345056414604187, 0.023514170199632645, 0.092531971633434296, 0.07130780816078186, 0.24938897788524628, 0.067417770624160767, 0.1385110467672348, 0.050889745354652405, 0.1490388810634613, 0.00417289137840271, 0.024377373978495598, -0.029578529298305511, 0.17045339941978455, -0.16623714566230774, 0.11663469672203064, 0.039229691028594971, 0.011880777776241302, -0.037975970655679703, -0.050729341804981232, -0.12679480016231537, 0.12433598190546036, 0.091341152787208557, 0.010578162036836147, 0.08407118171453476, 0.079411327838897705, 0.089940570294857025, -0.03390643373131752, 0.039182819426059723, -0.0032912436872720718, 0.026633875444531441, -0.065925523638725281, 0.21865175664424896, -0.14525274932384491, 0.0008303605136461556, -0.12160587310791016, -0.16943627595901489, 0.0085361665114760399, -0.034920863807201385, -0.024178685620427132, -0.026073534041643143, 0.14778140187263489, 0.078479692339897156, -0.13760937750339508, -0.00050267780898138881, 0.0043904697522521019, 0.13175591826438904, -0.097722738981246948, 0.042672730982303619, 0.024482607841491699, 0.018138380721211433, 0.056289806962013245, -0.030575506389141083, 0.20651713013648987, 0.085202917456626892, 0.019089942798018456, -0.06369057297706604, 0.1185377836227417, 0.11813289672136307, -0.059075228869915009, 0.13211478292942047, 0.14262224733829498, -0.021025603637099266, 0.12496749311685562, 0.17261287569999695, -0.013792499899864197, -0.059848722070455551, 0.055918384343385696, 0.052759069949388504, -0.056628312915563583, 0.017401678487658501, 0.041187748312950134, 0.038074098527431488, 0.25375181436538696, -0.067136131227016449, 0.022811681032180786, 0.048642728477716446, 0.12569129467010498, -0.025593936443328857, -0.0052014682441949844, 0.00042035762453451753, -0.060645859688520432, -0.030576178804039955, -0.045106459408998489, -0.10551454871892929, 0.058056052774190903, -0.093871705234050751, 0.22045944631099701, 0.17356127500534058, 0.13291658461093903, -0.030339006334543228, -0.069054938852787018, -0.073931686580181122, -0.047906231135129929, -0.019743287935853004, -0.053208295255899429, 0.13131023943424225, 0.12414061278104782, 0.051070824265480042, -0.16251242160797119, -0.15358999371528625, -0.11665817350149155, 0.0097288209944963455, 0.047700602561235428, -0.062217626720666885, 0.014893687330186367, 0.012408490292727947, 0.038696013391017914, -0.18602238595485687, 0.031531348824501038, -0.14759330451488495, -0.041165620088577271, -0.010463348589837551, -0.03986923024058342, -0.0072588822804391384, 0.057925127446651459, -0.035394679754972458, 0.19644655287265778, -0.01142959576100111, 0.041525624692440033, -0.029756393283605576, 0.21052089333534241, 0.18848805129528046, -0.015052342787384987, -0.086592145264148712, -0.13602961599826813, -0.072941392660140991, -0.065688006579875946, -0.14166329801082611, 0.030772488564252853, -0.057643704116344452, 0.065788328647613525, -0.090091951191425323, 0.1836482435464859, -0.024456657469272614, 0.092741549015045166, 0.14164191484451294, -0.064777970314025879, 0.029602866619825363, 0.0074756992980837822, -0.13172325491905212, 0.44407093524932861, -0.091875664889812469, -0.062193170189857483, 0.0096617983654141426, -0.0050600273534655571, 0.056133009493350983, -0.055424384772777557, -0.026189032942056656, 0.049135167151689529, 0.025696197524666786, -0.058190762996673584, 0.32751584053039551, -0.11526922136545181, 0.051835298538208008, -0.005055353045463562, -0.044579848647117615, 0.044620677828788757, -0.108693927526474, -0.11658523231744766, 0.13565947115421295, -0.019235037267208099, 0.0053787645883858204, -0.0037338696420192719, -0.1206105574965477, -0.10256905853748322, -0.081275321543216705, 0.13082337379455566, 0.081202186644077301, -0.1665966659784317, -0.042775955051183701, 0.018973993137478828, 0.14053721725940704, 0.010140499100089073, 0.068489044904708862, -0.3254179060459137, -0.082459889352321625, 0.013803837820887566, -0.095286004245281219, 0.014621159993112087, -0.15941576659679413, 0.25400036573410034, -0.24789515137672424, 0.056508589535951614, 0.037432234734296799, 0.14819423854351044, 0.30947396159172058, 0.08234570175409317, 0.13920857012271881, -0.19076904654502869, -0.068733982741832733, -0.15989787876605988, 0.12003514915704727, -0.049278050661087036, 0.02400660328567028, 0.13020166754722595, -0.27179166674613953, 0.17325620353221893, 0.012459422461688519, 0.012938085943460464, -0.037685416638851166, -0.0077278586104512215, 0.071847282350063324, -0.030351832509040833, -0.20790141820907593, -0.040910027921199799, 0.050725203007459641, 0.018583720549941063, -0.030916137620806694, -0.026911670342087746, -0.047157470136880875, 0.22417353093624115, 0.077841073274612427, 0.087650328874588013, -0.014847652986645699, 0.17403687536716461, 0.14976410567760468, 0.068965256214141846, 0.0043068951927125454, -0.032904617488384247, 0.087362520396709442, 0.085532993078231812, 0.18171535432338715, -0.051666717976331711, 0.025788500905036926, 0.10269425064325333, 0.26623943448066711, -0.094487734138965607, 0.050690360367298126, -0.0561036616563797, 0.022007467225193977, -0.18893687427043915, 0.022750437259674072, 0.033850643783807755, 0.26530060172080994, -0.039643086493015289, 0.049591593444347382, 0.040551096200942993, 0.14680288732051849, -0.0703134685754776, -0.060426302254199982, -0.13314078748226166, 0.066839836537837982, 0.020960789173841476, 0.069897495210170746, 0.17123439908027649, -0.077862896025180817, -0.030640151351690292, -0.055162522941827774, -0.063803091645240784, -0.059714749455451965, 0.012242496013641357, 0.0095771849155426025, 0.39309173822402954, 0.0045205350033938885, 0.028250928968191147, -0.011526667512953281, -0.041458822786808014, -0.013991289772093296, 0.024480262771248817, -0.00095610576681792736, 0.12253084778785706, -0.0072580738924443722, 0.068695284426212311, 0.062490403652191162, 0.03789394348859787, 0.03131818026304245, 0.0058482615277171135, -0.14044588804244995, 0.15378919243812561, 0.13667283952236176, 0.091000892221927643, -0.049514636397361755, -0.026182590052485466, 0.043903082609176636, 0.063348874449729919, 0.095946736633777618, 0.027166074141860008, -0.018397562205791473, 0.19981452822685242, 0.058397557586431503, 0.10561532527208328, 0.1073005199432373, 0.045029006898403168, -0.089824609458446503, -0.0062065469101071358, -0.020602839067578316, 0.18254467844963074, 0.086569860577583313, -0.067431017756462097, -0.09444020688533783, -0.11287138611078262, 0.01316998153924942, 0.052488889545202255, -0.076412364840507507, 0.12098908424377441, -0.28488168120384216, 0.014646551571786404, 0.19141019880771637, -0.17837730050086975, -0.034574784338474274, -0.015790496021509171, -0.11904754489660263, 0.010361631400883198, 0.071535155177116394, -0.16145512461662292, -0.066303513944149017, 0.076772928237915039, -0.10629771649837494, -0.035139590501785278, 0.033705919981002808, -0.0061817625537514687, 0.069208361208438873, 0.097370527684688568, -0.12614244222640991, -0.05093681812286377, 0.041255291551351547, -0.076411888003349304, 0.054854560643434525, 0.0050301025621592999, 0.034243173897266388, 0.011780315078794956, 0.011805576272308826, 0.023058786988258362, -0.13711577653884888, 0.0062309042550623417, -0.022773958742618561, 0.073014095425605774, 0.039966247975826263, 0.029667213559150696, 0.069405004382133484, -0.027329994365572929, -0.055954419076442719, 0.080258287489414215, 0.035713948309421539, 0.010162346065044403, 0.096617221832275391, -0.085316188633441925, -0.047802817076444626, 0.058919969946146011, 0.11654998362064362, -0.16349457204341888, -0.10768678784370422, 0.11988898366689682, 0.09218190610408783, 0.21852771937847137, 0.016838550567626953, 0.0050299465656280518, 0.08678823709487915, -0.1088581308722496, -0.073981374502182007, 0.16988541185855865, -0.014476812444627285, 0.19332429766654968, -0.021774116903543472, -0.088025793433189392, 0.023244552314281464, 0.020584249868988991, -0.091575995087623596, -0.03857981413602829, -0.061781808733940125, -0.047687593847513199, -0.002787712961435318, -0.00021936095436103642, -0.15710929036140442, 0.050053082406520844, 0.11096580326557159, -0.040617559105157852, -0.043597795069217682, 0.17172418534755707, -0.22276417911052704, -0.034133676439523697, -0.23831580579280853, 0.046726297587156296, 0.15129080414772034, 0.011060647666454315, 0.050795279443264008, -0.04507538303732872, 0.21178992092609406, -0.047772247344255447, -0.022709578275680542, -0.13978751003742218, 0.059800606220960617, 0.12566176056861877, 0.14083202183246613, 0.050317183136940002, 0.0011234636185690761, 0.18349085748195648, -0.058397524058818817, -0.14463452994823456, -0.0051973983645439148, -0.022477373480796814, 0.18324398994445801, 0.030147293582558632, -0.034600492566823959, 0.060208112001419067, -0.009664095938205719, 0.11089733242988586, -0.16783708333969116, -0.044037383049726486, 0.0042433035559952259, -0.049346547573804855, 0.063382625579833984, 0.11937819421291351, 0.1304505318403244, -0.063112489879131317, -0.05784875899553299, 0.15649329125881195, 0.13276109099388123, 0.2973325252532959, -0.072031006217002869, 0.021080344915390015, 0.18340645730495453, 0.21360892057418823, -0.086924649775028229, -0.01342039555311203, 0.25575169920921326, 0.10848169028759003, -0.076809383928775787, -0.034578647464513779, -0.0093944277614355087, 0.014865454286336899, 0.053090829402208328, 0.19232675433158875, -0.020441668108105659, -0.097382962703704834, 0.064481958746910095, 0.026781627908349037, 0.032902278006076813, 0.097167260944843292, -0.11192318797111511, -0.29345551133155823, -0.030729301273822784, -0.21043823659420013, -0.084119305014610291, -0.0020443745888769627, -0.37722110748291016, 0.074106983840465546, 0.079746417701244354, 0.017256772145628929, -0.069900132715702057, -0.0096593266353011131, 0.23074619472026825, -0.04679948091506958, 0.1416349858045578, -0.12516483664512634, -0.022848267108201981, -0.036043237894773483, -0.04268169030547142, 0.027102697640657425, 0.067834071815013885, 0.025532083585858345, -0.055640820413827896, 0.097242727875709534, 0.0074116578325629234, -0.12125574052333832, 0.31416785717010498, 0.26268613338470459, 0.080770336091518402, 0.011213758960366249, -0.14732775092124939, 0.10489848256111145, 0.13875865936279297, -0.00089816976105794311, 0.011294939555227757, -0.0107983173802495, 0.010364735499024391, 0.092591248452663422, 0.13236264884471893, 0.10828683525323868, 0.093793965876102448, 0.059502575546503067, 0.07883569598197937, 0.070517405867576599, 0.096929013729095459, 0.016307532787322998, 0.0091592874377965927, -0.010046090930700302, 0.26066586375236511, 0.047056421637535095, -0.011335333809256554, 0.053492054343223572, 0.12547992169857025, 0.087018348276615143, 0.042725168168544769, -0.061355952173471451, 0.0062649999745190144, 0.095518328249454498, -0.17807638645172119, -0.14392352104187012, 0.10905597358942032, -0.16705521941184998, -0.10996585339307785, 0.016960484907031059, 0.051984217017889023, 0.089950099587440491, -0.045613124966621399, 0.08653346449136734, 0.046226147562265396, -0.03147975355386734, -0.010242520831525326, 0.067388065159320831, -0.046448957175016403, 0.045250110328197479, -0.022794073447585106, -0.031362142413854599, -0.025155439972877502, 0.0082284901291131973, -0.096801243722438812, 0.17525018751621246, -0.0049300738610327244, -0.054184578359127045, 0.02079380676150322, 0.001854818663559854, 0.095002919435501099, 0.083029851317405701, -0.047185622155666351, 0.01584361307322979, -0.036659669131040573, -0.03608248382806778, 0.14978572726249695, -0.08074420690536499, -0.055891372263431549, -0.076592370867729187, -0.019987629726529121, -0.010155620984733105, 0.16494697332382202, -0.090679764747619629, 0.047356240451335907, 0.02214181050658226, 0.065447665750980377, -0.16855290532112122, -0.020880671218037605, 0.10972294211387634, 0.064638085663318634, 0.097635000944137573, 0.2513924241065979, -0.058990392833948135, -0.029399709776043892, -0.064073257148265839, -0.023713311180472374, 0.00034243162372149527, -0.052407953888177872, 0.10178680717945099, -0.03379356861114502, 0.10017852485179901, 0.056851588189601898, -0.15227796137332916, 0.15001042187213898, 0.15470628440380096, 0.012647981755435467, 0.1310553252696991, -0.088658109307289124, -0.00045934895751997828, -0.20723755657672882, -0.22004085779190063, -0.050555452704429626, -0.00041775527643039823, -0.045004595071077347, 0.23468546569347382, 0.019450068473815918, 0.010386641137301922, -0.012848241254687309, 0.025247376412153244, -0.15199363231658936, -0.027810404077172279, 0.031184403225779533, 0.065096065402030945, 0.020373184233903885, -0.11281859874725342, -0.17583741247653961, 0.016744613647460938, -0.1064654141664505, 0.075506523251533508, -0.0019788008648902178, 0.14000514149665833, -0.2277214527130127, 0.088114053010940552, -0.02038821205496788, -0.024966062977910042, -0.054528225213289261, -0.2271542102098465, 0.035228967666625977, 0.022109938785433769, 0.15061567723751068, 0.089588791131973267, -0.044817626476287842, 0.010592182166874409, 0.042250800877809525, -0.079678714275360107, 0.10189034789800644, -0.23269946873188019, 0.0023962182458490133, -0.035895615816116333, 0.076641082763671875, -0.029472365975379944, 0.1146654486656189, 0.19106240570545197, 0.0097683500498533249, 0.016383849084377289, 0.063575297594070435, 0.14390967786312103, -0.044398069381713867, -0.071416020393371582, -0.1196623370051384, 0.10423432290554047, 0.057684749364852905, 0.10726965963840485, -0.19483785331249237, 0.12307634204626083, 0.13368482887744904, -0.13135842978954315, 0.19962291419506073, 0.2607484757900238, 0.053726952522993088, 0.0091592231765389442, -0.0091062430292367935, 0.17457664012908936, -0.080314166843891144, -0.18622349202632904, -0.098761200904846191, -0.05721580982208252, 0.24177177250385284, 0.11186284571886063, 0.012223108671605587, -0.071491234004497528, -0.085659243166446686, 0.029862836003303528, -0.072708338499069214, 0.061837010085582733, 0.12614528834819794, -0.043498635292053223, 0.065947413444519043, -0.19379100203514099, 0.11755382269620895, 0.032509200274944305, -0.017213394865393639, -0.076648756861686707, -0.023891843855381012, -0.011882966384291649, 0.12235042452812195, 0.048521816730499268, -0.054868802428245544, 0.107530876994133, -0.064545147120952606, -0.19676820933818817, 0.070163756608963013, 0.025962203741073608, 0.11103109270334244, -0.0044169118627905846, -0.042422782629728317, 0.050980165600776672, 0.12449618428945541, 0.030856970697641373, -0.012889613397419453, -0.16490383446216583, -0.0059922919608652592, 0.015515275299549103, 0.0070509030483663082, 0.059430371969938278, 0.14383400976657867, 0.12156838923692703, 0.10005034506320953, -0.06747901439666748, -0.037231188267469406, 0.0026920344680547714, 0.056947130709886551, -0.043182674795389175, 0.30350816249847412, 0.10974252969026566, -0.12768083810806274, 0.23759566247463226, 0.0082450937479734421, -0.14782904088497162, -0.0339384526014328, -0.10502591729164124, -0.030054086819291115, 0.054954815655946732, 0.049103360623121262, 0.0068947323597967625, -0.16321973502635956, 0.16159796714782715, -0.031546562910079956, -0.032053951174020767, -0.0057249846868216991, -0.0069241346791386604, -0.025199893862009048, -0.12334902584552765, -0.034888129681348801, -0.092950016260147095, -0.028737232089042664, -0.031452450901269913, -0.084368020296096802, 0.21687811613082886, -0.10914026200771332, -0.018631983548402786, -0.036362532526254654, -0.10568901151418686, 0.12396322190761566, 0.043752454221248627, 0.049962595105171204, 0.12669280171394348, 0.014039378613233566, 0.043059539049863815, -0.18059629201889038, -0.0037362081930041313, -0.0010942228836938739, 0.014030466787517071, 0.052780158817768097, 0.0093268128111958504, -0.037119314074516296, -0.018210308626294136, -0.12394765019416809, 0.23615828156471252, 0.024374842643737793, 0.029326006770133972, -0.01023863535374403, -0.10212357342243195, -0.099912956357002258, 0.037566184997558594, -0.043871618807315826, -0.036906357854604721, 0.037477746605873108, 0.34988325834274292, -0.035901878029108047, 0.29560220241546631, 0.051010165363550186, 0.082978814840316772, 0.041312240064144135, -0.18292327225208282, 0.11596088856458664, -0.029667697846889496, 0.0413343645632267, 0.07594628632068634, 0.28757515549659729, 0.30707153677940369, 0.015189055353403091, 0.027532745152711868, 0.13588027656078339, 0.01521067600697279, -0.027076080441474915, 0.094858460128307343, 0.016949893906712532, 0.31050747632980347, 0.053689021617174149, -0.076707974076271057, -0.037643171846866608, -0.17251613736152649, 0.079216264188289642, -0.050001148134469986, -0.054835330694913864, 0.0069359680637717247, -0.012393493205308914, -0.10744604468345642, 0.21366356313228607, -0.054798204451799393, -0.13081066310405731, 0.23015911877155304, 0.048980347812175751, -0.0082314591854810715, -0.03110400028526783, -0.1699841171503067, 0.30814886093139648, 0.093144580721855164, 0.018398256972432137, 0.26166120171546936, 0.054737057536840439, 0.16649481654167175, 0.11296820640563965, 0.08912242203950882, 0.057212486863136292, -0.36902299523353577, -0.13575109839439392, -0.069793060421943665, -0.028734760358929634, 0.042579535394906998, 0.24053484201431274, 0.038250014185905457, 0.033912047743797302, -0.036819040775299072, -0.12108669430017471, -0.10402059555053711, -0.015789831057190895, 0.18515495955944061, -0.040367420762777328, -0.068267978727817535, 0.072232306003570557, -0.037646867334842682, 0.020845936611294746, 0.11994268745183945, 0.031542524695396423, -0.095412217080593109, 0.20596148073673248, -0.051979184150695801, 0.088132858276367188, 0.056803923100233078, 0.016478342935442924, 0.0014523115241900086, 0.08261784166097641, 0.17580918967723846, -0.046202611178159714, 0.11349266767501831, 0.041125662624835968, 0.086806826293468475, 0.075593568384647369, 0.03382590040564537, 0.026778792962431908, -0.030966311693191528, -0.14024092257022858, -0.021770134568214417, 0.098016746342182159, -0.3073219358921051, 0.018182678148150444, 0.031203612685203552, -0.019457997754216194, -0.071120433509349823, -0.06936587393283844, 0.077358566224575043, -0.021257597953081131, -0.016119664534926414, -0.047815117985010147, 0.076420992612838745, -0.017266122624278069, -0.047388512641191483, 0.048772398382425308, -0.11193085461854935, 0.13311459124088287, 0.076278626918792725, 0.070819467306137085, -0.0017560237320140004, -0.034510459750890732, 0.062823928892612457, -0.25821459293365479, 0.074553817510604858, -0.040530040860176086, -0.17545224726200104, -0.11380708962678909, 0.072856433689594269, 0.021191352978348732, -0.037546843290328979, 0.17050923407077789, 0.11636966466903687, 0.0011372308945283294, 0.02979760430753231, 0.12487147748470306, 0.20949950814247131, 0.073367998003959656, 0.2131737619638443, 0.016535341739654541, 0.054997406899929047, 0.035767544060945511, 0.081949286162853241, 0.11627297103404999, 0.16009800136089325, -0.0049975845031440258, -0.021119976416230202, 0.055549468845129013, 0.17388120293617249, 0.020983098074793816, -0.070825040340423584, 0.11954163014888763, 0.16885682940483093, 0.0074361301958560944, 0.068421103060245514, -0.19190609455108643, 0.056256920099258423, 0.092156104743480682, -0.15429913997650146, 0.086465418338775635, -0.030260512605309486, 0.088235668838024139, -0.090293131768703461, -0.094832561910152435, 0.0055141220800578594, -0.13383309543132782, -0.27227574586868286, -0.049586758017539978, 0.015803754329681396, 0.035411793738603592, -0.15202486515045166, 0.089853242039680481, -0.15446941554546356, -0.13715434074401855, 0.04803871363401413, 0.012781638652086258, 0.096260398626327515, -0.0065642576664686203, -0.090362459421157837, 0.069219276309013367, -0.10495502501726151, 0.10610602796077728, 0.044921740889549255, -0.0018335882341489196, 0.11707549542188644, -0.029022566974163055, -0.062862105667591095, 0.053935348987579346, -0.045501880347728729, -0.090025119483470917, -0.077748410403728485, -0.079684250056743622, -0.18905751407146454, -0.034244336187839508, -0.1399623304605484, -0.050287093967199326, 0.16101266443729401, -0.044518124312162399, -0.059023059904575348, 0.037690404802560806, 0.27843815088272095, 0.17467935383319855, -0.078544452786445618, 0.079249612987041473, -0.086829714477062225, -0.071983195841312408, 0.067697592079639435, 0.038995161652565002, -0.042823504656553268, 0.04163004457950592, 0.033454757183790207, 0.23147492110729218, 0.1119217723608017, 0.017749745398759842, 0.07138349860906601, 0.055232357233762741, 0.077210806310176849, -0.011126173660159111, 0.20222693681716919, -0.0007469899719581008, 0.016902349889278412, 0.014678281731903553, 0.095392107963562012, -0.19988365471363068, 0.055438794195652008, -0.00014283457130659372, -0.077886350452899933, 0.096118807792663574, 0.25205561518669128, -0.028756145387887955, 0.13417649269104004, 0.046104039996862411, 0.0029426452238112688, 0.14745905995368958, 0.14039649069309235, -0.015972370281815529, 0.038658514618873596, -0.065537832677364349, -0.061557836830615997, -0.21493704617023468, 0.22667229175567627, -0.034543536603450775, 0.026072615757584572, -0.068669676780700684, -0.061858300119638443, -0.075049594044685364, 0.045188874006271362, 0.10226640105247498, 0.024408500641584396, 0.063540257513523102, 0.090492129325866699, -0.16860635578632355, 0.022752294316887856, -0.013657419010996819, -0.31427407264709473, -0.052275549620389938, -0.12019643187522888, -0.079046651721000671, -0.094600439071655273, -0.11993686854839325, 
  -0.038579937070608139, -0.041391223669052124, 0.010813534259796143, 0.027919750660657883, -0.012769643217325211, -0.00048056646483018994, -0.051074974238872528, -0.031809858977794647, 0.035239573568105698, 0.067441895604133606, 0.047499213367700577, -0.05910264328122139, 0.027675000950694084, 0.0070417681708931923, 0.0019219835521653295, 0.016188841313123703, 0.004227830097079277, -0.076287746429443359, 0.054872363805770874, -0.065638244152069092, -0.050683032721281052, -0.048925261944532394, 0.057686418294906616, -0.033401660621166229, -0.0068513266742229462, -0.062524802982807159, 0.030340619385242462, 0.0012005993630737066, 0.047203376889228821, 0.047551777213811874, 0.039127934724092484, -0.0020114835351705551, 0.024515455588698387, -0.07069358229637146, -0.066517442464828491, 0.052667029201984406, -0.0028648450970649719, 0.035188321024179459, -0.004518742673099041, 0.062956929206848145, 0.020111024379730225, -0.065121419727802277, 0.051908235996961594, -0.021599914878606796, -0.052737552672624588, -0.0038492241874337196, 0.072552606463432312, 0.054061230272054672, 0.033975914120674133, 0.03192431852221489, -0.01294474583119154, -0.037656433880329132, -0.075142122805118561, -0.027440167963504791, -0.058488499373197556, -0.022279661148786545, 0.063899233937263489, -0.016799559816718102, -0.046393580734729767, -0.021068491041660309, -0.0029203554149717093, 0.047923803329467773, 0.0060341856442391872, 0.014112630859017372, -0.078258149325847626, -0.016573131084442139, 0.015328735113143921, -0.031910639256238937, -0.054833419620990753, -0.022530732676386833, 0.016793167218565941, 0.043359234929084778, -0.067912481725215912, -0.013830091804265976, -0.06558547168970108, -0.028290746733546257, -0.085121780633926392, -0.071575649082660675, 0.0033903371077030897, -0.034057203680276871, -0.037698708474636078, -0.042373262345790863, -0.005690649151802063, -0.050978247076272964, -0.040838874876499176, -0.08677276223897934, -0.068099416792392731, 0.010881682857871056, -0.0076673142611980438, 0.0060086632147431374, -0.063817933201789856, -0.063731305301189423, -0.063230782747268677, 0.036356046795845032, -0.024980111047625542, 0.0082042738795280457, -0.051257472485303879, -0.0015514887636527419, 0.071954876184463501, -0.093537569046020508, -0.032887496054172516, 0.0039941873401403427, 0.053739696741104126, -0.044740661978721619, -0.020253635942935944, 0.021717352792620659, -0.045377325266599655, 0.0093742227181792259, -0.030170513316988945, -0.019693659618496895, 0.0066927820444107056, 0.038024205714464188, -0.063845910131931305, -0.07000809907913208, 0.05054260790348053, -0.013104649260640144, -0.03286067396402359, -0.043245650827884674, -0.059565272182226181, 0.071339532732963562, -0.059518218040466309, -0.017335491254925728, -0.0071958028711378574, 0.0010793564142659307, -0.083329558372497559, -0.056718610227108002, -0.052786920219659805, 0.0026694650296121836, -0.017061807215213776, 0.071387529373168945, -0.062269411981105804, -0.013963513076305389, -0.038892384618520737, -0.092046827077865601, 0.036152161657810211, -0.012247819453477859, 0.058301925659179688, -0.059836529195308685, -0.046900149434804916, 0.044501025229692459, -0.0056648007594048977, -0.070992797613143921, 0.038560207933187485, 0.031683936715126038, 0.014962718822062016, -0.0062475251033902168, -0.022432830184698105, -0.035138711333274841, 0.0055889710783958435, -0.085945680737495422, 0.0078749563544988632, 0.023202050477266312, -0.055390920490026474, 0.029038965702056885, 0.01959548145532608, 0.0031668699812144041, -0.015219493769109249, 0.044099383056163788, 0.04429979994893074, -0.066491059958934784, 0.02328169159591198, -0.079219907522201538, -0.038644012063741684, 0.036974687129259109, -0.053046021610498428, -0.057808786630630493, 4.9498554290039465e-05, -0.053534895181655884, 0.012165859341621399, 0.038150917738676071, 0.049654759466648102, 0.010944746434688568, 0.042145926505327225, -0.065495602786540985, -0.049940422177314758, 0.035391498357057571, -0.0027421615086495876, -0.067132227122783661, 0.021833315491676331, 0.033842559903860092, -0.064970545470714569, -0.013410855084657669, -0.089428424835205078, 0.013915754854679108, 0.0032189339399337769, 0.004178767092525959, -0.04502524808049202, -0.041181478649377823, -0.010904878377914429, 0.02110862173140049, 0.030333209782838821, -0.078160285949707031, 0.030148619785904884, -0.043759386986494064, -0.055786117911338806, 0.060122426599264145, -0.0029898539651185274, 0.038019515573978424, -0.028503431007266045, -0.037097856402397156, -0.072490878403186798, 0.030586272478103638, -0.012650530785322189, -0.0092390915378928185, -0.078216612339019775, -0.022367948666214943, -0.039874758571386337, -0.076332524418830872, 0.068438075482845306, 0.0042322035878896713, 0.042598366737365723, 0.0053798244334757328, -0.010072991251945496, 0.002393386559560895, -0.064474642276763916, -0.012253433465957642, -0.0094646858051419258, 0.047816164791584015, -0.060306590050458908, 0.017474863678216934, -0.049444060772657394, -0.00069113151403144002, -0.037260707467794418, 0.0087762530893087387, -0.07066287100315094, -0.071722954511642456, -0.040320269763469696, -0.06873379647731781, 0.042461417615413666, -0.064052321016788483, 0.0091867800801992416, -0.0071210041642189026, 0.019165754318237305, -0.023622525855898857, 0.038058016449213028, -0.046259686350822449, -0.021302260458469391, -0.055840302258729935, -0.02157631516456604, -0.015637246891856194, -0.092428915202617645, 0.017432885244488716, 0.053004041314125061, -0.058296658098697662, -0.07369878888130188, 0.014791436493396759, 0.0010854835854843259, 0.022431537508964539, 0.021723292768001556, -0.045946534723043442, -0.037885863333940506, 0.053413793444633484, 0.017449880018830299, -0.035248726606369019, -0.053910192102193832, -0.046432420611381531, 0.015350192785263062, -0.038985438644886017, 0.073104366660118103, 0.049731351435184479, 0.073349915444850922, -0.017395870760083199, -0.051666062325239182, 0.055105552077293396, -0.070682860910892487, -0.037304103374481201, -0.033549904823303223, -0.063869506120681763, -0.051669768989086151, 0.03967740386724472, -0.037684276700019836, -0.00024408417812082916, -0.05780242383480072, 0.037399303168058395, -0.038284029811620712, -0.038758255541324615, -0.052842468023300171, -0.048816297203302383, -0.018356431275606155, -0.058534882962703705, -0.028786858543753624, -0.034762751311063766, 0.045798182487487793, -0.036604262888431549, -0.034683912992477417, 0.055875949561595917, -0.068980135023593903, -0.016090143471956253, -0.077148757874965668, 0.030527442693710327, -0.050050210207700729, 0.0043860794976353645, -0.070288091897964478, 0.020093066617846489, 0.046480119228363037, 0.068204358220100403, -0.047860763967037201, 0.018811605870723724, -0.058934934437274933, 0.012529290281236172, 0.045740585774183273, 0.030835883691906929, -0.027292132377624512, -0.07170259952545166, -0.05814414843916893, 0.021978588774800301, 0.017912350594997406, -0.014948668889701366, -0.036115773022174835, -0.069212108850479126, 0.034210465848445892, -0.060051903128623962, 0.067967459559440613, -0.044594421982765198, -0.096490092575550079, -0.031758815050125122, -0.039253462105989456, -0.053372979164123535, -0.074826575815677643, -0.011129631660878658, -0.089095614850521088, 0.052505150437355042, 0.010839030146598816, 0.031658221036195755, 0.023841220885515213, -0.09704127162694931, 0.045705277472734451, -0.048703040927648544, -0.038270942866802216, -0.066034451127052307, -0.088359415531158447, 4.1670755308587104e-05, -0.083779074251651764, 0.059267044067382812, 0.031174154952168465, -0.034323841333389282, -0.012282734736800194, 0.045310795307159424, 0.072475478053092957, -0.017838774248957634, -0.0042693139985203743, -0.081358492374420166, -0.05347907543182373, 0.018159136176109314, -0.02482198178768158, -0.0815538689494133, -0.062221646308898926, -0.01834135502576828, -0.011396370828151703, 0.021551135927438736, -0.07067570835351944, -0.0092122862115502357, 0.0075044399127364159, 0.0041633984073996544, 0.056287497282028198, -0.024804214015603065, -0.0040008500218391418, -0.078326433897018433, 0.0095310984179377556, -0.04558369517326355, 0.038277551531791687, -0.040484830737113953, 0.071051925420761108, -0.031126707792282104, 0.036021012812852859, -0.050410706549882889, -0.049271516501903534, -0.028097525238990784, -0.030336471274495125, 0.012440260499715805, -0.0044449861161410809, -0.05750352144241333, 0.013906549662351608, 0.0016868263483047485, -0.0055093695409595966, -0.018470101058483124, 0.043789483606815338, 0.050606153905391693, -0.046443682163953781, -0.045751281082630157, -0.076430842280387878, -0.014146635308861732, 0.00057658925652503967, 0.00044165962026454508, -0.035727985203266144, 0.0049144551157951355, -0.039380230009555817, 0.014651276171207428, -0.067601718008518219, -0.038702677935361862, 0.033489491790533066, 0.041016530245542526, 0.031102854758501053, -0.047027666121721268, -0.0040760948322713375, 0.036553565412759781, -0.058012757450342178, -0.011986983008682728, -0.015208144672214985, -0.011956656351685524, -0.037600483745336533, -0.016983980312943459, 0.018092557787895203, -0.097381122410297394, -0.023018594831228256, -0.006414901465177536, 0.060051504522562027, 0.022703595459461212, 0.012680817395448685, 0.03509560227394104, 0.027424128726124763, -0.051781207323074341, -0.049720823764801025, -0.010900460183620453, -0.037232067435979843, -0.018156735226511955, 0.044947933405637741, -0.068516895174980164, 0.015347577631473541, -0.082783713936805725, -0.05611274391412735, -0.026769427582621574, 0.042399026453495026, 0.03644135594367981, 0.070637017488479614, -0.024086987599730492, -0.074974782764911652, -0.06824956089258194, -0.023564208298921585, 0.048981934785842896, 0.066754087805747986, 0.022708820179104805, -0.0021786512807011604, 0.050949789583683014, -0.029482748359441757, 0.014543385244905949, -0.090092241764068604, 0.03879721462726593, -0.098291940987110138, 0.041807174682617188, -0.034424114972352982, -0.060414694249629974, 0.020306466147303581, -0.047095321118831635, 0.016904899850487709, -0.050808493047952652, -0.030839016661047935, -0.061196964234113693, -0.0892530158162117, 0.032779037952423096, 0.030592970550060272, -0.081907927989959717, -0.042044021189212799, 0.01954355463385582, 0.029391856864094734, -0.053287748247385025, 0.0013682550052180886, -0.047619875520467758, -0.0088086938485503197, -0.078014887869358063, 0.053101908415555954, 0.05657581239938736, 0.06093389168381691, 0.036973513662815094, 0.00010152508184546605, -0.072802901268005371, 0.018120653927326202, 0.0071158856153488159, -0.049538511782884598, -0.0059257457032799721, -0.0038712432142347097, -0.080869667232036591, 0.030207116156816483, -0.027384849265217781, -0.023044319823384285, 0.061867106705904007, 0.0057021812535822392, -0.066623158752918243, 0.025842988863587379, -0.04039006307721138, -0.023288041353225708, -0.032720878720283508, 0.010407485067844391, -0.032989650964736938, -0.048627275973558426, -0.0090650357306003571, -0.076793037354946136, 0.04896681010723114, 0.038846686482429504, -0.079254083335399628, -0.059892427176237106, 0.039685897529125214, 0.0056160418316721916, -0.0085035096853971481, -0.060665853321552277, 0.034990116953849792, 0.0036741406656801701, 0.021864403039216995, -0.038248635828495026, -0.071239165961742401, 0.0095963664352893829, -0.040085837244987488, 0.04420606791973114, -0.071836516261100769, -0.063228681683540344, 0.041560590267181396, 0.036367639899253845, -0.07336762547492981, -0.023021385073661804, -0.070282109081745148, -0.029415491968393326, -0.0085917925462126732, -0.0066443569958209991, -0.0050870105624198914, 0.029620938003063202, 0.014359055086970329, 0.036584697663784027, -0.028464263305068016, 0.029216846451163292, 0.03163442388176918, -0.027562737464904785, 0.00036088365595787764, -0.018082443624734879, -0.087324358522891998, 0.0098604485392570496, 0.045877661556005478, -0.026424223557114601, 0.068343736231327057, -0.015011988580226898, -0.077787406742572784, 0.025245480239391327, -0.081520304083824158, 0.021428069099783897, -0.020771101117134094, -0.010672328993678093, -0.064973942935466766, 0.029942434281110764, -0.051189873367547989, -0.030920250341296196, 0.031598802655935287, -0.045075446367263794, 0.032076224684715271, -0.030657708644866943, 0.033647984266281128, -0.087992668151855469, 0.030327115207910538, 0.05547843873500824, 0.06006312370300293, -0.043225735425949097, -0.035604089498519897, -0.00042029484757222235, 0.067442014813423157, 0.066620916128158569, -0.048539716750383377, -0.04016411304473877, 0.041291225701570511, -0.070346646010875702, -0.068784132599830627, 0.0095530971884727478, -0.065437808632850647, 0.004476525355130434, 0.050148848444223404, -0.02122940868139267, -0.046089332550764084, 0.039268761873245239, 0.070403024554252625, 0.018047777935862541, -0.068897522985935211, -0.047485537827014923, -0.076959162950515747, -0.037711512297391891, 0.047996576875448227, -0.054825000464916229, -0.068609915673732758, -0.034433018416166306, -0.061667036265134811, -0.051695689558982849, 0.012043163180351257, -0.01844213530421257, -0.066582508385181427, -0.048614200204610825, -0.035223260521888733, 0.018320834264159203, 0.056940969079732895, 0.02703380398452282, -0.023512864485383034, -0.059134270995855331, 0.025191958993673325, 0.04272180050611496, 0.057059943675994873, 0.04350048303604126, -0.03969261422753334, -0.046249207109212875, 0.030190730467438698, 0.067806437611579895, 0.010323747992515564, -0.068570554256439209, -0.075838148593902588, -0.028016230091452599, -0.040294356644153595, -0.031364087015390396, -0.089895732700824738, 0.031961716711521149, 0.045229963958263397, 0.015955746173858643, 0.042175889015197754, -0.021260064095258713, -0.04481055960059166, -0.0063303676433861256, -0.016853457316756248, -0.010664016008377075, -0.058357235044240952, 0.0061666890978813171, 0.047765050083398819, -0.021482875570654869, -0.00089438259601593018, 0.065595388412475586, 0.035827383399009705, 0.019813863560557365, -0.060739282518625259, -0.053041692823171616, -0.037544980645179749, 0.023278698325157166, 0.023394325748085976, -0.039404351264238358, 0.0062055932357907295, 0.055104359984397888, -0.032327353954315186, -0.023749446496367455, -0.027184575796127319, -0.066773600876331329, -0.063775062561035156, -0.005844953004270792, 0.07882671058177948, 0.0029188347980380058, -0.057082194834947586, -0.0066790934652090073, -0.032853599637746811, -0.053612295538187027, 0.015680648386478424, 0.027425503358244896, -0.032043613493442535, -0.0081021040678024292, -0.067915476858615875, -0.015360997058451176, -0.017273847013711929, -0.079238086938858032, 0.0084656029939651489, -0.033309709280729294, -0.065457828342914581, -0.067999936640262604, -0.035274658352136612, -0.002066873712465167, -0.027342488989233971, 0.051809463649988174, -0.066650576889514923, -0.0091558462008833885, 0.017321076244115829, 0.037224635481834412, -0.063754186034202576, -0.040389250963926315, -0.022935368120670319, -0.047048598527908325, -0.047657210379838943, -0.087282516062259674, -0.0015438206028193235, 0.010378261096775532, -0.028983896598219872, -0.065791323781013489, 0.002903245622292161, -0.0076151862740516663, -0.093347996473312378, -0.073861964046955109, 0.028038829565048218, -0.018630404025316238, 0.0085502341389656067, 0.002444930374622345, -0.032916739583015442, -0.064372576773166656, -0.059906758368015289, 0.011967100203037262, 0.043558824807405472, -0.043575387448072433, -0.046926148235797882, 0.066199749708175659, 0.056420069187879562, -0.040715433657169342, 0.013735372573137283, 0.027252841740846634, -0.050007380545139313, -0.048663608729839325, -0.078129656612873077, -0.052059788256883621, -0.01545010507106781, -0.056919321417808533, 0.030960477888584137, 0.043065905570983887, 0.040969770401716232, 0.03552638366818428, -0.076832160353660583, -0.070914007723331451, -0.038866695016622543, -0.024063127115368843, -0.052270218729972839, -0.06165391206741333, -0.042549021542072296, -0.032118644565343857, -0.00055660639191046357, 0.051210071891546249, -0.062296349555253983, -0.04070039838552475, -0.035197056829929352, 0.050580382347106934, -0.045604612678289413, -0.014447345398366451, 0.073014348745346069, 0.030216097831726074, 0.019867729395627975, 0.028232626616954803, -0.043133437633514404, 0.026611942797899246, -0.080290503799915314, -0.023374643176794052, -0.014939070679247379, 0.027222439646720886, 0.039106972515583038, 0.031278103590011597, -0.054593492299318314, -0.0036626725923269987, 0.030320692807435989, -0.014174487441778183, -0.020087165758013725, 0.027412841096520424, 0.047135412693023682, 0.026331599801778793, 0.036308623850345612, -0.04601731151342392, 0.06295439600944519, 0.053207919001579285, 0.031976409256458282, -0.061210714280605316, 0.02084062248468399, 0.013017937541007996, -0.044302493333816528, 0.063914775848388672, 0.0077557805925607681, -0.03324759379029274, -0.042998872697353363, -0.042300373315811157, -0.058594856411218643, 0.034429065883159637, 0.04454478994011879, -0.030756216496229172, 0.024626472964882851, 0.010848149657249451, -0.076725944876670837, -0.0066889058798551559, 0.023818902671337128, 0.023243064060807228, -0.054796908050775528, 0.067115023732185364, 0.03422614187002182, 0.041799396276473999, -0.066675074398517609, 0.058609288185834885, -0.044175252318382263, 0.00093248806660994887, 0.039076786488294601, 0.023349467664957047, 0.05905584990978241, -0.0036107525229454041, 0.060550790280103683, -0.008571322076022625, -0.022869173437356949, -0.0088802780956029892, -0.037646066397428513, 0.015409311279654503, 0.0070111812092363834, -0.042900893837213516, -0.034625116735696793, 0.025395717471837997, -0.020555546507239342, -0.091698750853538513, 0.013184094801545143, 0.058744709938764572, -0.0080725904554128647, 0.013019993901252747, -0.065409831702709198, -0.059673137962818146, 0.0055238557979464531, -0.045341171324253082, -0.010685413144528866, -0.035237587988376617, -0.019857598468661308, -0.02832445316016674, 0.017590673640370369, 0.030749525874853134, 0.017905712127685547, -0.079862117767333984, 0.02041916735470295, 0.025193313136696815, -0.034574907273054123, -0.057319775223731995, 0.048740733414888382, 0.010839082300662994, -0.044270087033510208, 0.017680421471595764, 0.024644568562507629, 0.020969085395336151, -0.0657954141497612, 0.050442114472389221, -0.014708750881254673, 0.036080338060855865, 0.04584314301609993, -0.05672866478562355, 0.033069521188735962, -0.031202223151922226, -0.025277519598603249, 0.036684706807136536, -0.074191831052303314, -0.073381729423999786, -0.024944279342889786, -0.066287979483604431, -0.069901458919048309, 0.014587931334972382, -0.017044434323906898, 0.011812401004135609, 0.053179588168859482, 0.035117194056510925, 0.033693108707666397, -0.0018894412787631154, -0.086507678031921387, 0.023353524506092072, -0.019200015813112259, -0.063581742346286774, -0.06124516949057579, 0.0066616078838706017, 0.034940719604492188, 0.076853916049003601, 0.015245361253619194, 0.0014435409102588892, -0.0019629914313554764, -0.070434153079986572, 0.019543873146176338, -0.0079954806715250015, 0.057726010680198669, -0.07108471542596817, -0.066412843763828278, 0.07546408474445343, -0.045161675661802292, -0.06218283623456955, 0.010070846416056156, 0.035849597305059433, -0.032764922827482224, -0.0401773601770401, -0.00016580671945121139, -0.084927938878536224, 0.049771964550018311, 0.05767715722322464, 0.025707138702273369, 0.0019387759966775775, 0.041125107556581497, -0.0020246936473995447, -0.060034811496734619, -0.02875455841422081, -0.015108047984540462, -0.071773894131183624, 0.053024910390377045, 0.069075673818588257, 0.037462487816810608, 0.044245690107345581, 0.036005347967147827, 0.044915854930877686, 0.029160529375076294, 0.071961015462875366, -0.011293492279946804, 0.058407425880432129, 0.030245332047343254, -0.045424453914165497, 0.044610928744077682, -0.073850154876708984, 0.037368893623352051, 0.011951752007007599, -0.045250523835420609, 0.0062374100089073181, 0.065367847681045532, -0.049488089978694916, -0.063616946339607239, 0.073208019137382507, -0.048259865492582321, -0.084222041070461273, -0.00056350097293034196, -0.00087240181164816022, -0.010762136429548264, 0.011904362589120865, -0.039223480969667435, -0.082574024796485901, -0.045519124716520309, 0.058240875601768494, 0.031090032309293747, 0.023987488821148872, 0.033670570701360703, -0.058287061750888824, -0.04595034196972847, 0.0054890108294785023, 0.007936578243970871, -0.014024998061358929, 0.046885993331670761, -0.0027474977541714907, -0.069982431828975677, 0.015513916499912739, 0.0047001074999570847, 0.072875194251537323, -0.055107664316892624, 0.0045541897416114807, 0.01240132749080658, -0.041766267269849777, -0.010638167150318623, -0.0062576034106314182, 0.0008438982767984271, -0.044981002807617188, -0.087551988661289215, -0.013259478844702244, -0.051338378340005875, 0.052205901592969894, 0.06106998398900032, 0.019708231091499329, -0.021991979330778122, -0.071204356849193573, -0.011486764065921307, -0.067997530102729797, 0.055941760540008545, -0.039206735789775848, 0.049098122864961624, 0.061819817870855331, -0.072985373437404633, 0.0039280280470848083, -0.013566302135586739, 0.038590248674154282, -0.03821118175983429, 0.044195838272571564, -0.057146083563566208, 0.026460058987140656, 0.048204150050878525, -0.0038220328278839588, 0.058752879500389099, -0.0069393813610076904, -0.042321603745222092, -0.050927683711051941, -0.035002507269382477, -0.056337203830480576, 0.047103352844715118, -0.061686255037784576, 0.012740006670355797, -0.018081456422805786, -0.00077041937038302422, 0.031432826071977615, 0.040114171802997589, 0.035079695284366608, 0.0062989336438477039, -0.060486022382974625, 0.0101313516497612, -0.066438674926757812, 0.041832920163869858, 0.029554683715105057, -0.0061135189607739449, -0.032759211957454681, -0.022412640973925591, -0.0083464877679944038, -0.052156172692775726, 0.062709301710128784, 0.0024126819334924221, 0.042082101106643677, 0.042811382561922073, 0.032930262386798859, -0.016755783930420876, -0.034202128648757935, -0.097303867340087891, -0.053649362176656723, 0.030004629865288734, 0.036027457565069199, -0.08472781628370285, -0.062738120555877686, -0.026494035497307777, -0.038267869502305984, 0.034245606511831284, -0.017501885071396828, 0.019869955256581306, -0.023025572299957275, -0.027519887313246727, -0.0090447952970862389, -0.0086368471384048462, -0.086077645421028137, 0.060093440115451813, 0.064974188804626465, -0.038322076201438904, 0.018981501460075378, 0.0065664299763739109, 0.041730619966983795, 0.015874870121479034, 0.037463836371898651, -0.062996044754981995, 0.06269112229347229, -0.0077343573793768883, 0.029747901484370232, 0.0096691260114312172, 0.04132084921002388, -0.013857918791472912, 0.00920860655605793, -0.033403206616640091, -0.027493972331285477, -0.035850942134857178, 0.022882990539073944, 0.0047572478652000427, -0.0006509513477794826, -0.060955438762903214, 0.026467688381671906, 0.017272995784878731, -0.0095738423988223076, -0.061534717679023743, 0.028194088488817215, -0.068579770624637604, 0.046340890228748322, -0.085877798497676849, 
  -0.069298937916755676, 0.011998079717159271, -0.077822566032409668, -0.035003013908863068, -0.077804587781429291, 0.016770347952842712, -0.056511379778385162, 0.043748330324888229, -0.01358856912702322, -0.012358015403151512, -0.01914563775062561, -0.021438760682940483, -0.063828818500041962, -0.0077904602512717247, -0.052955076098442078, -0.037227138876914978, 0.053371593356132507, -0.00968143530189991, 0.063324078917503357, -0.045412946492433548, 0.0052989255636930466, 0.045966703444719315, -0.053570203483104706, -0.057790070772171021, -0.01948387548327446, -0.031673122197389603, -0.05248623713850975, -0.092746809124946594, 0.020470116287469864, 0.03711044043302536, 0.012770127505064011, -0.07467024028301239, -0.026833169162273407, -0.04223005473613739, -0.023383146151900291, 0.064233027398586273, 0.072380281984806061, -0.055306807160377502, 0.07789437472820282, -0.064364686608314514, 0.034121964126825333, -0.025595875456929207, -0.054159123450517654, -0.096792057156562805, -0.027150293812155724, 0.0011865007691085339, -0.065380275249481201, 0.023999633267521858, -0.068991430103778839, -0.027281647548079491, -0.065277867019176483, -0.05424908921122551, 0.0076041799038648605, 0.065397925674915314, 0.063824854791164398, -0.0057588517665863037, -0.072058029472827911, -0.020388923585414886, -0.028921030461788177, -0.081825427711009979, 0.0025823225732892752, 0.030606167390942574, -0.045900631695985794, 0.0022862053010612726, -0.089311406016349792, 0.0049079731106758118, 0.061215907335281372, 0.016790665686130524, 0.0029385760426521301, -0.032191477715969086, 0.042429976165294647, -0.064486309885978699, 0.065572895109653473, -0.010447434149682522, 0.050604626536369324, -0.027059229090809822, -0.017281882464885712, 0.044965643435716629, -0.06620083749294281, -0.066302485764026642, -0.04903009906411171, -0.086673080921173096, -0.064560577273368835, -0.052163220942020416, -0.037339828908443451, -0.024504560977220535, -0.047445673495531082, 0.022511875256896019, -0.058188255876302719, -0.073879025876522064, 0.060616925358772278, -0.018664620816707611, 0.0046079074963927269, 0.051370956003665924, -0.054263029247522354, -0.065714985132217407, -0.032292332500219345, 0.032903589308261871, 0.017358118668198586, -0.022842291742563248, 0.035547908395528793, -0.053549844771623611, -0.066470883786678314, 0.025547444820404053, -0.051100309938192368, 0.012017631903290749, 0.042545713484287262, -0.028833165764808655, 0.06474747508764267, -0.058338850736618042, 0.025103034451603889, -0.062916718423366547, -0.0050962455570697784, 0.0029226311016827822, -0.010273038409650326, 0.017734818160533905, -0.0028801935259252787, 0.028741275891661644, -0.032909467816352844, 0.041599370539188385, 0.062895223498344421, 0.05259062722325325, -0.026005042716860771, 0.011993076652288437, 0.003979547880589962, -0.020193785429000854, 0.0016141164815053344, -0.04487195611000061, -0.0034161482471972704, -0.065402120351791382, 0.02459954097867012, 0.052960790693759918, 0.018988130614161491, -0.09489961713552475, -0.017411161214113235, -0.042310569435358047, 0.014137259684503078, -0.034621570259332657, 0.0089741572737693787, -0.015702603384852409, 0.015721796080470085, 0.037278886884450912, -0.057907622307538986, -0.0047452631406486034, -0.0055174445733428001, 0.0053787929937243462, -0.0095958560705184937, -0.02501167356967926, -0.016936087980866432, -0.073144927620887756, -0.015339301899075508, 0.0073693427257239819, 0.056736499071121216, -0.064068615436553955, -0.010067624971270561, 0.017636591568589211, -0.083612985908985138, -0.0049459608271718025, -0.029173878952860832, 0.0092923892661929131, -0.0024133301340043545, -0.047109507024288177, -0.051165744662284851, -0.039992410689592361, -0.012625842355191708, -0.0098558831959962845, 0.012025485746562481, 0.071630284190177917, -0.0049096513539552689, 0.012647893279790878, 0.06088629737496376, 0.042404875159263611, 0.0024732619058340788, -0.020769981667399406, -0.043169870972633362, -0.043150916695594788, -0.024051927030086517, 0.070413708686828613, -0.030514135956764221, 0.020867297425866127, -0.05439922958612442, 0.0072774812579154968, -0.019871171563863754, -0.041081912815570831, 0.034382209181785583, 0.041580133140087128, -0.036175258457660675, -0.06517241895198822, -0.029590802267193794, 0.015102830715477467, -0.049345690757036209, 0.011289935559034348, 0.012882601469755173, 0.059270277619361877, 0.056976895779371262, 0.03570396825671196, 0.078736931085586548, 0.018145103007555008, 0.060373958200216293, 0.070199504494667053, -0.035872917622327805, 0.038501877337694168, 0.065444447100162506, -0.010214014910161495, -0.022296667098999023, 0.038513794541358948, 0.030366947874426842, -0.040754392743110657, 0.051938485354185104, -0.05096203088760376, 0.040679082274436951, 0.023845197632908821, 0.04326191172003746, -0.054092202335596085, -0.059342794120311737, 0.062287252396345139, -0.030759656801819801, -0.070466242730617523, -0.055612854659557343, -0.049894861876964569, -0.0028820056468248367, -0.020354419946670532, 0.023403141647577286, -0.06779199093580246, -0.082648970186710358, 0.059903789311647415, -0.0077955201268196106, -0.033375654369592667, 0.021137356758117676, -0.0062193106859922409, 0.055303342640399933, 0.05592210590839386, 0.027891790494322777, 0.063625223934650421, 0.066663607954978943, -0.032193794846534729, 0.020106550306081772, -0.00034423024044372141, 0.048264823853969574, 0.040799904614686966, 0.0062223952263593674, 0.069940224289894104, -0.0080743469297885895, -0.084901697933673859, -0.022879330441355705, 0.015606320463120937, -0.034422107040882111, 0.013917222619056702, -0.035882811993360519, -0.074118748307228088, 0.024094628170132637, 0.072587832808494568, 0.012485823594033718, 0.0060954303480684757, 0.040810868144035339, -0.046470221132040024, 0.033312208950519562, 0.0086823403835296631, 0.0068195629864931107, 0.0067942375317215919, -0.0032301368191838264, 0.034360222518444061, -0.055239476263523102, -0.04682551696896553, 0.048049565404653549, 0.049879021942615509, -0.0046980157494544983, -0.058415442705154419, 0.016844345256686211, 0.050651799887418747, -0.058437790721654892, 0.0029060905799269676, -0.038123354315757751, -0.10070959478616714, 0.059931248426437378, -0.096931897103786469, -0.01284994650632143, -0.095917582511901855, -0.0032161211129277945, 0.01407882384955883, 0.069494456052780151, -0.061983492225408554, 0.024992108345031738, -0.047166060656309128, 0.060337580740451813, 0.036483254283666611, -0.060685735195875168, -0.0052597029134631157, 0.055710535496473312, 0.0063655604608356953, -0.069398649036884308, -0.015725722536444664, -0.022354347631335258, 0.052368838340044022, -0.072072476148605347, 0.025701530277729034, -0.057395540177822113, 0.0037825533654540777, 0.059847626835107803, -0.010644339956343174, -0.032011598348617554, -0.036116059869527817, -0.056534536182880402, 0.013159663416445255, -0.054598730057477951, 0.02936384454369545, -0.063892357051372528, -0.068487562239170074, -0.074314944446086884, 0.0073286667466163635, 0.0027873055078089237, -0.01361016184091568, 0.023762740194797516, 0.0075708129443228245, -0.02211642824113369, -0.0024173033889383078, 0.007245202548801899, 0.00014648177602794021, 0.065180890262126923, -0.03338928148150444, -0.092341020703315735, 0.069116637110710144, -0.067322731018066406, -0.10365522652864456, 0.014783326536417007, 0.026900362223386765, -0.057057969272136688, 0.043255828320980072, 0.04106762632727623, 0.053408592939376831, 0.057572249323129654, -0.0085055390372872353, -0.025101007893681526, 0.03643537312746048, 0.0027483568992465734, -0.070785701274871826, 0.063187777996063232, 0.011693771928548813, -0.0059451982378959656, -0.011667910031974316, 0.068079829216003418, -0.066358678042888641, 0.0024111042730510235, -0.069832786917686462, 0.08236771821975708, -0.071150779724121094, -0.050618086010217667, 0.032621540129184723, -0.032139670103788376, -0.053229808807373047, 0.046480659395456314, -0.016012389212846756, -0.058201871812343597, -0.02984374575316906, -0.046308018267154694, 0.055274546146392822, -0.011406286619603634, 0.025023616850376129, -0.060749445110559464, -0.0053232535719871521, -0.010216068476438522, -0.0052907043136656284, 0.021525152027606964, 0.033866085112094879, -0.040026899427175522, 0.062631860375404358, 0.040033414959907532, 0.043672610074281693, -0.063998699188232422, 0.076783090829849243, -0.064134649932384491, 0.0090705472975969315, -0.031256988644599915, -0.041068464517593384, -0.085608161985874176, 0.052099883556365967, -0.0075419247150421143, 0.021751409396529198, -0.0085180047899484634, 0.076207444071769714, -0.098378248512744904, -0.04914001002907753, -0.069856151938438416, 0.011303587816655636, -0.085840083658695221, 0.012856058776378632, 0.038635462522506714, -0.071349821984767914, -0.0083127748221158981, -0.065550908446311951, 0.04476836696267128, 0.046079907566308975, 0.0068696220405399799, 0.062333736568689346, -0.024468731135129929, -0.0034661362878978252, 0.078352339565753937, -0.0017641964368522167, -0.068218030035495758, -0.0070259440690279007, -0.0063708196394145489, -0.11689502745866776, -0.043895520269870758, 0.019325513392686844, -0.01076545100659132, -0.029452096670866013, -0.044001847505569458, 0.041747547686100006, 0.038258865475654602, 0.014900621958076954, -0.042325794696807861, 0.020776430144906044, 0.048406623303890228, 0.073179230093955994, 0.060546159744262695, -0.050271376967430115, -0.085317403078079224, 0.045719843357801437, -0.0046558529138565063, 0.048581056296825409, 0.010525742545723915, -0.038796253502368927, -0.014027058146893978, -0.05780913308262825, -0.023155666887760162, -0.011801177635788918, 0.051065631210803986, -0.046304002404212952, -0.040985088795423508, -0.046567521989345551, -0.0073929578065872192, -0.0052395565435290337, -0.048691913485527039, 0.0032033892348408699, 0.023987341672182083, -0.014558903872966766, -0.026844574138522148, -0.033404480665922165, -0.066079810261726379, -0.0021885409951210022, -0.070568874478340149, -0.0228444654494524, -0.048365674912929535, -0.058151327073574066, -0.016493815928697586, -0.034920141100883484, 0.028419973328709602, 0.052775632590055466, 0.031862922012805939, -0.028531040996313095, 0.052014186978340149, -0.066590115427970886, -0.0049816067330539227, -0.093473508954048157, 0.013569369912147522, -0.049671173095703125, -0.0059881438501179218, -0.013306392356753349, -0.023850861936807632, -0.045811556279659271, 0.001685122842900455, -0.06864619255065918, 0.016920389607548714, 0.0054495199583470821, 0.06586126983165741, 0.016410309821367264, 0.038776077330112457, -0.059068340808153152, 0.023542951792478561, -0.038228169083595276, -0.086011447012424469, 0.021605975925922394, -0.039134562015533447, 0.022172046825289726, 0.046621896326541901, -0.063140228390693665, 0.0062987608835101128, -0.014183705672621727, 0.054364603012800217, 0.018425095826387405, -0.044267669320106506, -0.044581152498722076, 0.052268907427787781, 0.064603075385093689, -0.013667609542608261, -0.035057876259088516, 0.017987564206123352, -0.064440742135047913, 0.042510870844125748, -0.044344328343868256, 0.011189733631908894, -0.091581329703330994, -0.016562517732381821, -0.12764407694339752, -0.015672430396080017, -0.029948525130748749, -0.036731816828250885, -0.013252162374556065, -0.0085472483187913895, -0.079671189188957214, 0.0011550444178283215, -0.054127220064401627, 0.050754610449075699, 0.054450154304504395, 0.028475813567638397, 0.054155498743057251, 0.01398842129856348, 0.036899376660585403, -0.038862261921167374, -0.0067704129032790661, -0.030351588502526283, 0.047531083226203918, -0.02395404689013958, 0.010543316602706909, -0.020552506670355797, -0.015229649841785431, 0.059521198272705078, -0.012525623664259911, -0.0062714791856706142, -0.067309699952602386, 0.036758989095687866, -0.063391685485839844, -0.076157517731189728, -0.059601541608572006, 0.031769737601280212, 0.00018178144819103181, -0.038677919656038284, -0.038452886044979095, 0.060990668833255768, -0.029434829950332642, 0.043900340795516968, -0.084081314504146576, 0.077449604868888855, 0.014408010058104992, -0.030343001708388329, -0.036896247416734695, -0.085936121642589569, -0.020838990807533264, -0.026661865413188934, 0.036206435412168503, -0.069578483700752258, 0.022101594135165215, 0.058060415089130402, 0.030884033069014549, 0.035302948206663132, -0.0031139927450567484, 0.035993561148643494, -0.039898794144392014, -0.041983772069215775, -0.0074492595158517361, 0.011277146637439728, -0.022299740463495255, -0.048758916556835175, -0.022133320569992065, -0.061009828001260757, 0.0058186585083603859, 0.025289148092269897, 0.026946183294057846, -0.043382689356803894, -0.05062677338719368, 0.011994135566055775, -0.0058791539631783962, -0.0066493568010628223, -0.053996812552213669, -0.0044328323565423489, -0.0084060812368988991, 0.0025755532551556826, -0.065969996154308319, 0.033109858632087708, 0.063040241599082947, 0.042148623615503311, -0.011801320128142834, -0.014157508499920368, 0.0018103267066180706, -0.027940677478909492, -0.048605870455503464, -0.0041583175770938396, 0.055083483457565308, 0.057519536465406418, 0.00083956745220348239, 0.0093056373298168182, -0.048052959144115448, 0.062617972493171692, -0.0079457573592662811, -0.02296929620206356, -0.040585577487945557, -0.075317978858947754, -0.069453880190849304, 0.0016284141456708312, -0.038500655442476273, 0.036994569003582001, -0.068891808390617371, -0.03277544304728508, -0.068036943674087524, 0.048800788819789886, -0.051649756729602814, -0.026029381901025772, 0.0073134885169565678, -0.13437753915786743, -0.064656011760234833, 0.031746190041303635, -0.0097425226122140884, -0.014294006861746311, 0.028021408244967461, 0.0017703197663649917, -0.050076913088560104, 0.038337647914886475, -0.068344205617904663, -0.067564845085144043, -0.014626862481236458, 0.04234025627374649, -0.076311729848384857, -0.042939376085996628, -0.061533626168966293, -0.049241349101066589, 0.056226268410682678, 0.069667145609855652, 0.01717357337474823, 0.020165232941508293, -0.018617389723658562, -0.019806375727057457, -0.051795110106468201, -0.070938579738140106, -0.070446379482746124, -0.065364032983779907, -0.0085028065368533134, -0.0709395632147789, -0.029138384386897087, -0.076621666550636292, -0.044868580996990204, 0.02858322486281395, 0.0096076279878616333, 0.043159104883670807, -0.031026344746351242, -0.023929839953780174, 0.0015314501943066716, -0.11147298663854599, -0.01589672826230526, -0.035113729536533356, 0.0091666290536522865, -0.031882043927907944, -0.023405060172080994, -0.029133200645446777, -0.074071422219276428, 0.0023146751336753368, 0.01953471265733242, -0.053314134478569031, -0.031472351402044296, 0.047919947654008865, 0.054227374494075775, 0.050744347274303436, -0.08376428484916687, 0.067225217819213867, 0.040807913988828659, -0.080247744917869568, 0.01676221564412117, 0.031062379479408264, -0.016739971935749054, -0.0047848671674728394, 0.020936466753482819, -0.02884216234087944, -0.066004879772663116, -0.054451275616884232, 0.051035609096288681, -0.065051756799221039, -0.0098746437579393387, 0.058066070079803467, -0.033756349235773087, -0.0097826281562447548, -0.0097794989123940468, -0.039024360477924347, 0.036612439900636673, -0.020380357280373573, 0.075973145663738251, 0.015723459422588348, -0.065270088613033295, -0.059975713491439819, -0.046624377369880676, 0.0030084301251918077, -0.046346969902515411, -0.011174598708748817, -0.012861319817602634, -0.0067714503966271877, -0.072053916752338409, 0.060266334563493729, -0.025892315432429314, -0.031871724873781204, -0.0059405830688774586, -0.025519320741295815, 0.025999464094638824, -0.055191755294799805, -0.053397968411445618, -0.048555899411439896, 0.0013188794255256653, -0.0011551686329767108, -0.0670948326587677, 0.046113185584545135, 0.075730100274085999, -0.056360486894845963, -0.026213403791189194, -0.09736371785402298, -0.072539143264293671, -0.064936608076095581, 0.032849598675966263, 0.01268583070486784, 0.053181231021881104, -0.067465201020240784, 0.00024308449064847082, 0.021047638729214668, 0.026074584573507309, 0.0011944356374442577, -0.04198174923658371, -0.048070676624774933, 0.012182897888123989, 0.022047819569706917, -0.018999909982085228, 0.035480894148349762, 0.031904473900794983, -0.006185571663081646, -0.038587376475334167, -0.061032295227050781, -0.036797992885112762, -0.0041124075651168823, -0.00036437151720747352, -0.011384213343262672, -0.0084854084998369217, -0.12031416594982147, 0.032850183546543121, 0.0044073881581425667, 0.0097398785874247551, 0.055003106594085693, -0.01871136948466301, -0.023519480600953102, -0.048811193555593491, -0.043818067759275436, 0.011548032984137535, -0.097558595240116119, 0.097766757011413574, -0.046468887478113174, 0.042064875364303589, -0.026378938928246498, -0.028550498187541962, 0.021753521636128426, 0.0084257591515779495, 0.0027096939738839865, 0.04273928701877594, -0.021461961790919304, -0.052157066762447357, 0.026739239692687988, 0.070487231016159058, 0.018212556838989258, 0.0020767571404576302, -0.0089417658746242523, 0.029590342193841934, -0.044958259910345078, -0.017711220309138298, -0.061614017933607101, -0.045288678258657455, 0.01696876622736454, 0.067038103938102722, -0.069695174694061279, 0.049037717282772064, 0.053828965872526169, -0.02846715971827507, 0.01842830702662468, -0.00052769557805731893, -0.062818028032779694, 0.063195295631885529, 0.01558823324739933, 0.045981302857398987, -0.020473489537835121, -0.084514476358890533, -0.0085244709625840187, -0.00084578426321968436, -0.093393728137016296, -0.00059584702830761671, 0.034216590225696564, -0.022836195304989815, -0.042429368942975998, -0.011291778646409512, 0.059320539236068726, -0.032233476638793945, -0.033703487366437912, 0.017626559361815453, 0.053706847131252289, 0.011938005685806274, -0.028883993625640869, -0.08083738386631012, -0.063087210059165955, -0.041917700320482254, -0.10236858576536179, 0.0408480204641819, -0.081827163696289062, -0.013028428889811039, 0.044070694595575333, -0.025592988356947899, 0.062573082745075226, -0.050792749971151352, -0.02654758095741272, 0.029205929487943649, 0.039142586290836334, -0.058816093951463699, 0.012721486389636993, 0.011788682080805302, 0.011564363725483418, -0.034135233610868454, 0.037848729640245438, -0.042621541768312454, 0.026129139587283134, 0.0068322177976369858, 0.011187680065631866, -0.022220645099878311, 0.0047431504353880882, 0.017560679465532303, -0.025349689647555351, -0.028825867921113968, -0.035354610532522202, -0.02946058101952076, 0.041248884052038193, -0.020576164126396179, -0.063707157969474792, -0.063736870884895325, 0.048838399350643158, -0.073639899492263794, -0.045826293528079987, 0.032683555036783218, 0.018193364143371582, -0.081135883927345276, 0.024296259507536888, -0.0045699076727032661, 0.013006661087274551, -0.040854446589946747, 0.034861102700233459, -0.051530703902244568, 0.0015607498353347182, -0.073725141584873199, -0.036470524966716766, -0.022420475259423256, -0.0032344951760023832, 0.014624886214733124, 0.066372856497764587, 0.02571377344429493, -0.0021440468262881041, 0.00051303621148690581, -0.021446732804179192, -0.060640018433332443, 0.020903933793306351, -0.0050751343369483948, 0.076348595321178436, -0.0010465654777362943, -0.020130710676312447, -0.067511215806007385, -0.048992987722158432, 0.030835475772619247, -0.036146603524684906, -0.013838820159435272, -0.064344219863414764, -0.09152638167142868, -0.040439046919345856, 0.0066280481405556202, 0.080735176801681519, 0.043088123202323914, -0.064944222569465637, -0.064151749014854431, -0.029225775972008705, 0.006598353385925293, 0.0051857158541679382, -0.084133066236972809, -0.030068933963775635, -0.041417073458433151, -0.023805802688002586, 0.016788266599178314, 0.032721526920795441, -0.016298830509185791, 0.059632010757923126, -0.060864653438329697, -0.010730939917266369, -0.0083413934335112572, 0.0026231557130813599, -0.047715160995721817, 0.048941265791654587, 0.044356387108564377, 0.038385342806577682, -0.017887318506836891, -0.062711074948310852, 0.063103675842285156, -0.056093450635671616, -0.068065181374549866, -0.030941907316446304, -0.019664784893393517, -0.017655467614531517, 0.020239183679223061, -0.1039838045835495, -0.052963260561227798, -0.044056061655282974, -0.061645742505788803, -0.057207509875297546, 0.040067635476589203, 0.020625520497560501, -0.043998219072818756, -0.054137643426656723, 0.044837247580289841, -0.071485899388790131, 0.0036036416422575712, -0.015489575453102589, -0.0093946978449821472, -0.063002333045005798, -0.094133175909519196, 0.022252319380640984, -0.057927709072828293, -0.096063666045665741, 0.033757753670215607, -0.070773370563983917, -0.076055020093917847, 0.013875429518520832, -0.087872251868247986, 0.063178472220897675, 0.0060552172362804413, -0.089096128940582275, -0.029860107228159904, -0.073129959404468536, -0.025834145024418831, -0.043685484677553177, -0.005828286986798048, 0.01938159205019474, -0.0016150353476405144, -0.065657861530780792, -0.004507123026996851, -0.049454811960458755, -0.006516795139759779, 0.00019424408674240112, -0.047021374106407166, -0.045993238687515259, -0.039508074522018433, 0.0054229386150836945, 0.058847770094871521, 0.03130195289850235, 0.011150292120873928, -0.057833123952150345, -0.082007929682731628, 0.0018723005196079612, -0.0008556241518817842, -0.0010997802019119263, 0.019704479724168777, -0.049223631620407104, -0.057071223855018616, -0.053183585405349731, 0.0054797842167317867, -0.025676663964986801, -0.013369686901569366, -0.038183901458978653, -0.068051636219024658, 0.010301105678081512, 0.048334557563066483, 0.061104752123355865, 0.066610820591449738, -0.022543644532561302, -0.058107845485210419, 0.015671025961637497, -0.026161305606365204, -0.080991223454475403, 0.069184422492980957, -0.025799080729484558, -0.048339210450649261, -0.037098653614521027, -0.0099392272531986237, -0.011712723411619663, 0.039125952869653702, 0.055834129452705383, 0.03213227167725563, 0.027536630630493164, -0.03021831251680851, -0.024794358760118484, 0.006853998638689518, -0.09619661420583725, -0.076467975974082947, -0.075190834701061249, 0.05397491529583931, -0.07255970686674118, 0.020637959241867065, 0.046616915613412857, -0.095169030129909515, -0.097834832966327667, -0.054672017693519592, 0.035670388489961624, -0.074181705713272095, 0.029167305678129196, 0.035615235567092896, 0.041609983891248703, -0.072756208479404449, 0.019730037078261375, 0.07140292227268219, -0.033699799329042435, 0.081608429551124573, 0.023846164345741272, -0.0036825267598032951, -0.0076586413197219372, 0.043624810874462128, -0.05901968851685524, -0.050074227154254913, -0.015557917766273022, 0.026954835280776024, 0.045926250517368317, 0.039419479668140411, 0.033398911356925964, -0.086068399250507355, -0.071027189493179321, 0.049181167036294937, 0.039836015552282333, 0.01403866708278656, 0.024460442364215851, 0.050347018986940384, -0.015803612768650055, 0.073088347911834717, -0.066423460841178894, 0.015467330813407898, -0.052565433084964752, -0.05915600061416626, -0.080941423773765564, -0.011347314342856407, -0.044080056250095367, -0.025905909016728401, -0.07703130692243576, 0.065959110856056213, 
  0.0023858125787228346, -0.027403764426708221, -0.016475964337587357, -0.00055936130229383707, -0.0075152390636503696, 0.06861492246389389, -0.016507349908351898, -0.064912937581539154, -0.070173703134059906, 0.020271068438887596, 0.011798511259257793, -0.01881171390414238, 0.013582381419837475, -0.041996177285909653, 0.070943944156169891, -0.075262688100337982, 0.0014211460947990417, 0.04208727553486824, -0.045559033751487732, -0.044788949191570282, 0.0050052311271429062, -0.044289857149124146, -0.15257008373737335, -0.072352185845375061, 0.052683256566524506, -0.068338349461555481, -0.018097471445798874, 0.095433399081230164, -0.061053711920976639, -0.03784526139497757, -0.064259305596351624, -0.044749360531568527, -0.026852864772081375, -0.040841434150934219, 0.058862838894128799, -0.1054290384054184, 0.040462039411067963, -0.096604980528354645, 0.038765937089920044, 0.033062249422073364, 0.0063270330429077148, -0.035688504576683044, -0.063721790909767151, -0.016546405851840973, -0.074660740792751312, 0.054560016840696335, 0.010437667369842529, -0.071843579411506653, 0.017663914710283279, -0.051270470023155212, -0.024182938039302826, 0.010316934436559677, 0.043175108730792999, 0.0054264739155769348, 0.049418073147535324, 0.069132015109062195, 0.028807982802391052, 0.073494359850883484, -0.083393216133117676, -0.028462283313274384, 0.04598628357052803, -0.065388105809688568, 0.065951384603977203, 0.033705387264490128, -0.015367438085377216, -0.058788176625967026, -0.020222865045070648, -0.095438189804553986, 0.06610511988401413, 0.02888156846165657, -0.10315992683172226, -0.015089559368789196, 0.0032490231096744537, -0.023467551916837692, 0.069217503070831299, -0.027514617890119553, 0.010069417767226696, 0.048835482448339462, 0.059273786842823029, -0.12643073499202728, -0.044978037476539612, 0.045470267534255981, -0.0030024126172065735, 0.0073827020823955536, 0.069960147142410278, -0.073786340653896332, -0.037518452852964401, 0.060327261686325073, 0.028400672599673271, -0.03322947770357132, 0.0012426367029547691, 0.023545261472463608, -0.062235467135906219, -0.05712195485830307, -0.029070597141981125, -0.0086198281496763229, 0.0050137508660554886, 0.0089158331975340843, 0.095588795840740204, -0.086944140493869781, 0.046612493693828583, 0.04683263972401619, -0.06785089522600174, 0.022742390632629395, -0.0012363450368866324, 0.067314900457859039, -0.044719360768795013, -0.019347922876477242, -0.11074738204479218, 0.042261291295289993, -0.043215431272983551, 0.057786859571933746, 0.0004902352811768651, 0.020052878186106682, -0.026295259594917297, -0.0033603571355342865, -0.026141032576560974, -0.029131140559911728, 0.026889592409133911, -0.038263827562332153, -0.043496355414390564, -0.04149993509054184, -0.027677273377776146, -0.057906206697225571, 0.058750279247760773, -0.047304190695285797, 0.053037524223327637, -0.056845329701900482, 0.055161736905574799, -0.018127117305994034, 0.0034001991152763367, -0.05776263028383255, 0.05172371119260788, -0.0034286733716726303, -0.0024140053428709507, 0.046377196907997131, 0.01267014816403389, 0.013047723099589348, 0.006068564485758543, -0.014858043752610683, -0.022512286901473999, 0.023173334077000618, 0.0010103408712893724, -0.061208449304103851, 0.0022185668349266052, -0.037584457546472549, -0.011677190661430359, 0.023178813979029655, -0.072156541049480438, -0.047796692699193954, -0.091997332870960236, -0.089298196136951447, -0.0020818796474486589, 0.043152734637260437, -0.054889589548110962, -0.058208450675010681, -0.064732976257801056, -0.057891901582479477, -0.061362337321043015, -0.048788361251354218, -0.055158257484436035, -0.03915439173579216, 0.076299697160720825, 0.016152365133166313, 0.034401573240756989, -0.039244592189788818, 0.076973423361778259, 0.002341926097869873, 0.084075778722763062, -0.026108909398317337, 0.0072822794318199158, 0.071692012250423431, -0.089780844748020172, 0.058409962803125381, 0.058020457625389099, -0.0022950887214392424, -0.086082376539707184, -0.0095234876498579979, 0.061506018042564392, 0.041962943971157074, -0.029006760567426682, 0.073247805237770081, -0.058595262467861176, 0.022476240992546082, -0.022779181599617004, -0.017129462212324142, 0.0038680036086589098, -0.020209580659866333, 0.10122804343700409, 0.054651796817779541, -0.073077075183391571, -0.043274320662021637, 0.035527683794498444, -0.018186908215284348, -0.063095837831497192, 0.0033811356406658888, -0.0039530117064714432, 0.065355539321899414, -0.0017306269146502018, -0.063438683748245239, -0.026598474010825157, -0.022935435175895691, 0.042807038873434067, -0.059578444808721542, -0.10548027604818344, -0.051211301237344742, 0.13089284300804138, -0.025193404406309128, -0.025860084220767021, 0.0091104870662093163, 0.030150644481182098, -0.055638134479522705, 0.00093711912631988525, -0.040914088487625122, -0.087884388864040375, -0.058304741978645325, -0.054084286093711853, 0.0031505750957876444, -0.013053137809038162, -0.04015934094786644, -0.0079577071592211723, -0.010724015533924103, -0.052458100020885468, -0.075544700026512146, -0.10263656824827194, -0.035993359982967377, -0.024386482313275337, -0.092696875333786011, -0.041591808199882507, -0.044399052858352661, -0.017644722014665604, -0.061757732182741165, 0.0141006950289011, -0.033902879804372787, -0.019776571542024612, -0.056446552276611328, -0.060374438762664795, 0.066263310611248016, 0.058962315320968628, -0.019122855737805367, -0.0491156205534935, 0.037248499691486359, 0.055600926280021667, -0.11358577013015747, -0.061260975897312164, -0.012091320008039474, -0.079661518335342407, -0.024743910878896713, 0.0099775791168212891, -0.050826266407966614, -0.0762186199426651, -0.0060446960851550102, 0.047453951090574265, -0.060875680297613144, 0.062351319938898087, -0.022331157699227333, 0.015572885982692242, -0.00092858821153640747, 0.024508185684680939, 0.016577381640672684, -0.004786892794072628, -0.018570695072412491, -0.089842818677425385, -0.036574453115463257, -0.066728048026561737, 0.025006569921970367, 0.042750578373670578, -0.038551565259695053, -0.083069808781147003, 0.054024487733840942, 0.051961198449134827, -0.063492871820926666, -0.022690450772643089, -0.050453193485736847, -0.041112065315246582, -0.04271099716424942, 0.029238555580377579, 0.021691692993044853, 0.025411210954189301, 0.037579961121082306, -0.020925205200910568, 0.00035288662184029818, 0.074678026139736176, -0.037718437612056732, -0.087530843913555145, 0.065295621752738953, -0.0032413809094578028, 0.021147819235920906, -0.032216832041740417, -0.072738632559776306, -0.011069551110267639, -0.021704209968447685, 0.031071931123733521, -0.035107079893350601, -0.066423110663890839, 0.072780534625053406, -0.075244098901748657, 0.026111377403140068, -0.039215784519910812, -0.033673364669084549, -0.060953222215175629, 0.026052650064229965, 0.015930786728858948, 0.0061095110140740871, 0.051941059529781342, -0.07079218327999115, 0.0058006569743156433, -0.084626078605651855, 0.0043080197647213936, -0.034647624939680099, -0.041818328201770782, -0.051735538989305496, -0.049667000770568848, 0.065417319536209106, -0.06619531661272049, -0.025170158594846725, -0.079928532242774963, -0.047565724700689316, 0.047390472143888474, 0.01340373232960701, -0.092247046530246735, -0.011240527033805847, 0.059631690382957458, 0.02369147352874279, -0.059552595019340515, -0.08395858108997345, -0.013056488707661629, 0.074829071760177612, 0.037600021809339523, -0.057914275676012039, 0.041470967233181, -0.035536892712116241, -0.015223301015794277, -0.083175294101238251, -0.086715921759605408, -0.1105177253484726, -0.082051686942577362, -0.081229016184806824, 0.074125289916992188, -0.11972237378358841, -0.075562179088592529, 0.032143790274858475, 0.012351680546998978, 0.013336961157619953, 0.034459635615348816, 0.021919488906860352, -0.04707682877779007, -0.010590453632175922, -0.036334153264760971, 0.047258980572223663, -0.025289164856076241, -0.082993961870670319, -0.10181085765361786, -0.024684213101863861, -0.070409335196018219, -0.098272331058979034, -0.025514103472232819, -0.076248824596405029, -0.095114327967166901, -0.036708954721689224, -0.033065076917409897, -0.033429980278015137, 0.01795661449432373, -0.041223395615816116, -0.069808937609195709, -0.030906325206160545, 0.020084090530872345, 0.029546741396188736, -0.084748700261116028, -0.038325522094964981, -0.0070341601967811584, 0.045810896903276443, -0.021929021924734116, -0.064372830092906952, 0.068824209272861481, 0.069414421916007996, 0.071269840002059937, 0.026846066117286682, -0.0059019308537244797, -0.045789133757352829, -0.059694014489650726, 0.03515760600566864, -0.064164116978645325, -0.013447866775095463, -0.037205055356025696, -0.038631051778793335, 0.019535139203071594, -0.0042026657611131668, -0.026178933680057526, -0.00051945482846349478, -0.0012940700398758054, -0.042816087603569031, 0.038506951183080673, 0.014987878501415253, 0.019421447068452835, -0.043612446635961533, 0.035237055271863937, -0.11216850578784943, -0.089361689984798431, -0.020660405978560448, -0.058683283627033234, -0.070660986006259918, -0.03121417760848999, 0.051676604896783829, 0.0099819954484701157, 0.018771860748529434, -0.073636762797832489, 0.039358612149953842, 0.024266649037599564, -0.047007862478494644, -0.03993929922580719, 0.016200846061110497, -0.010420716367661953, 0.04520057886838913, -0.063472457230091095, -0.10480695217847824, -0.015841957181692123, -0.031499378383159637, -0.062599003314971924, -0.013765220530331135, 0.043635040521621704, -0.087840795516967773, 0.011802115477621555, 0.0069579556584358215, 0.020554021000862122, 0.022705009207129478, 0.016414240002632141, -0.092840738594532013, -0.035652890801429749, 0.062851198017597198, 0.021270662546157837, -0.036006398499011993, -0.074536852538585663, -0.042289521545171738, -0.051416948437690735, 0.0098332865163683891, -0.055584203451871872, -0.03983534500002861, -0.035631243139505386, -0.062117759138345718, 0.042640700936317444, 0.011465117335319519, -0.070319265127182007, -0.07484772801399231, -0.069976203143596649, -0.078970812261104584, -0.061893563717603683, -0.015295160934329033, -0.028003018349409103, 0.033982455730438232, 0.029406793415546417, 0.0021433783695101738, 0.0055703134275972843, -0.027780812233686447, -0.073808781802654266, 0.064291782677173615, -0.074025385081768036, -0.059680607169866562, -0.033783376216888428, -0.098914630711078644, -0.082829557359218597, -0.10405335575342178, 0.0056407637894153595, -0.04899495467543602, -0.093786582350730896, 0.0041010458953678608, -0.04837442934513092, -0.0023796036839485168, -0.00061717268545180559, 0.0098958900198340416, -0.01957525871694088, -0.043127350509166718, 0.10358622670173645, -0.097374364733695984, -0.11110126227140427, -0.057179145514965057, -0.012230660766363144, 0.034803923219442368, 0.019606694579124451, -0.028735896572470665, -0.063824348151683807, -0.011413108557462692, -0.06992524117231369, -0.057389792054891586, -0.0086409226059913635, -0.041040442883968353, 0.040382720530033112, 0.016589857637882233, -0.10159161686897278, -0.014338690787553787, -0.055192656815052032, -0.047800254076719284, 0.027163844555616379, 0.04284338653087616, -0.0042315497994422913, -0.038403451442718506, -0.061578813940286636, -0.0071115712635219097, -0.045179929584264755, -0.020824018865823746, -0.034083757549524307, 0.010912381112575531, -0.023588517680764198, -0.0039200261235237122, -0.036278098821640015, -0.031227223575115204, -0.05895315483212471, -0.02773393876850605, 0.031211432069540024, 0.0034802630543708801, 0.049305669963359833, -0.015613370575010777, 0.042726587504148483, 0.051242545247077942, -0.036083679646253586, -0.0083742858842015266, 0.03384678065776825, -0.080255806446075439, -0.015088711865246296, -0.0020881036762148142, 0.023594789206981659, 0.033116869628429413, -0.016451191157102585, -0.047085296362638474, -0.030725272372364998, 0.026134109124541283, -0.022328572347760201, -0.082292415201663971, -0.042307633906602859, 0.025748997926712036, -0.022093173116445541, 0.024929149076342583, 0.0016621417598798871, -0.058094121515750885, 0.0065850634127855301, 0.054925747215747833, 0.01059807650744915, -0.10754086822271347, 0.016816176474094391, 0.015282598324120045, -0.025400940328836441, -0.037721343338489532, -0.0021819437388330698, -0.012895457446575165, -0.0021709159482270479, -0.046377014368772507, -0.06345105916261673, -0.067837953567504883, -0.060594551265239716, 0.0011673086555674672, -0.016026671975851059, -0.01663639023900032, -0.050126023590564728, -0.027700446546077728, -0.073714524507522583, -0.039455808699131012, 0.015850421041250229, -0.036571592092514038, 0.019548684358596802, 0.050910182297229767, 0.027869608253240585, 0.01035037636756897, -0.065246701240539551, 0.0032833223231136799, -0.015096766874194145, -0.070842206478118896, -0.053101256489753723, 0.038023479282855988, -0.052940428256988525, -0.014652270823717117, -0.066508367657661438, -0.058274827897548676, -0.014171313494443893, 0.021583281457424164, -0.034515760838985443, -0.022468704730272293, -0.066989250481128693, 0.0077121779322624207, -0.035628814250230789, 0.012981579639017582, -0.034882001578807831, -0.043837141245603561, -0.057920120656490326, -0.072364695370197296, 0.014006141573190689, -0.051284000277519226, 0.0022540937643498182, -0.046142343431711197, -0.013025849126279354, -0.049800951033830643, 0.054258652031421661, -0.090026356279850006, 0.0037285275757312775, -0.098562441766262054, -0.051600143313407898, -0.084073416888713837, -0.036678232252597809, 0.0061762165278196335, 0.040514964610338211, 0.048683244735002518, -0.10710825026035309, -0.065809875726699829, -0.078133314847946167, -0.033101931214332581, 0.025769272819161415, -0.044249538332223892, -0.044508237391710281, -0.10936232656240463, 0.022580582648515701, 0.047766048461198807, 0.048264443874359131, -0.030901852995157242, -0.04196259006857872, -0.027503689751029015, -0.039556007832288742, 0.002610720694065094, 0.033616263419389725, 0.0069012334570288658, 0.02454078197479248, -0.015532811172306538, 0.051988039165735245, 0.090725846588611603, 0.01708008348941803, 0.027130316942930222, -0.096081659197807312, 0.007460438646376133, -0.054251305758953094, -0.08861115574836731, 0.0014389280695468187, 0.029066301882266998, 0.028758186846971512, 0.046455554664134979, 0.0057472363114356995, 0.0079168528318405151, -0.016876367852091789, -0.086259044706821442, -0.049514185637235641, -0.045614380389451981, -0.046582825481891632, -0.032084692269563675, -0.02109198085963726, -0.04381590336561203, 0.053437650203704834, -0.0028321170248091221, 0.046498708426952362, -0.11364760249853134, -0.066868141293525696, -0.017930604517459869, -0.065325014293193817, 0.042350903153419495, -0.018973058089613914, -0.021393425762653351, 0.014548583887517452, -0.10223624110221863, -0.08557455986738205, -0.062607213854789734, 0.0022813279647380114, -0.11115989089012146, 0.0076046213507652283, -0.016361422836780548, -0.066736847162246704, 0.021610138937830925, -0.093339316546916962, -0.01927010715007782, -0.011359320022165775, -0.047667097300291061, -0.06542331725358963, 0.018772542476654053, 0.041387312114238739, 0.061138514429330826, -0.079671360552310944, -0.018771423026919365, 0.0054775825701653957, -0.0098935533314943314, 0.05792824923992157, -0.10536671429872513, 0.0038881227374076843, 0.01813211478292942, -0.00077395141124725342, 0.062010541558265686, 0.032800033688545227, 0.011402332223951817, 0.012479148805141449, -0.060736462473869324, 0.019113017246127129, 0.060922842472791672, -0.0053274109959602356, 0.0079036243259906769, 0.0069166119210422039, 0.062705688178539276, -0.065995901823043823, -0.082757547497749329, -0.049543660134077072, -0.051783710718154907, -0.081768788397312164, 0.029199518263339996, 0.037848785519599915, 0.058074131608009338, -0.032450884580612183, -0.1013486459851265, 0.069721423089504242, 0.060079067945480347, 0.0025323189329355955, 0.045498691499233246, 0.023059353232383728, -0.026120156049728394, 0.019260235130786896, -0.071152597665786743, 0.00047652563080191612, -0.098930962383747101, -0.12109221518039703, 0.048352688550949097, 0.061343282461166382, -0.0018259119242429733, -0.021989258006215096, 0.039365123957395554, -0.095192268490791321, -0.06970369815826416, -0.087731897830963135, -0.017815511673688889, 0.087564975023269653, -0.010454733856022358, -0.0017910599708557129, -0.022887395694851875, -0.096629545092582703, -0.03632788360118866, -0.09078390896320343, -0.034046631306409836, -0.0010719726560637355, 0.032647725194692612, -0.057638689875602722, -0.057226702570915222, 0.0017508232267573476, 0.034181240946054459, -0.094714894890785217, -0.10481338948011398, -0.095630742609500885, 0.054254699498414993, -0.030043613165616989, -0.13124799728393555, -0.032540492713451385, -0.029091915115714073, 0.065158873796463013, 0.0086209028959274292, -0.028340991586446762, 0.0020436944905668497, -0.012926720082759857, -0.027897203341126442, 0.022418832406401634, -0.025890767574310303, 0.047142814844846725, 0.021988457068800926, 0.010493014939129353, -0.066919848322868347, -0.050186220556497574, 0.035239841789007187, 0.027573529630899429, 0.01794135570526123, -0.067757211625576019, 0.070044204592704773, -0.012766879051923752, 0.051092848181724548, -0.030365452170372009, -0.12979012727737427, -0.024278061464428902, -0.033304259181022644, -0.007549528032541275, 0.037020131945610046, -0.011099284514784813, 0.06971585750579834, -0.0037529021501541138, 0.004667358472943306, 0.016115482896566391, -0.014726170338690281, 0.013475755229592323, 0.028233043849468231, 0.016572499647736549, 0.040081482380628586, -0.036210916936397552, -0.0055955424904823303, -0.055608130991458893, 0.035670183598995209, -0.091687731444835663, -0.071424864232540131, -0.011762425303459167, -0.12452829629182816, -0.019747249782085419, 0.026048760861158371, -0.040739361196756363, -0.05970337986946106, -0.0119248041883111, -0.07367241382598877, -0.037645891308784485, -0.020001435652375221, -0.08522941917181015, 0.063394926488399506, -0.078606568276882172, -0.057318374514579773, 0.056900154799222946, -0.038352970033884048, -0.031606897711753845, 0.043069671839475632, -0.00054744631052017212, 0.029253626242280006, 0.04888162761926651, -0.085269011557102203, -0.037638027220964432, 0.044715553522109985, -0.064551353454589844, -0.045024465769529343, 0.053823649883270264, -0.06952492892742157, -0.09942665696144104, 0.073046267032623291, -0.064241737127304077, -0.07163054496049881, 0.055535253137350082, -0.028153058141469955, 0.047933176159858704, -0.030002964660525322, -0.11677008867263794, -0.061264660209417343, -0.081081680953502655, -0.018595825880765915, -0.053120490163564682, 0.057211399078369141, 0.012973019853234291, -0.006328115239739418, -0.059699781239032745, 0.023517390713095665, -0.072158664464950562, -0.052980523556470871, -0.038930222392082214, 0.021074153482913971, 0.030501790344715118, 0.025320108979940414, 0.014552305452525616, -0.065554849803447723, -0.045652605593204498, 0.0072022676467895508, 0.0067523396573960781, -0.06907779723405838, -0.00012030878860969096, 0.01463361456990242, 0.036046959459781647, -0.0053050415590405464, -0.076079517602920532, -0.074600465595722198, 0.035520583391189575, -0.10372751206159592, -0.041264012455940247, 0.008971046656370163, -0.025822333991527557, -0.035313613712787628, -0.037244092673063278, -0.052441556006669998, -0.037255119532346725, -0.049569569528102875, -0.086748115718364716, 0.036855012178421021, 0.0066187069751322269, 0.0070949308574199677, -0.076424002647399902, -0.10322397947311401, -0.013934615068137646, 0.022028058767318726, -0.010195605456829071, -0.10063471645116806, -0.015785124152898788, 0.03138013556599617, 0.054103489965200424, -0.070365160703659058, -0.050047252327203751, -0.0066201407462358475, -0.023022238165140152, -0.0025433097034692764, -0.10658830404281616, -0.019940553233027458, 0.051135390996932983, 0.032464295625686646, -0.020858068019151688, 0.0010637833038344979, 0.032448902726173401, 0.019713813439011574, -0.039786249399185181, 0.015117250382900238, -0.012446664273738861, -0.045725300908088684, -0.063870072364807129, -0.034600883722305298, 0.018983574584126472, 0.054167483001947403, -0.078022114932537079, 0.014056317508220673, 0.051267914474010468, 0.05900895968079567, -0.045934680849313736, -0.053858391940593719, -0.053905237466096878, -0.028948837891221046, -0.026055723428726196, -0.044218607246875763, -0.057725526392459869, 0.032783940434455872, -0.0714617520570755, 0.061279073357582092, 0.032937292009592056, -0.06226508691906929, 0.0018052934901788831, -0.036999307572841644, -0.018894627690315247, -0.032697960734367371, -0.029951333999633789, -0.077187880873680115, -0.056923165917396545, -0.0572214275598526, 0.045806709676980972, -0.036845460534095764, -0.048813324421644211, -0.014611523598432541, -0.084566541016101837, 0.032357640564441681, -0.039346776902675629, 0.021992819383740425, -0.079128526151180267, 0.041975408792495728, -0.014672520570456982, -0.12206977605819702, 0.015551288612186909, 0.037781868129968643, 0.069127336144447327, -0.10020849853754044, 0.022828049957752228, -0.00094768754206597805, 0.024112574756145477, -0.0049116611480712891, 0.011575870215892792, -0.012704158201813698, 0.019556738436222076, -0.113493911921978, -0.064637072384357452, 0.017707889899611473, 0.0041647627949714661, -0.040627539157867432, 0.018217697739601135, 0.021520979702472687, -0.015879705548286438, 0.052551865577697754, -0.068622991442680359, -0.020287364721298218, -0.064178436994552612, 0.014245122671127319, -0.012270938605070114, -0.06410980224609375, -0.0046274466440081596, -0.053484003990888596, 0.014842572622001171, -0.053909119218587875, -0.0050677210092544556, 0.038638051599264145, -0.048644512891769409, -0.046361275017261505, -0.05936124175786972, -0.070796862244606018, 0.043148737400770187, -0.031787719577550888, -0.020440798252820969, -0.058555334806442261, -0.045852050185203552, 0.068218320608139038, -0.024308923631906509, -0.092424392700195312, -0.033724166452884674, -0.03535722941160202, -0.069177404046058655, -0.011827793903648853, -0.030135519802570343, -0.033350307494401932, -0.0032831281423568726, -0.058621108531951904, -0.086524121463298798, -0.090522080659866333, 0.041361618787050247, -0.0072360634803771973, -0.040368422865867615, -0.023307755589485168, -0.0085683902725577354, -0.10369148850440979, 0.0047961454838514328, 0.0031289593316614628, -0.020974600687623024, -0.11777616292238235, -0.09700506180524826, -0.077117688953876495, -0.020530704408884048, -0.093095682561397552, 0.067702978849411011, -0.0004773972905240953, 0.073789067566394806, 0.055362328886985779, -0.043201211839914322, -0.046507254242897034, -0.014228567481040955, 0.005041878204792738, -0.0286870077252388, 0.020550794899463654, 0.072041377425193787, -0.027051368728280067, 0.016508987173438072, -0.047673605382442474, 0.03768794983625412, 0.012671420350670815, -0.105824314057827, -0.06239241361618042, 0.061607897281646729, -0.063848964869976044, -0.0078623592853546143, 0.040146529674530029, -0.082882016897201538, 0.0094099026173353195, -0.038996703922748566, 0.0031385752372443676, 0.028488703072071075, -0.033681455999612808, 
